digraph Tree {
node [shape=box, style="filled, rounded", color="black", fontname="helvetica"] ;
edge [fontname="helvetica"] ;
0 [label=<Glucose &le; 139.5<br/>gini = 0.439<br/>samples = 487<br/>value = [518, 250]<br/>class = 1>, fillcolor="#f2be99"] ;
1 [label=<DiabetesPedigreeFunction &le; 0.611<br/>gini = 0.345<br/>samples = 369<br/>value = [459.0, 131.0]<br/>class = 1>, fillcolor="#eca572"] ;
0 -> 1 [labeldistance=2.5, labelangle=45, headlabel="True"] ;
2 [label=<BMI &le; 45.4<br/>gini = 0.278<br/>samples = 288<br/>value = [384, 77]<br/>class = 1>, fillcolor="#ea9a61"] ;
1 -> 2 ;
3 [label=<Insulin &le; 7.5<br/>gini = 0.259<br/>samples = 280<br/>value = [382, 69]<br/>class = 1>, fillcolor="#ea985d"] ;
2 -> 3 ;
4 [label=<BMI &le; 29.55<br/>gini = 0.339<br/>samples = 147<br/>value = [178, 49]<br/>class = 1>, fillcolor="#eca470"] ;
3 -> 4 ;
5 [label=<DiabetesPedigreeFunction &le; 0.533<br/>gini = 0.173<br/>samples = 64<br/>value = [85, 9]<br/>class = 1>, fillcolor="#e88e4e"] ;
4 -> 5 ;
6 [label=<SkinThickness &le; 5.0<br/>gini = 0.128<br/>samples = 58<br/>value = [81, 6]<br/>class = 1>, fillcolor="#e78a48"] ;
5 -> 6 ;
7 [label=<DiabetesPedigreeFunction &le; 0.219<br/>gini = 0.191<br/>samples = 38<br/>value = [50, 6]<br/>class = 1>, fillcolor="#e89051"] ;
6 -> 7 ;
8 [label=<gini = 0.0<br/>samples = 14<br/>value = [19, 0]<br/>class = 1>, fillcolor="#e58139"] ;
7 -> 8 ;
9 [label=<Age &le; 46.0<br/>gini = 0.272<br/>samples = 24<br/>value = [31, 6]<br/>class = 1>, fillcolor="#ea995f"] ;
7 -> 9 ;
10 [label=<BMI &le; 28.2<br/>gini = 0.121<br/>samples = 19<br/>value = [29, 2]<br/>class = 1>, fillcolor="#e78a47"] ;
9 -> 10 ;
11 [label=<Glucose &le; 136.0<br/>gini = 0.064<br/>samples = 18<br/>value = [29, 1]<br/>class = 1>, fillcolor="#e68540"] ;
10 -> 11 ;
12 [label=<gini = 0.0<br/>samples = 17<br/>value = [29, 0]<br/>class = 1>, fillcolor="#e58139"] ;
11 -> 12 ;
13 [label=<gini = 0.0<br/>samples = 1<br/>value = [0, 1]<br/>class = 0>, fillcolor="#399de5"] ;
11 -> 13 ;
14 [label=<gini = 0.0<br/>samples = 1<br/>value = [0, 1]<br/>class = 0>, fillcolor="#399de5"] ;
10 -> 14 ;
15 [label=<DiabetesPedigreeFunction &le; 0.273<br/>gini = 0.444<br/>samples = 5<br/>value = [2, 4]<br/>class = 0>, fillcolor="#9ccef2"] ;
9 -> 15 ;
16 [label=<Age &le; 54.5<br/>gini = 0.5<br/>samples = 4<br/>value = [2, 2]<br/>class = 1>, fillcolor="#ffffff"] ;
15 -> 16 ;
17 [label=<gini = 0.0<br/>samples = 2<br/>value = [0, 2]<br/>class = 0>, fillcolor="#399de5"] ;
16 -> 17 ;
18 [label=<gini = 0.0<br/>samples = 2<br/>value = [2, 0]<br/>class = 1>, fillcolor="#e58139"] ;
16 -> 18 ;
19 [label=<gini = 0.0<br/>samples = 1<br/>value = [0, 2]<br/>class = 0>, fillcolor="#399de5"] ;
15 -> 19 ;
20 [label=<gini = 0.0<br/>samples = 20<br/>value = [31, 0]<br/>class = 1>, fillcolor="#e58139"] ;
6 -> 20 ;
21 [label=<BloodPressure &le; 66.0<br/>gini = 0.49<br/>samples = 6<br/>value = [4, 3]<br/>class = 1>, fillcolor="#f8e0ce"] ;
5 -> 21 ;
22 [label=<gini = 0.0<br/>samples = 3<br/>value = [3, 0]<br/>class = 1>, fillcolor="#e58139"] ;
21 -> 22 ;
23 [label=<Age &le; 38.0<br/>gini = 0.375<br/>samples = 3<br/>value = [1, 3]<br/>class = 0>, fillcolor="#7bbeee"] ;
21 -> 23 ;
24 [label=<DiabetesPedigreeFunction &le; 0.562<br/>gini = 0.5<br/>samples = 2<br/>value = [1, 1]<br/>class = 1>, fillcolor="#ffffff"] ;
23 -> 24 ;
25 [label=<gini = 0.0<br/>samples = 1<br/>value = [0, 1]<br/>class = 0>, fillcolor="#399de5"] ;
24 -> 25 ;
26 [label=<gini = 0.0<br/>samples = 1<br/>value = [1, 0]<br/>class = 1>, fillcolor="#e58139"] ;
24 -> 26 ;
27 [label=<gini = 0.0<br/>samples = 1<br/>value = [0, 2]<br/>class = 0>, fillcolor="#399de5"] ;
23 -> 27 ;
28 [label=<BloodPressure &le; 77.0<br/>gini = 0.421<br/>samples = 83<br/>value = [93, 40]<br/>class = 1>, fillcolor="#f0b78e"] ;
4 -> 28 ;
29 [label=<SkinThickness &le; 11.0<br/>gini = 0.481<br/>samples = 55<br/>value = [52.0, 35.0]<br/>class = 1>, fillcolor="#f6d6be"] ;
28 -> 29 ;
30 [label=<Glucose &le; 97.5<br/>gini = 0.498<br/>samples = 33<br/>value = [24, 27]<br/>class = 0>, fillcolor="#e9f4fc"] ;
29 -> 30 ;
31 [label=<BMI &le; 32.25<br/>gini = 0.153<br/>samples = 9<br/>value = [11, 1]<br/>class = 1>, fillcolor="#e78c4b"] ;
30 -> 31 ;
32 [label=<BMI &le; 31.05<br/>gini = 0.375<br/>samples = 4<br/>value = [3, 1]<br/>class = 1>, fillcolor="#eeab7b"] ;
31 -> 32 ;
33 [label=<gini = 0.0<br/>samples = 3<br/>value = [3, 0]<br/>class = 1>, fillcolor="#e58139"] ;
32 -> 33 ;
34 [label=<gini = 0.0<br/>samples = 1<br/>value = [0, 1]<br/>class = 0>, fillcolor="#399de5"] ;
32 -> 34 ;
35 [label=<gini = 0.0<br/>samples = 5<br/>value = [8, 0]<br/>class = 1>, fillcolor="#e58139"] ;
31 -> 35 ;
36 [label=<Age &le; 43.0<br/>gini = 0.444<br/>samples = 24<br/>value = [13, 26]<br/>class = 0>, fillcolor="#9ccef2"] ;
30 -> 36 ;
37 [label=<Age &le; 27.0<br/>gini = 0.467<br/>samples = 21<br/>value = [13, 22]<br/>class = 0>, fillcolor="#aed7f4"] ;
36 -> 37 ;
38 [label=<Age &le; 22.0<br/>gini = 0.245<br/>samples = 5<br/>value = [1, 6]<br/>class = 0>, fillcolor="#5aade9"] ;
37 -> 38 ;
39 [label=<gini = 0.0<br/>samples = 1<br/>value = [1, 0]<br/>class = 1>, fillcolor="#e58139"] ;
38 -> 39 ;
40 [label=<gini = 0.0<br/>samples = 4<br/>value = [0, 6]<br/>class = 0>, fillcolor="#399de5"] ;
38 -> 40 ;
41 [label=<Pregnancies &le; 8.5<br/>gini = 0.49<br/>samples = 16<br/>value = [12, 16]<br/>class = 0>, fillcolor="#cee6f8"] ;
37 -> 41 ;
42 [label=<Pregnancies &le; 4.5<br/>gini = 0.375<br/>samples = 11<br/>value = [5, 15]<br/>class = 0>, fillcolor="#7bbeee"] ;
41 -> 42 ;
43 [label=<BMI &le; 39.0<br/>gini = 0.49<br/>samples = 4<br/>value = [4, 3]<br/>class = 1>, fillcolor="#f8e0ce"] ;
42 -> 43 ;
44 [label=<gini = 0.0<br/>samples = 3<br/>value = [4, 0]<br/>class = 1>, fillcolor="#e58139"] ;
43 -> 44 ;
45 [label=<gini = 0.0<br/>samples = 1<br/>value = [0, 3]<br/>class = 0>, fillcolor="#399de5"] ;
43 -> 45 ;
46 [label=<BMI &le; 38.25<br/>gini = 0.142<br/>samples = 7<br/>value = [1, 12]<br/>class = 0>, fillcolor="#49a5e7"] ;
42 -> 46 ;
47 [label=<gini = 0.0<br/>samples = 6<br/>value = [0, 12]<br/>class = 0>, fillcolor="#399de5"] ;
46 -> 47 ;
48 [label=<gini = 0.0<br/>samples = 1<br/>value = [1, 0]<br/>class = 1>, fillcolor="#e58139"] ;
46 -> 48 ;
49 [label=<DiabetesPedigreeFunction &le; 0.442<br/>gini = 0.219<br/>samples = 5<br/>value = [7, 1]<br/>class = 1>, fillcolor="#e99355"] ;
41 -> 49 ;
50 [label=<gini = 0.0<br/>samples = 4<br/>value = [7, 0]<br/>class = 1>, fillcolor="#e58139"] ;
49 -> 50 ;
51 [label=<gini = 0.0<br/>samples = 1<br/>value = [0, 1]<br/>class = 0>, fillcolor="#399de5"] ;
49 -> 51 ;
52 [label=<gini = 0.0<br/>samples = 3<br/>value = [0, 4]<br/>class = 0>, fillcolor="#399de5"] ;
36 -> 52 ;
53 [label=<BloodPressure &le; 75.5<br/>gini = 0.346<br/>samples = 22<br/>value = [28, 8]<br/>class = 1>, fillcolor="#eca572"] ;
29 -> 53 ;
54 [label=<Pregnancies &le; 10.0<br/>gini = 0.32<br/>samples = 21<br/>value = [28, 7]<br/>class = 1>, fillcolor="#eca06a"] ;
53 -> 54 ;
55 [label=<BMI &le; 38.7<br/>gini = 0.257<br/>samples = 20<br/>value = [28, 5]<br/>class = 1>, fillcolor="#ea985c"] ;
54 -> 55 ;
56 [label=<BMI &le; 35.0<br/>gini = 0.219<br/>samples = 19<br/>value = [28, 4]<br/>class = 1>, fillcolor="#e99355"] ;
55 -> 56 ;
57 [label=<DiabetesPedigreeFunction &le; 0.252<br/>gini = 0.332<br/>samples = 11<br/>value = [15, 4]<br/>class = 1>, fillcolor="#eca36e"] ;
56 -> 57 ;
58 [label=<DiabetesPedigreeFunction &le; 0.183<br/>gini = 0.494<br/>samples = 5<br/>value = [5, 4]<br/>class = 1>, fillcolor="#fae6d7"] ;
57 -> 58 ;
59 [label=<gini = 0.0<br/>samples = 2<br/>value = [5, 0]<br/>class = 1>, fillcolor="#e58139"] ;
58 -> 59 ;
60 [label=<gini = 0.0<br/>samples = 3<br/>value = [0, 4]<br/>class = 0>, fillcolor="#399de5"] ;
58 -> 60 ;
61 [label=<gini = 0.0<br/>samples = 6<br/>value = [10, 0]<br/>class = 1>, fillcolor="#e58139"] ;
57 -> 61 ;
62 [label=<gini = 0.0<br/>samples = 8<br/>value = [13, 0]<br/>class = 1>, fillcolor="#e58139"] ;
56 -> 62 ;
63 [label=<gini = 0.0<br/>samples = 1<br/>value = [0, 1]<br/>class = 0>, fillcolor="#399de5"] ;
55 -> 63 ;
64 [label=<gini = 0.0<br/>samples = 1<br/>value = [0, 2]<br/>class = 0>, fillcolor="#399de5"] ;
54 -> 64 ;
65 [label=<gini = 0.0<br/>samples = 1<br/>value = [0, 1]<br/>class = 0>, fillcolor="#399de5"] ;
53 -> 65 ;
66 [label=<Age &le; 34.5<br/>gini = 0.194<br/>samples = 28<br/>value = [41, 5]<br/>class = 1>, fillcolor="#e89051"] ;
28 -> 66 ;
67 [label=<gini = 0.0<br/>samples = 11<br/>value = [19, 0]<br/>class = 1>, fillcolor="#e58139"] ;
66 -> 67 ;
68 [label=<DiabetesPedigreeFunction &le; 0.397<br/>gini = 0.302<br/>samples = 17<br/>value = [22, 5]<br/>class = 1>, fillcolor="#eb9e66"] ;
66 -> 68 ;
69 [label=<Age &le; 37.5<br/>gini = 0.219<br/>samples = 14<br/>value = [21, 3]<br/>class = 1>, fillcolor="#e99355"] ;
68 -> 69 ;
70 [label=<gini = 0.0<br/>samples = 2<br/>value = [0, 3]<br/>class = 0>, fillcolor="#399de5"] ;
69 -> 70 ;
71 [label=<gini = 0.0<br/>samples = 12<br/>value = [21, 0]<br/>class = 1>, fillcolor="#e58139"] ;
69 -> 71 ;
72 [label=<Glucose &le; 108.5<br/>gini = 0.444<br/>samples = 3<br/>value = [1, 2]<br/>class = 0>, fillcolor="#9ccef2"] ;
68 -> 72 ;
73 [label=<gini = 0.0<br/>samples = 1<br/>value = [1, 0]<br/>class = 1>, fillcolor="#e58139"] ;
72 -> 73 ;
74 [label=<gini = 0.0<br/>samples = 2<br/>value = [0, 2]<br/>class = 0>, fillcolor="#399de5"] ;
72 -> 74 ;
75 [label=<Pregnancies &le; 13.0<br/>gini = 0.163<br/>samples = 133<br/>value = [204, 20]<br/>class = 1>, fillcolor="#e88d4c"] ;
3 -> 75 ;
76 [label=<BloodPressure &le; 98.0<br/>gini = 0.156<br/>samples = 132<br/>value = [204, 19]<br/>class = 1>, fillcolor="#e78d4b"] ;
75 -> 76 ;
77 [label=<Age &le; 31.5<br/>gini = 0.142<br/>samples = 131<br/>value = [204, 17]<br/>class = 1>, fillcolor="#e78c49"] ;
76 -> 77 ;
78 [label=<SkinThickness &le; 24.5<br/>gini = 0.098<br/>samples = 101<br/>value = [166, 9]<br/>class = 1>, fillcolor="#e68844"] ;
77 -> 78 ;
79 [label=<gini = 0.0<br/>samples = 49<br/>value = [84, 0]<br/>class = 1>, fillcolor="#e58139"] ;
78 -> 79 ;
80 [label=<BMI &le; 34.7<br/>gini = 0.178<br/>samples = 52<br/>value = [82, 9]<br/>class = 1>, fillcolor="#e88f4f"] ;
78 -> 80 ;
81 [label=<Glucose &le; 127.0<br/>gini = 0.301<br/>samples = 24<br/>value = [31, 7]<br/>class = 1>, fillcolor="#eb9d66"] ;
80 -> 81 ;
82 [label=<SkinThickness &le; 31.5<br/>gini = 0.165<br/>samples = 21<br/>value = [30, 3]<br/>class = 1>, fillcolor="#e88e4d"] ;
81 -> 82 ;
83 [label=<gini = 0.0<br/>samples = 16<br/>value = [27, 0]<br/>class = 1>, fillcolor="#e58139"] ;
82 -> 83 ;
84 [label=<Pregnancies &le; 2.5<br/>gini = 0.5<br/>samples = 5<br/>value = [3, 3]<br/>class = 1>, fillcolor="#ffffff"] ;
82 -> 84 ;
85 [label=<Pregnancies &le; 0.5<br/>gini = 0.375<br/>samples = 4<br/>value = [3, 1]<br/>class = 1>, fillcolor="#eeab7b"] ;
84 -> 85 ;
86 [label=<gini = 0.0<br/>samples = 1<br/>value = [0, 1]<br/>class = 0>, fillcolor="#399de5"] ;
85 -> 86 ;
87 [label=<gini = 0.0<br/>samples = 3<br/>value = [3, 0]<br/>class = 1>, fillcolor="#e58139"] ;
85 -> 87 ;
88 [label=<gini = 0.0<br/>samples = 1<br/>value = [0, 2]<br/>class = 0>, fillcolor="#399de5"] ;
84 -> 88 ;
89 [label=<Pregnancies &le; 4.0<br/>gini = 0.32<br/>samples = 3<br/>value = [1, 4]<br/>class = 0>, fillcolor="#6ab6ec"] ;
81 -> 89 ;
90 [label=<gini = 0.0<br/>samples = 2<br/>value = [0, 4]<br/>class = 0>, fillcolor="#399de5"] ;
89 -> 90 ;
91 [label=<gini = 0.0<br/>samples = 1<br/>value = [1, 0]<br/>class = 1>, fillcolor="#e58139"] ;
89 -> 91 ;
92 [label=<Insulin &le; 38.0<br/>gini = 0.073<br/>samples = 28<br/>value = [51, 2]<br/>class = 1>, fillcolor="#e68641"] ;
80 -> 92 ;
93 [label=<Pregnancies &le; 0.5<br/>gini = 0.444<br/>samples = 2<br/>value = [2, 1]<br/>class = 1>, fillcolor="#f2c09c"] ;
92 -> 93 ;
94 [label=<gini = 0.0<br/>samples = 1<br/>value = [0, 1]<br/>class = 0>, fillcolor="#399de5"] ;
93 -> 94 ;
95 [label=<gini = 0.0<br/>samples = 1<br/>value = [2, 0]<br/>class = 1>, fillcolor="#e58139"] ;
93 -> 95 ;
96 [label=<Glucose &le; 129.0<br/>gini = 0.039<br/>samples = 26<br/>value = [49, 1]<br/>class = 1>, fillcolor="#e6843d"] ;
92 -> 96 ;
97 [label=<gini = 0.0<br/>samples = 23<br/>value = [44, 0]<br/>class = 1>, fillcolor="#e58139"] ;
96 -> 97 ;
98 [label=<DiabetesPedigreeFunction &le; 0.451<br/>gini = 0.278<br/>samples = 3<br/>value = [5, 1]<br/>class = 1>, fillcolor="#ea9a61"] ;
96 -> 98 ;
99 [label=<BloodPressure &le; 81.0<br/>gini = 0.5<br/>samples = 2<br/>value = [1, 1]<br/>class = 1>, fillcolor="#ffffff"] ;
98 -> 99 ;
100 [label=<gini = 0.0<br/>samples = 1<br/>value = [0, 1]<br/>class = 0>, fillcolor="#399de5"] ;
99 -> 100 ;
101 [label=<gini = 0.0<br/>samples = 1<br/>value = [1, 0]<br/>class = 1>, fillcolor="#e58139"] ;
99 -> 101 ;
102 [label=<gini = 0.0<br/>samples = 1<br/>value = [4, 0]<br/>class = 1>, fillcolor="#e58139"] ;
98 -> 102 ;
103 [label=<BMI &le; 34.1<br/>gini = 0.287<br/>samples = 30<br/>value = [38, 8]<br/>class = 1>, fillcolor="#ea9c63"] ;
77 -> 103 ;
104 [label=<SkinThickness &le; 23.5<br/>gini = 0.074<br/>samples = 16<br/>value = [25, 1]<br/>class = 1>, fillcolor="#e68641"] ;
103 -> 104 ;
105 [label=<Insulin &le; 82.0<br/>gini = 0.198<br/>samples = 6<br/>value = [8, 1]<br/>class = 1>, fillcolor="#e89152"] ;
104 -> 105 ;
106 [label=<gini = 0.0<br/>samples = 1<br/>value = [0, 1]<br/>class = 0>, fillcolor="#399de5"] ;
105 -> 106 ;
107 [label=<gini = 0.0<br/>samples = 5<br/>value = [8, 0]<br/>class = 1>, fillcolor="#e58139"] ;
105 -> 107 ;
108 [label=<gini = 0.0<br/>samples = 10<br/>value = [17, 0]<br/>class = 1>, fillcolor="#e58139"] ;
104 -> 108 ;
109 [label=<BMI &le; 35.15<br/>gini = 0.455<br/>samples = 14<br/>value = [13, 7]<br/>class = 1>, fillcolor="#f3c5a4"] ;
103 -> 109 ;
110 [label=<gini = 0.0<br/>samples = 4<br/>value = [0, 6]<br/>class = 0>, fillcolor="#399de5"] ;
109 -> 110 ;
111 [label=<Glucose &le; 127.5<br/>gini = 0.133<br/>samples = 10<br/>value = [13, 1]<br/>class = 1>, fillcolor="#e78b48"] ;
109 -> 111 ;
112 [label=<gini = 0.0<br/>samples = 8<br/>value = [12, 0]<br/>class = 1>, fillcolor="#e58139"] ;
111 -> 112 ;
113 [label=<Insulin &le; 123.5<br/>gini = 0.5<br/>samples = 2<br/>value = [1, 1]<br/>class = 1>, fillcolor="#ffffff"] ;
111 -> 113 ;
114 [label=<gini = 0.0<br/>samples = 1<br/>value = [1, 0]<br/>class = 1>, fillcolor="#e58139"] ;
113 -> 114 ;
115 [label=<gini = 0.0<br/>samples = 1<br/>value = [0, 1]<br/>class = 0>, fillcolor="#399de5"] ;
113 -> 115 ;
116 [label=<gini = 0.0<br/>samples = 1<br/>value = [0, 2]<br/>class = 0>, fillcolor="#399de5"] ;
76 -> 116 ;
117 [label=<gini = 0.0<br/>samples = 1<br/>value = [0, 1]<br/>class = 0>, fillcolor="#399de5"] ;
75 -> 117 ;
118 [label=<Glucose &le; 84.5<br/>gini = 0.32<br/>samples = 8<br/>value = [2, 8]<br/>class = 0>, fillcolor="#6ab6ec"] ;
2 -> 118 ;
119 [label=<gini = 0.0<br/>samples = 1<br/>value = [1, 0]<br/>class = 1>, fillcolor="#e58139"] ;
118 -> 119 ;
120 [label=<Pregnancies &le; 8.5<br/>gini = 0.198<br/>samples = 7<br/>value = [1, 8]<br/>class = 0>, fillcolor="#52a9e8"] ;
118 -> 120 ;
121 [label=<gini = 0.0<br/>samples = 6<br/>value = [0, 8]<br/>class = 0>, fillcolor="#399de5"] ;
120 -> 121 ;
122 [label=<gini = 0.0<br/>samples = 1<br/>value = [1, 0]<br/>class = 1>, fillcolor="#e58139"] ;
120 -> 122 ;
123 [label=<Pregnancies &le; 8.5<br/>gini = 0.487<br/>samples = 81<br/>value = [75, 54]<br/>class = 1>, fillcolor="#f8dcc8"] ;
1 -> 123 ;
124 [label=<Glucose &le; 104.0<br/>gini = 0.456<br/>samples = 73<br/>value = [74, 40]<br/>class = 1>, fillcolor="#f3c5a4"] ;
123 -> 124 ;
125 [label=<Glucose &le; 28.5<br/>gini = 0.176<br/>samples = 26<br/>value = [37, 4]<br/>class = 1>, fillcolor="#e88f4e"] ;
124 -> 125 ;
126 [label=<gini = 0.0<br/>samples = 1<br/>value = [0, 1]<br/>class = 0>, fillcolor="#399de5"] ;
125 -> 126 ;
127 [label=<Insulin &le; 68.0<br/>gini = 0.139<br/>samples = 25<br/>value = [37, 3]<br/>class = 1>, fillcolor="#e78b49"] ;
125 -> 127 ;
128 [label=<gini = 0.0<br/>samples = 14<br/>value = [20, 0]<br/>class = 1>, fillcolor="#e58139"] ;
127 -> 128 ;
129 [label=<DiabetesPedigreeFunction &le; 0.808<br/>gini = 0.255<br/>samples = 11<br/>value = [17, 3]<br/>class = 1>, fillcolor="#ea975c"] ;
127 -> 129 ;
130 [label=<gini = 0.0<br/>samples = 4<br/>value = [9, 0]<br/>class = 1>, fillcolor="#e58139"] ;
129 -> 130 ;
131 [label=<DiabetesPedigreeFunction &le; 0.905<br/>gini = 0.397<br/>samples = 7<br/>value = [8, 3]<br/>class = 1>, fillcolor="#efb083"] ;
129 -> 131 ;
132 [label=<gini = 0.0<br/>samples = 1<br/>value = [0, 2]<br/>class = 0>, fillcolor="#399de5"] ;
131 -> 132 ;
133 [label=<Insulin &le; 75.5<br/>gini = 0.198<br/>samples = 6<br/>value = [8, 1]<br/>class = 1>, fillcolor="#e89152"] ;
131 -> 133 ;
134 [label=<gini = 0.0<br/>samples = 1<br/>value = [0, 1]<br/>class = 0>, fillcolor="#399de5"] ;
133 -> 134 ;
135 [label=<gini = 0.0<br/>samples = 5<br/>value = [8, 0]<br/>class = 1>, fillcolor="#e58139"] ;
133 -> 135 ;
136 [label=<Glucose &le; 127.5<br/>gini = 0.5<br/>samples = 47<br/>value = [37, 36]<br/>class = 1>, fillcolor="#fefcfa"] ;
124 -> 136 ;
137 [label=<Insulin &le; 227.5<br/>gini = 0.482<br/>samples = 35<br/>value = [31, 21]<br/>class = 1>, fillcolor="#f7d6bf"] ;
136 -> 137 ;
138 [label=<Pregnancies &le; 2.5<br/>gini = 0.494<br/>samples = 32<br/>value = [26, 21]<br/>class = 1>, fillcolor="#fae7d9"] ;
137 -> 138 ;
139 [label=<BMI &le; 32.45<br/>gini = 0.463<br/>samples = 22<br/>value = [21, 12]<br/>class = 1>, fillcolor="#f4c9aa"] ;
138 -> 139 ;
140 [label=<Glucose &le; 105.5<br/>gini = 0.153<br/>samples = 8<br/>value = [11, 1]<br/>class = 1>, fillcolor="#e78c4b"] ;
139 -> 140 ;
141 [label=<gini = 0.0<br/>samples = 1<br/>value = [0, 1]<br/>class = 0>, fillcolor="#399de5"] ;
140 -> 141 ;
142 [label=<gini = 0.0<br/>samples = 7<br/>value = [11, 0]<br/>class = 1>, fillcolor="#e58139"] ;
140 -> 142 ;
143 [label=<Age &le; 39.5<br/>gini = 0.499<br/>samples = 14<br/>value = [10, 11]<br/>class = 0>, fillcolor="#edf6fd"] ;
139 -> 143 ;
144 [label=<Age &le; 28.5<br/>gini = 0.43<br/>samples = 12<br/>value = [5, 11]<br/>class = 0>, fillcolor="#93caf1"] ;
143 -> 144 ;
145 [label=<DiabetesPedigreeFunction &le; 0.781<br/>gini = 0.494<br/>samples = 7<br/>value = [5, 4]<br/>class = 1>, fillcolor="#fae6d7"] ;
144 -> 145 ;
146 [label=<BMI &le; 44.1<br/>gini = 0.375<br/>samples = 3<br/>value = [1, 3]<br/>class = 0>, fillcolor="#7bbeee"] ;
145 -> 146 ;
147 [label=<gini = 0.0<br/>samples = 2<br/>value = [0, 3]<br/>class = 0>, fillcolor="#399de5"] ;
146 -> 147 ;
148 [label=<gini = 0.0<br/>samples = 1<br/>value = [1, 0]<br/>class = 1>, fillcolor="#e58139"] ;
146 -> 148 ;
149 [label=<BloodPressure &le; 51.0<br/>gini = 0.32<br/>samples = 4<br/>value = [4, 1]<br/>class = 1>, fillcolor="#eca06a"] ;
145 -> 149 ;
150 [label=<gini = 0.0<br/>samples = 1<br/>value = [0, 1]<br/>class = 0>, fillcolor="#399de5"] ;
149 -> 150 ;
151 [label=<gini = 0.0<br/>samples = 3<br/>value = [4, 0]<br/>class = 1>, fillcolor="#e58139"] ;
149 -> 151 ;
152 [label=<gini = 0.0<br/>samples = 5<br/>value = [0, 7]<br/>class = 0>, fillcolor="#399de5"] ;
144 -> 152 ;
153 [label=<gini = 0.0<br/>samples = 2<br/>value = [5, 0]<br/>class = 1>, fillcolor="#e58139"] ;
143 -> 153 ;
154 [label=<BMI &le; 26.0<br/>gini = 0.459<br/>samples = 10<br/>value = [5, 9]<br/>class = 0>, fillcolor="#a7d3f3"] ;
138 -> 154 ;
155 [label=<Insulin &le; 24.0<br/>gini = 0.444<br/>samples = 4<br/>value = [4, 2]<br/>class = 1>, fillcolor="#f2c09c"] ;
154 -> 155 ;
156 [label=<gini = 0.0<br/>samples = 3<br/>value = [4, 0]<br/>class = 1>, fillcolor="#e58139"] ;
155 -> 156 ;
157 [label=<gini = 0.0<br/>samples = 1<br/>value = [0, 2]<br/>class = 0>, fillcolor="#399de5"] ;
155 -> 157 ;
158 [label=<SkinThickness &le; 9.0<br/>gini = 0.219<br/>samples = 6<br/>value = [1, 7]<br/>class = 0>, fillcolor="#55abe9"] ;
154 -> 158 ;
159 [label=<gini = 0.0<br/>samples = 1<br/>value = [1, 0]<br/>class = 1>, fillcolor="#e58139"] ;
158 -> 159 ;
160 [label=<gini = 0.0<br/>samples = 5<br/>value = [0, 7]<br/>class = 0>, fillcolor="#399de5"] ;
158 -> 160 ;
161 [label=<gini = 0.0<br/>samples = 3<br/>value = [5, 0]<br/>class = 1>, fillcolor="#e58139"] ;
137 -> 161 ;
162 [label=<Age &le; 24.5<br/>gini = 0.408<br/>samples = 12<br/>value = [6, 15]<br/>class = 0>, fillcolor="#88c4ef"] ;
136 -> 162 ;
163 [label=<BloodPressure &le; 54.0<br/>gini = 0.494<br/>samples = 4<br/>value = [5, 4]<br/>class = 1>, fillcolor="#fae6d7"] ;
162 -> 163 ;
164 [label=<gini = 0.0<br/>samples = 1<br/>value = [0, 3]<br/>class = 0>, fillcolor="#399de5"] ;
163 -> 164 ;
165 [label=<SkinThickness &le; 11.5<br/>gini = 0.278<br/>samples = 3<br/>value = [5, 1]<br/>class = 1>, fillcolor="#ea9a61"] ;
163 -> 165 ;
166 [label=<gini = 0.0<br/>samples = 1<br/>value = [0, 1]<br/>class = 0>, fillcolor="#399de5"] ;
165 -> 166 ;
167 [label=<gini = 0.0<br/>samples = 2<br/>value = [5, 0]<br/>class = 1>, fillcolor="#e58139"] ;
165 -> 167 ;
168 [label=<Age &le; 53.0<br/>gini = 0.153<br/>samples = 8<br/>value = [1, 11]<br/>class = 0>, fillcolor="#4ba6e7"] ;
162 -> 168 ;
169 [label=<gini = 0.0<br/>samples = 7<br/>value = [0, 11]<br/>class = 0>, fillcolor="#399de5"] ;
168 -> 169 ;
170 [label=<gini = 0.0<br/>samples = 1<br/>value = [1, 0]<br/>class = 1>, fillcolor="#e58139"] ;
168 -> 170 ;
171 [label=<BloodPressure &le; 92.0<br/>gini = 0.124<br/>samples = 8<br/>value = [1, 14]<br/>class = 0>, fillcolor="#47a4e7"] ;
123 -> 171 ;
172 [label=<gini = 0.0<br/>samples = 7<br/>value = [0, 14]<br/>class = 0>, fillcolor="#399de5"] ;
171 -> 172 ;
173 [label=<gini = 0.0<br/>samples = 1<br/>value = [1, 0]<br/>class = 1>, fillcolor="#e58139"] ;
171 -> 173 ;
174 [label=<SkinThickness &le; 45.0<br/>gini = 0.443<br/>samples = 118<br/>value = [59.0, 119.0]<br/>class = 0>, fillcolor="#9bcef2"] ;
0 -> 174 [labeldistance=2.5, labelangle=-45, headlabel="False"] ;
175 [label=<Age &le; 60.5<br/>gini = 0.457<br/>samples = 110<br/>value = [58, 106]<br/>class = 0>, fillcolor="#a5d3f3"] ;
174 -> 175 ;
176 [label=<BMI &le; 29.95<br/>gini = 0.419<br/>samples = 101<br/>value = [44, 103]<br/>class = 0>, fillcolor="#8ec7f0"] ;
175 -> 176 ;
177 [label=<Age &le; 25.5<br/>gini = 0.473<br/>samples = 19<br/>value = [16, 10]<br/>class = 1>, fillcolor="#f5d0b5"] ;
176 -> 177 ;
178 [label=<gini = 0.0<br/>samples = 4<br/>value = [6, 0]<br/>class = 1>, fillcolor="#e58139"] ;
177 -> 178 ;
179 [label=<BloodPressure &le; 74.5<br/>gini = 0.5<br/>samples = 15<br/>value = [10, 10]<br/>class = 1>, fillcolor="#ffffff"] ;
177 -> 179 ;
180 [label=<Insulin &le; 136.0<br/>gini = 0.408<br/>samples = 10<br/>value = [4, 10]<br/>class = 0>, fillcolor="#88c4ef"] ;
179 -> 180 ;
181 [label=<BMI &le; 29.5<br/>gini = 0.18<br/>samples = 7<br/>value = [1, 9]<br/>class = 0>, fillcolor="#4fa8e8"] ;
180 -> 181 ;
182 [label=<gini = 0.0<br/>samples = 5<br/>value = [0, 8]<br/>class = 0>, fillcolor="#399de5"] ;
181 -> 182 ;
183 [label=<Insulin &le; 62.5<br/>gini = 0.5<br/>samples = 2<br/>value = [1, 1]<br/>class = 1>, fillcolor="#ffffff"] ;
181 -> 183 ;
184 [label=<gini = 0.0<br/>samples = 1<br/>value = [1, 0]<br/>class = 1>, fillcolor="#e58139"] ;
183 -> 184 ;
185 [label=<gini = 0.0<br/>samples = 1<br/>value = [0, 1]<br/>class = 0>, fillcolor="#399de5"] ;
183 -> 185 ;
186 [label=<SkinThickness &le; 21.0<br/>gini = 0.375<br/>samples = 3<br/>value = [3, 1]<br/>class = 1>, fillcolor="#eeab7b"] ;
180 -> 186 ;
187 [label=<gini = 0.0<br/>samples = 1<br/>value = [0, 1]<br/>class = 0>, fillcolor="#399de5"] ;
186 -> 187 ;
188 [label=<gini = 0.0<br/>samples = 2<br/>value = [3, 0]<br/>class = 1>, fillcolor="#e58139"] ;
186 -> 188 ;
189 [label=<gini = 0.0<br/>samples = 5<br/>value = [6, 0]<br/>class = 1>, fillcolor="#e58139"] ;
179 -> 189 ;
190 [label=<DiabetesPedigreeFunction &le; 1.588<br/>gini = 0.356<br/>samples = 82<br/>value = [28, 93]<br/>class = 0>, fillcolor="#75bbed"] ;
176 -> 190 ;
191 [label=<SkinThickness &le; 36.5<br/>gini = 0.334<br/>samples = 80<br/>value = [25, 93]<br/>class = 0>, fillcolor="#6eb7ec"] ;
190 -> 191 ;
192 [label=<DiabetesPedigreeFunction &le; 0.203<br/>gini = 0.278<br/>samples = 64<br/>value = [16, 80]<br/>class = 0>, fillcolor="#61b1ea"] ;
191 -> 192 ;
193 [label=<BMI &le; 38.1<br/>gini = 0.486<br/>samples = 9<br/>value = [7, 5]<br/>class = 1>, fillcolor="#f8dbc6"] ;
192 -> 193 ;
194 [label=<Glucose &le; 176.0<br/>gini = 0.469<br/>samples = 7<br/>value = [3, 5]<br/>class = 0>, fillcolor="#b0d8f5"] ;
193 -> 194 ;
195 [label=<Glucose &le; 157.5<br/>gini = 0.278<br/>samples = 5<br/>value = [1, 5]<br/>class = 0>, fillcolor="#61b1ea"] ;
194 -> 195 ;
196 [label=<Age &le; 44.0<br/>gini = 0.5<br/>samples = 2<br/>value = [1, 1]<br/>class = 1>, fillcolor="#ffffff"] ;
195 -> 196 ;
197 [label=<gini = 0.0<br/>samples = 1<br/>value = [0, 1]<br/>class = 0>, fillcolor="#399de5"] ;
196 -> 197 ;
198 [label=<gini = 0.0<br/>samples = 1<br/>value = [1, 0]<br/>class = 1>, fillcolor="#e58139"] ;
196 -> 198 ;
199 [label=<gini = 0.0<br/>samples = 3<br/>value = [0, 4]<br/>class = 0>, fillcolor="#399de5"] ;
195 -> 199 ;
200 [label=<gini = 0.0<br/>samples = 2<br/>value = [2, 0]<br/>class = 1>, fillcolor="#e58139"] ;
194 -> 200 ;
201 [label=<gini = 0.0<br/>samples = 2<br/>value = [4, 0]<br/>class = 1>, fillcolor="#e58139"] ;
193 -> 201 ;
202 [label=<BloodPressure &le; 62.0<br/>gini = 0.191<br/>samples = 55<br/>value = [9, 75]<br/>class = 0>, fillcolor="#51a9e8"] ;
192 -> 202 ;
203 [label=<gini = 0.0<br/>samples = 11<br/>value = [0, 25]<br/>class = 0>, fillcolor="#399de5"] ;
202 -> 203 ;
204 [label=<SkinThickness &le; 7.5<br/>gini = 0.259<br/>samples = 44<br/>value = [9, 50]<br/>class = 0>, fillcolor="#5dafea"] ;
202 -> 204 ;
205 [label=<gini = 0.0<br/>samples = 10<br/>value = [0, 13]<br/>class = 0>, fillcolor="#399de5"] ;
204 -> 205 ;
206 [label=<BMI &le; 34.05<br/>gini = 0.315<br/>samples = 34<br/>value = [9, 37]<br/>class = 0>, fillcolor="#69b5eb"] ;
204 -> 206 ;
207 [label=<Age &le; 42.5<br/>gini = 0.444<br/>samples = 15<br/>value = [7, 14]<br/>class = 0>, fillcolor="#9ccef2"] ;
206 -> 207 ;
208 [label=<gini = 0.0<br/>samples = 5<br/>value = [6, 0]<br/>class = 1>, fillcolor="#e58139"] ;
207 -> 208 ;
209 [label=<BloodPressure &le; 70.0<br/>gini = 0.124<br/>samples = 10<br/>value = [1, 14]<br/>class = 0>, fillcolor="#47a4e7"] ;
207 -> 209 ;
210 [label=<Glucose &le; 173.0<br/>gini = 0.5<br/>samples = 2<br/>value = [1, 1]<br/>class = 1>, fillcolor="#ffffff"] ;
209 -> 210 ;
211 [label=<gini = 0.0<br/>samples = 1<br/>value = [1, 0]<br/>class = 1>, fillcolor="#e58139"] ;
210 -> 211 ;
212 [label=<gini = 0.0<br/>samples = 1<br/>value = [0, 1]<br/>class = 0>, fillcolor="#399de5"] ;
210 -> 212 ;
213 [label=<gini = 0.0<br/>samples = 8<br/>value = [0, 13]<br/>class = 0>, fillcolor="#399de5"] ;
209 -> 213 ;
214 [label=<Insulin &le; 283.5<br/>gini = 0.147<br/>samples = 19<br/>value = [2, 23]<br/>class = 0>, fillcolor="#4aa6e7"] ;
206 -> 214 ;
215 [label=<DiabetesPedigreeFunction &le; 0.366<br/>gini = 0.083<br/>samples = 17<br/>value = [1, 22]<br/>class = 0>, fillcolor="#42a1e6"] ;
214 -> 215 ;
216 [label=<BMI &le; 37.4<br/>gini = 0.32<br/>samples = 4<br/>value = [1, 4]<br/>class = 0>, fillcolor="#6ab6ec"] ;
215 -> 216 ;
217 [label=<gini = 0.0<br/>samples = 3<br/>value = [0, 4]<br/>class = 0>, fillcolor="#399de5"] ;
216 -> 217 ;
218 [label=<gini = 0.0<br/>samples = 1<br/>value = [1, 0]<br/>class = 1>, fillcolor="#e58139"] ;
216 -> 218 ;
219 [label=<gini = 0.0<br/>samples = 13<br/>value = [0, 18]<br/>class = 0>, fillcolor="#399de5"] ;
215 -> 219 ;
220 [label=<Age &le; 32.5<br/>gini = 0.5<br/>samples = 2<br/>value = [1, 1]<br/>class = 1>, fillcolor="#ffffff"] ;
214 -> 220 ;
221 [label=<gini = 0.0<br/>samples = 1<br/>value = [1, 0]<br/>class = 1>, fillcolor="#e58139"] ;
220 -> 221 ;
222 [label=<gini = 0.0<br/>samples = 1<br/>value = [0, 1]<br/>class = 0>, fillcolor="#399de5"] ;
220 -> 222 ;
223 [label=<Age &le; 28.5<br/>gini = 0.483<br/>samples = 16<br/>value = [9, 13]<br/>class = 0>, fillcolor="#c2e1f7"] ;
191 -> 223 ;
224 [label=<Glucose &le; 157.5<br/>gini = 0.469<br/>samples = 6<br/>value = [5, 3]<br/>class = 1>, fillcolor="#f5cdb0"] ;
223 -> 224 ;
225 [label=<gini = 0.0<br/>samples = 3<br/>value = [5, 0]<br/>class = 1>, fillcolor="#e58139"] ;
224 -> 225 ;
226 [label=<gini = 0.0<br/>samples = 3<br/>value = [0, 3]<br/>class = 0>, fillcolor="#399de5"] ;
224 -> 226 ;
227 [label=<Insulin &le; 435.0<br/>gini = 0.408<br/>samples = 10<br/>value = [4, 10]<br/>class = 0>, fillcolor="#88c4ef"] ;
223 -> 227 ;
228 [label=<Insulin &le; 162.5<br/>gini = 0.278<br/>samples = 9<br/>value = [2, 10]<br/>class = 0>, fillcolor="#61b1ea"] ;
227 -> 228 ;
229 [label=<BloodPressure &le; 77.0<br/>gini = 0.48<br/>samples = 4<br/>value = [2, 3]<br/>class = 0>, fillcolor="#bddef6"] ;
228 -> 229 ;
230 [label=<gini = 0.0<br/>samples = 1<br/>value = [0, 2]<br/>class = 0>, fillcolor="#399de5"] ;
229 -> 230 ;
231 [label=<SkinThickness &le; 43.5<br/>gini = 0.444<br/>samples = 3<br/>value = [2, 1]<br/>class = 1>, fillcolor="#f2c09c"] ;
229 -> 231 ;
232 [label=<gini = 0.0<br/>samples = 2<br/>value = [2, 0]<br/>class = 1>, fillcolor="#e58139"] ;
231 -> 232 ;
233 [label=<gini = 0.0<br/>samples = 1<br/>value = [0, 1]<br/>class = 0>, fillcolor="#399de5"] ;
231 -> 233 ;
234 [label=<gini = 0.0<br/>samples = 5<br/>value = [0, 7]<br/>class = 0>, fillcolor="#399de5"] ;
228 -> 234 ;
235 [label=<gini = 0.0<br/>samples = 1<br/>value = [2, 0]<br/>class = 1>, fillcolor="#e58139"] ;
227 -> 235 ;
236 [label=<gini = 0.0<br/>samples = 2<br/>value = [3, 0]<br/>class = 1>, fillcolor="#e58139"] ;
190 -> 236 ;
237 [label=<Age &le; 68.5<br/>gini = 0.291<br/>samples = 9<br/>value = [14, 3]<br/>class = 1>, fillcolor="#eb9c63"] ;
175 -> 237 ;
238 [label=<Glucose &le; 178.0<br/>gini = 0.124<br/>samples = 8<br/>value = [14, 1]<br/>class = 1>, fillcolor="#e78a47"] ;
237 -> 238 ;
239 [label=<gini = 0.0<br/>samples = 6<br/>value = [12, 0]<br/>class = 1>, fillcolor="#e58139"] ;
238 -> 239 ;
240 [label=<BloodPressure &le; 86.0<br/>gini = 0.444<br/>samples = 2<br/>value = [2, 1]<br/>class = 1>, fillcolor="#f2c09c"] ;
238 -> 240 ;
241 [label=<gini = 0.0<br/>samples = 1<br/>value = [2, 0]<br/>class = 1>, fillcolor="#e58139"] ;
240 -> 241 ;
242 [label=<gini = 0.0<br/>samples = 1<br/>value = [0, 1]<br/>class = 0>, fillcolor="#399de5"] ;
240 -> 242 ;
243 [label=<gini = 0.0<br/>samples = 1<br/>value = [0, 2]<br/>class = 0>, fillcolor="#399de5"] ;
237 -> 243 ;
244 [label=<BloodPressure &le; 84.5<br/>gini = 0.133<br/>samples = 8<br/>value = [1, 13]<br/>class = 0>, fillcolor="#48a5e7"] ;
174 -> 244 ;
245 [label=<gini = 0.0<br/>samples = 7<br/>value = [0, 13]<br/>class = 0>, fillcolor="#399de5"] ;
244 -> 245 ;
246 [label=<gini = 0.0<br/>samples = 1<br/>value = [1, 0]<br/>class = 1>, fillcolor="#e58139"] ;
244 -> 246 ;
}