digraph Tree {
node [shape=box, style="filled, rounded", color="black", fontname="helvetica"] ;
edge [fontname="helvetica"] ;
0 [label=<Glucose &le; 154.5<br/>squared_error = 0.209<br/>samples = 319<br/>value = 0.703>, fillcolor="#eda674"] ;
1 [label=<Age &le; 28.5<br/>squared_error = 0.164<br/>samples = 279<br/>value = 0.793>, fillcolor="#ea9b62"] ;
0 -> 1 [labeldistance=2.5, labelangle=45, headlabel="True"] ;
2 [label=<Glucose &le; 145.0<br/>squared_error = 0.06<br/>samples = 141<br/>value = 0.936>, fillcolor="#e78946"] ;
1 -> 2 ;
3 [label=<Pregnancies &le; 7.0<br/>squared_error = 0.036<br/>samples = 132<br/>value = 0.963>, fillcolor="#e68640"] ;
2 -> 3 ;
4 [label=<BMI &le; 42.8<br/>squared_error = 0.032<br/>samples = 131<br/>value = 0.967>, fillcolor="#e68540"] ;
3 -> 4 ;
5 [label=<DiabetesPedigreeFunction &le; 0.128<br/>squared_error = 0.024<br/>samples = 125<br/>value = 0.975>, fillcolor="#e6843e"] ;
4 -> 5 ;
6 [label=<DiabetesPedigreeFunction &le; 0.117<br/>squared_error = 0.222<br/>samples = 3<br/>value = 0.667>, fillcolor="#eeab7b"] ;
5 -> 6 ;
7 [label=<squared_error = 0.0<br/>samples = 2<br/>value = 1.0>, fillcolor="#e58139"] ;
6 -> 7 ;
8 [label=<squared_error = 0.0<br/>samples = 1<br/>value = 0.0>, fillcolor="#ffffff"] ;
6 -> 8 ;
9 [label=<Glucose &le; 138.5<br/>squared_error = 0.02<br/>samples = 122<br/>value = 0.98>, fillcolor="#e6843d"] ;
5 -> 9 ;
10 [label=<DiabetesPedigreeFunction &le; 0.504<br/>squared_error = 0.015<br/>samples = 116<br/>value = 0.985>, fillcolor="#e5833c"] ;
9 -> 10 ;
11 [label=<squared_error = 0.0<br/>samples = 82<br/>value = 1.0>, fillcolor="#e58139"] ;
10 -> 11 ;
12 [label=<DiabetesPedigreeFunction &le; 0.512<br/>squared_error = 0.047<br/>samples = 34<br/>value = 0.951>, fillcolor="#e68743"] ;
10 -> 12 ;
13 [label=<squared_error = 0.0<br/>samples = 1<br/>value = 0.0>, fillcolor="#ffffff"] ;
12 -> 13 ;
14 [label=<DiabetesPedigreeFunction &le; 0.545<br/>squared_error = 0.032<br/>samples = 33<br/>value = 0.967>, fillcolor="#e68540"] ;
12 -> 14 ;
15 [label=<DiabetesPedigreeFunction &le; 0.532<br/>squared_error = 0.149<br/>samples = 7<br/>value = 0.818>, fillcolor="#ea985d"] ;
14 -> 15 ;
16 [label=<squared_error = 0.0<br/>samples = 5<br/>value = 1.0>, fillcolor="#e58139"] ;
15 -> 16 ;
17 [label=<squared_error = 0.0<br/>samples = 2<br/>value = 0.0>, fillcolor="#ffffff"] ;
15 -> 17 ;
18 [label=<squared_error = 0.0<br/>samples = 26<br/>value = 1.0>, fillcolor="#e58139"] ;
14 -> 18 ;
19 [label=<Pregnancies &le; 2.5<br/>squared_error = 0.139<br/>samples = 6<br/>value = 0.833>, fillcolor="#e9965a"] ;
9 -> 19 ;
20 [label=<squared_error = 0.0<br/>samples = 5<br/>value = 1.0>, fillcolor="#e58139"] ;
19 -> 20 ;
21 [label=<squared_error = 0.0<br/>samples = 1<br/>value = 0.0>, fillcolor="#ffffff"] ;
19 -> 21 ;
22 [label=<BMI &le; 43.2<br/>squared_error = 0.173<br/>samples = 6<br/>value = 0.778>, fillcolor="#eb9d65"] ;
4 -> 22 ;
23 [label=<squared_error = 0.0<br/>samples = 1<br/>value = 0.0>, fillcolor="#ffffff"] ;
22 -> 23 ;
24 [label=<squared_error = 0.0<br/>samples = 5<br/>value = 1.0>, fillcolor="#e58139"] ;
22 -> 24 ;
25 [label=<squared_error = 0.0<br/>samples = 1<br/>value = 0.0>, fillcolor="#ffffff"] ;
3 -> 25 ;
26 [label=<BMI &le; 36.7<br/>squared_error = 0.233<br/>samples = 9<br/>value = 0.632>, fillcolor="#efaf82"] ;
2 -> 26 ;
27 [label=<squared_error = 0.0<br/>samples = 4<br/>value = 1.0>, fillcolor="#e58139"] ;
26 -> 27 ;
28 [label=<DiabetesPedigreeFunction &le; 0.373<br/>squared_error = 0.173<br/>samples = 5<br/>value = 0.222>, fillcolor="#f9e3d3"] ;
26 -> 28 ;
29 [label=<squared_error = 0.0<br/>samples = 3<br/>value = 0.0>, fillcolor="#ffffff"] ;
28 -> 29 ;
30 [label=<squared_error = 0.0<br/>samples = 2<br/>value = 1.0>, fillcolor="#e58139"] ;
28 -> 30 ;
31 [label=<BMI &le; 26.75<br/>squared_error = 0.232<br/>samples = 138<br/>value = 0.635>, fillcolor="#eeaf81"] ;
1 -> 31 ;
32 [label=<Glucose &le; 131.5<br/>squared_error = 0.045<br/>samples = 30<br/>value = 0.952>, fillcolor="#e68742"] ;
31 -> 32 ;
33 [label=<squared_error = 0.0<br/>samples = 26<br/>value = 1.0>, fillcolor="#e58139"] ;
32 -> 33 ;
34 [label=<Glucose &le; 134.5<br/>squared_error = 0.24<br/>samples = 4<br/>value = 0.6>, fillcolor="#efb388"] ;
32 -> 34 ;
35 [label=<squared_error = 0.0<br/>samples = 1<br/>value = 0.0>, fillcolor="#ffffff"] ;
34 -> 35 ;
36 [label=<squared_error = 0.0<br/>samples = 3<br/>value = 1.0>, fillcolor="#e58139"] ;
34 -> 36 ;
37 [label=<DiabetesPedigreeFunction &le; 0.52<br/>squared_error = 0.247<br/>samples = 108<br/>value = 0.556>, fillcolor="#f1b991"] ;
31 -> 37 ;
38 [label=<Glucose &le; 93.5<br/>squared_error = 0.21<br/>samples = 71<br/>value = 0.701>, fillcolor="#eda774"] ;
37 -> 38 ;
39 [label=<squared_error = 0.0<br/>samples = 13<br/>value = 1.0>, fillcolor="#e58139"] ;
38 -> 39 ;
40 [label=<BloodPressure &le; 83.0<br/>squared_error = 0.231<br/>samples = 58<br/>value = 0.636>, fillcolor="#eeaf81"] ;
38 -> 40 ;
41 [label=<DiabetesPedigreeFunction &le; 0.225<br/>squared_error = 0.248<br/>samples = 47<br/>value = 0.545>, fillcolor="#f1ba93"] ;
40 -> 41 ;
42 [label=<Pregnancies &le; 5.5<br/>squared_error = 0.182<br/>samples = 17<br/>value = 0.76>, fillcolor="#eb9f69"] ;
41 -> 42 ;
43 [label=<squared_error = 0.0<br/>samples = 9<br/>value = 1.0>, fillcolor="#e58139"] ;
42 -> 43 ;
44 [label=<Pregnancies &le; 7.5<br/>squared_error = 0.248<br/>samples = 8<br/>value = 0.455>, fillcolor="#f3c6a5"] ;
42 -> 44 ;
45 [label=<squared_error = 0.0<br/>samples = 3<br/>value = 0.0>, fillcolor="#ffffff"] ;
44 -> 45 ;
46 [label=<Age &le; 41.5<br/>squared_error = 0.204<br/>samples = 5<br/>value = 0.714>, fillcolor="#eca572"] ;
44 -> 46 ;
47 [label=<squared_error = 0.0<br/>samples = 2<br/>value = 0.0>, fillcolor="#ffffff"] ;
46 -> 47 ;
48 [label=<squared_error = 0.0<br/>samples = 3<br/>value = 1.0>, fillcolor="#e58139"] ;
46 -> 48 ;
49 [label=<BMI &le; 28.1<br/>squared_error = 0.243<br/>samples = 30<br/>value = 0.415>, fillcolor="#f4cbad"] ;
41 -> 49 ;
50 [label=<squared_error = 0.0<br/>samples = 3<br/>value = 1.0>, fillcolor="#e58139"] ;
49 -> 50 ;
51 [label=<Age &le; 40.5<br/>squared_error = 0.216<br/>samples = 27<br/>value = 0.314>, fillcolor="#f7d7c1"] ;
49 -> 51 ;
52 [label=<BMI &le; 33.0<br/>squared_error = 0.247<br/>samples = 15<br/>value = 0.556>, fillcolor="#f1b991"] ;
51 -> 52 ;
53 [label=<Insulin &le; 99.5<br/>squared_error = 0.122<br/>samples = 5<br/>value = 0.143>, fillcolor="#fbede3"] ;
52 -> 53 ;
54 [label=<squared_error = 0.0<br/>samples = 4<br/>value = 0.0>, fillcolor="#ffffff"] ;
53 -> 54 ;
55 [label=<squared_error = 0.0<br/>samples = 1<br/>value = 1.0>, fillcolor="#e58139"] ;
53 -> 55 ;
56 [label=<BloodPressure &le; 67.0<br/>squared_error = 0.149<br/>samples = 10<br/>value = 0.818>, fillcolor="#ea985d"] ;
52 -> 56 ;
57 [label=<Age &le; 30.5<br/>squared_error = 0.222<br/>samples = 3<br/>value = 0.333>, fillcolor="#f6d5bd"] ;
56 -> 57 ;
58 [label=<squared_error = 0.0<br/>samples = 1<br/>value = 1.0>, fillcolor="#e58139"] ;
57 -> 58 ;
59 [label=<squared_error = 0.0<br/>samples = 2<br/>value = 0.0>, fillcolor="#ffffff"] ;
57 -> 59 ;
60 [label=<squared_error = 0.0<br/>samples = 7<br/>value = 1.0>, fillcolor="#e58139"] ;
56 -> 60 ;
61 [label=<BloodPressure &le; 59.0<br/>squared_error = 0.055<br/>samples = 12<br/>value = 0.059>, fillcolor="#fdf8f3"] ;
51 -> 61 ;
62 [label=<squared_error = 0.0<br/>samples = 1<br/>value = 1.0>, fillcolor="#e58139"] ;
61 -> 62 ;
63 [label=<squared_error = 0.0<br/>samples = 11<br/>value = 0.0>, fillcolor="#ffffff"] ;
61 -> 63 ;
64 [label=<Insulin &le; 119.0<br/>squared_error = 0.083<br/>samples = 11<br/>value = 0.909>, fillcolor="#e78c4b"] ;
40 -> 64 ;
65 [label=<squared_error = 0.0<br/>samples = 10<br/>value = 1.0>, fillcolor="#e58139"] ;
64 -> 65 ;
66 [label=<squared_error = 0.0<br/>samples = 1<br/>value = 0.0>, fillcolor="#ffffff"] ;
64 -> 66 ;
67 [label=<Glucose &le; 113.0<br/>squared_error = 0.213<br/>samples = 37<br/>value = 0.306>, fillcolor="#f7d8c2"] ;
37 -> 67 ;
68 [label=<Pregnancies &le; 6.5<br/>squared_error = 0.23<br/>samples = 14<br/>value = 0.64>, fillcolor="#eeae80"] ;
67 -> 68 ;
69 [label=<Age &le; 29.5<br/>squared_error = 0.059<br/>samples = 8<br/>value = 0.938>, fillcolor="#e78945"] ;
68 -> 69 ;
70 [label=<squared_error = 0.0<br/>samples = 1<br/>value = 0.0>, fillcolor="#ffffff"] ;
69 -> 70 ;
71 [label=<squared_error = 0.0<br/>samples = 7<br/>value = 1.0>, fillcolor="#e58139"] ;
69 -> 71 ;
72 [label=<Glucose &le; 83.0<br/>squared_error = 0.099<br/>samples = 6<br/>value = 0.111>, fillcolor="#fcf1e9"] ;
68 -> 72 ;
73 [label=<squared_error = 0.0<br/>samples = 1<br/>value = 1.0>, fillcolor="#e58139"] ;
72 -> 73 ;
74 [label=<squared_error = 0.0<br/>samples = 5<br/>value = 0.0>, fillcolor="#ffffff"] ;
72 -> 74 ;
75 [label=<BloodPressure &le; 62.0<br/>squared_error = 0.075<br/>samples = 23<br/>value = 0.081>, fillcolor="#fdf5ef"] ;
67 -> 75 ;
76 [label=<Glucose &le; 132.0<br/>squared_error = 0.24<br/>samples = 3<br/>value = 0.6>, fillcolor="#efb388"] ;
75 -> 76 ;
77 [label=<squared_error = 0.0<br/>samples = 1<br/>value = 0.0>, fillcolor="#ffffff"] ;
76 -> 77 ;
78 [label=<squared_error = 0.0<br/>samples = 2<br/>value = 1.0>, fillcolor="#e58139"] ;
76 -> 78 ;
79 [label=<squared_error = 0.0<br/>samples = 20<br/>value = 0.0>, fillcolor="#ffffff"] ;
75 -> 79 ;
80 [label=<Age &le; 56.5<br/>squared_error = 0.072<br/>samples = 40<br/>value = 0.078>, fillcolor="#fdf5f0"] ;
0 -> 80 [labeldistance=2.5, labelangle=-45, headlabel="False"] ;
81 [label=<Pregnancies &le; 9.5<br/>squared_error = 0.017<br/>samples = 36<br/>value = 0.017>, fillcolor="#fffdfc"] ;
80 -> 81 ;
82 [label=<squared_error = 0.0<br/>samples = 33<br/>value = 0.0>, fillcolor="#ffffff"] ;
81 -> 82 ;
83 [label=<DiabetesPedigreeFunction &le; 0.263<br/>squared_error = 0.139<br/>samples = 3<br/>value = 0.167>, fillcolor="#fbeade"] ;
81 -> 83 ;
84 [label=<squared_error = 0.0<br/>samples = 1<br/>value = 1.0>, fillcolor="#e58139"] ;
83 -> 84 ;
85 [label=<squared_error = 0.0<br/>samples = 2<br/>value = 0.0>, fillcolor="#ffffff"] ;
83 -> 85 ;
86 [label=<BMI &le; 26.65<br/>squared_error = 0.222<br/>samples = 4<br/>value = 0.667>, fillcolor="#eeab7b"] ;
80 -> 86 ;
87 [label=<squared_error = 0.0<br/>samples = 1<br/>value = 0.0>, fillcolor="#ffffff"] ;
86 -> 87 ;
88 [label=<squared_error = 0.0<br/>samples = 3<br/>value = 1.0>, fillcolor="#e58139"] ;
86 -> 88 ;
}