digraph Tree {
node [shape=box, style="filled, rounded", color="black", fontname="helvetica"] ;
edge [fontname="helvetica"] ;
0 [label=<Glucose &le; 146.5<br/>squared_error = 0.208<br/>samples = 318<br/>value = 0.705>, fillcolor="#eda673"] ;
1 [label=<Glucose &le; 108.5<br/>squared_error = 0.164<br/>samples = 268<br/>value = 0.793>, fillcolor="#ea9b62"] ;
0 -> 1 [labeldistance=2.5, labelangle=45, headlabel="True"] ;
2 [label=<Pregnancies &le; 11.0<br/>squared_error = 0.081<br/>samples = 134<br/>value = 0.912>, fillcolor="#e78c4a"] ;
1 -> 2 ;
3 [label=<BMI &le; 37.85<br/>squared_error = 0.067<br/>samples = 130<br/>value = 0.928>, fillcolor="#e78a47"] ;
2 -> 3 ;
4 [label=<Glucose &le; 101.5<br/>squared_error = 0.042<br/>samples = 110<br/>value = 0.956>, fillcolor="#e68742"] ;
3 -> 4 ;
5 [label=<BloodPressure &le; 51.0<br/>squared_error = 0.015<br/>samples = 81<br/>value = 0.985>, fillcolor="#e5833c"] ;
4 -> 5 ;
6 [label=<Insulin &le; 44.0<br/>squared_error = 0.16<br/>samples = 3<br/>value = 0.8>, fillcolor="#ea9a61"] ;
5 -> 6 ;
7 [label=<squared_error = 0.0<br/>samples = 2<br/>value = 1.0>, fillcolor="#e58139"] ;
6 -> 7 ;
8 [label=<squared_error = 0.0<br/>samples = 1<br/>value = 0.0>, fillcolor="#ffffff"] ;
6 -> 8 ;
9 [label=<DiabetesPedigreeFunction &le; 0.163<br/>squared_error = 0.008<br/>samples = 78<br/>value = 0.992>, fillcolor="#e5823b"] ;
5 -> 9 ;
10 [label=<DiabetesPedigreeFunction &le; 0.159<br/>squared_error = 0.083<br/>samples = 7<br/>value = 0.909>, fillcolor="#e78c4b"] ;
9 -> 10 ;
11 [label=<squared_error = 0.0<br/>samples = 6<br/>value = 1.0>, fillcolor="#e58139"] ;
10 -> 11 ;
12 [label=<squared_error = 0.0<br/>samples = 1<br/>value = 0.0>, fillcolor="#ffffff"] ;
10 -> 12 ;
13 [label=<squared_error = 0.0<br/>samples = 71<br/>value = 1.0>, fillcolor="#e58139"] ;
9 -> 13 ;
14 [label=<BMI &le; 26.45<br/>squared_error = 0.104<br/>samples = 29<br/>value = 0.882>, fillcolor="#e89050"] ;
4 -> 14 ;
15 [label=<squared_error = 0.0<br/>samples = 11<br/>value = 1.0>, fillcolor="#e58139"] ;
14 -> 15 ;
16 [label=<BMI &le; 27.05<br/>squared_error = 0.156<br/>samples = 18<br/>value = 0.806>, fillcolor="#ea995f"] ;
14 -> 16 ;
17 [label=<squared_error = 0.0<br/>samples = 1<br/>value = 0.0>, fillcolor="#ffffff"] ;
16 -> 17 ;
18 [label=<BMI &le; 33.95<br/>squared_error = 0.119<br/>samples = 17<br/>value = 0.862>, fillcolor="#e99254"] ;
16 -> 18 ;
19 [label=<Pregnancies &le; 4.5<br/>squared_error = 0.196<br/>samples = 11<br/>value = 0.733>, fillcolor="#eca36e"] ;
18 -> 19 ;
20 [label=<BMI &le; 33.05<br/>squared_error = 0.13<br/>samples = 10<br/>value = 0.846>, fillcolor="#e99457"] ;
19 -> 20 ;
21 [label=<squared_error = 0.0<br/>samples = 8<br/>value = 1.0>, fillcolor="#e58139"] ;
20 -> 21 ;
22 [label=<squared_error = 0.0<br/>samples = 2<br/>value = 0.0>, fillcolor="#ffffff"] ;
20 -> 22 ;
23 [label=<squared_error = 0.0<br/>samples = 1<br/>value = 0.0>, fillcolor="#ffffff"] ;
19 -> 23 ;
24 [label=<squared_error = 0.0<br/>samples = 6<br/>value = 1.0>, fillcolor="#e58139"] ;
18 -> 24 ;
25 [label=<Pregnancies &le; 6.0<br/>squared_error = 0.197<br/>samples = 20<br/>value = 0.731>, fillcolor="#eca36e"] ;
3 -> 25 ;
26 [label=<Age &le; 40.0<br/>squared_error = 0.144<br/>samples = 17<br/>value = 0.826>, fillcolor="#ea975b"] ;
25 -> 26 ;
27 [label=<BMI &le; 38.05<br/>squared_error = 0.09<br/>samples = 15<br/>value = 0.9>, fillcolor="#e88e4d"] ;
26 -> 27 ;
28 [label=<squared_error = 0.0<br/>samples = 1<br/>value = 0.0>, fillcolor="#ffffff"] ;
27 -> 28 ;
29 [label=<DiabetesPedigreeFunction &le; 0.143<br/>squared_error = 0.05<br/>samples = 14<br/>value = 0.947>, fillcolor="#e68843"] ;
27 -> 29 ;
30 [label=<squared_error = 0.0<br/>samples = 1<br/>value = 0.0>, fillcolor="#ffffff"] ;
29 -> 30 ;
31 [label=<squared_error = 0.0<br/>samples = 13<br/>value = 1.0>, fillcolor="#e58139"] ;
29 -> 31 ;
32 [label=<BMI &le; 42.4<br/>squared_error = 0.222<br/>samples = 2<br/>value = 0.333>, fillcolor="#f6d5bd"] ;
26 -> 32 ;
33 [label=<squared_error = 0.0<br/>samples = 1<br/>value = 0.0>, fillcolor="#ffffff"] ;
32 -> 33 ;
34 [label=<squared_error = 0.0<br/>samples = 1<br/>value = 1.0>, fillcolor="#e58139"] ;
32 -> 34 ;
35 [label=<squared_error = 0.0<br/>samples = 3<br/>value = 0.0>, fillcolor="#ffffff"] ;
25 -> 35 ;
36 [label=<BMI &le; 25.6<br/>squared_error = 0.245<br/>samples = 4<br/>value = 0.429>, fillcolor="#f4c9aa"] ;
2 -> 36 ;
37 [label=<squared_error = 0.0<br/>samples = 1<br/>value = 1.0>, fillcolor="#e58139"] ;
36 -> 37 ;
38 [label=<squared_error = 0.0<br/>samples = 3<br/>value = 0.0>, fillcolor="#ffffff"] ;
36 -> 38 ;
39 [label=<BMI &le; 27.85<br/>squared_error = 0.218<br/>samples = 134<br/>value = 0.679>, fillcolor="#edaa79"] ;
1 -> 39 ;
40 [label=<Glucose &le; 133.5<br/>squared_error = 0.056<br/>samples = 34<br/>value = 0.94>, fillcolor="#e78945"] ;
39 -> 40 ;
41 [label=<Pregnancies &le; 0.5<br/>squared_error = 0.018<br/>samples = 27<br/>value = 0.982>, fillcolor="#e5833d"] ;
40 -> 41 ;
42 [label=<BMI &le; 24.95<br/>squared_error = 0.139<br/>samples = 3<br/>value = 0.833>, fillcolor="#e9965a"] ;
41 -> 42 ;
43 [label=<squared_error = 0.0<br/>samples = 2<br/>value = 1.0>, fillcolor="#e58139"] ;
42 -> 43 ;
44 [label=<squared_error = 0.0<br/>samples = 1<br/>value = 0.0>, fillcolor="#ffffff"] ;
42 -> 44 ;
45 [label=<squared_error = 0.0<br/>samples = 24<br/>value = 1.0>, fillcolor="#e58139"] ;
41 -> 45 ;
46 [label=<Glucose &le; 134.5<br/>squared_error = 0.188<br/>samples = 7<br/>value = 0.75>, fillcolor="#eca06a"] ;
40 -> 46 ;
47 [label=<squared_error = 0.0<br/>samples = 1<br/>value = 0.0>, fillcolor="#ffffff"] ;
46 -> 47 ;
48 [label=<squared_error = 0.0<br/>samples = 6<br/>value = 1.0>, fillcolor="#e58139"] ;
46 -> 48 ;
49 [label=<DiabetesPedigreeFunction &le; 0.524<br/>squared_error = 0.246<br/>samples = 100<br/>value = 0.567>, fillcolor="#f0b88f"] ;
39 -> 49 ;
50 [label=<Age &le; 34.5<br/>squared_error = 0.196<br/>samples = 60<br/>value = 0.733>, fillcolor="#eca36e"] ;
49 -> 50 ;
51 [label=<Glucose &le; 138.5<br/>squared_error = 0.108<br/>samples = 39<br/>value = 0.877>, fillcolor="#e89051"] ;
50 -> 51 ;
52 [label=<Pregnancies &le; 7.0<br/>squared_error = 0.057<br/>samples = 35<br/>value = 0.939>, fillcolor="#e78945"] ;
51 -> 52 ;
53 [label=<Insulin &le; 26.5<br/>squared_error = 0.04<br/>samples = 34<br/>value = 0.958>, fillcolor="#e68641"] ;
52 -> 53 ;
54 [label=<Age &le; 29.5<br/>squared_error = 0.099<br/>samples = 15<br/>value = 0.889>, fillcolor="#e88f4f"] ;
53 -> 54 ;
55 [label=<Glucose &le; 113.5<br/>squared_error = 0.059<br/>samples = 13<br/>value = 0.938>, fillcolor="#e78945"] ;
54 -> 55 ;
56 [label=<DiabetesPedigreeFunction &le; 0.213<br/>squared_error = 0.222<br/>samples = 3<br/>value = 0.667>, fillcolor="#eeab7b"] ;
55 -> 56 ;
57 [label=<squared_error = 0.0<br/>samples = 2<br/>value = 1.0>, fillcolor="#e58139"] ;
56 -> 57 ;
58 [label=<squared_error = 0.0<br/>samples = 1<br/>value = 0.0>, fillcolor="#ffffff"] ;
56 -> 58 ;
59 [label=<squared_error = 0.0<br/>samples = 10<br/>value = 1.0>, fillcolor="#e58139"] ;
55 -> 59 ;
60 [label=<BMI &le; 32.2<br/>squared_error = 0.25<br/>samples = 2<br/>value = 0.5>, fillcolor="#f2c09c"] ;
54 -> 60 ;
61 [label=<squared_error = 0.0<br/>samples = 1<br/>value = 0.0>, fillcolor="#ffffff"] ;
60 -> 61 ;
62 [label=<squared_error = 0.0<br/>samples = 1<br/>value = 1.0>, fillcolor="#e58139"] ;
60 -> 62 ;
63 [label=<squared_error = 0.0<br/>samples = 19<br/>value = 1.0>, fillcolor="#e58139"] ;
53 -> 63 ;
64 [label=<squared_error = 0.0<br/>samples = 1<br/>value = 0.0>, fillcolor="#ffffff"] ;
52 -> 64 ;
65 [label=<DiabetesPedigreeFunction &le; 0.345<br/>squared_error = 0.25<br/>samples = 4<br/>value = 0.5>, fillcolor="#f2c09c"] ;
51 -> 65 ;
66 [label=<squared_error = 0.0<br/>samples = 2<br/>value = 1.0>, fillcolor="#e58139"] ;
65 -> 66 ;
67 [label=<squared_error = 0.0<br/>samples = 2<br/>value = 0.0>, fillcolor="#ffffff"] ;
65 -> 67 ;
68 [label=<BloodPressure &le; 85.0<br/>squared_error = 0.25<br/>samples = 21<br/>value = 0.485>, fillcolor="#f2c29f"] ;
50 -> 68 ;
69 [label=<Glucose &le; 137.0<br/>squared_error = 0.233<br/>samples = 17<br/>value = 0.37>, fillcolor="#f5d0b6"] ;
68 -> 69 ;
70 [label=<DiabetesPedigreeFunction &le; 0.182<br/>squared_error = 0.104<br/>samples = 11<br/>value = 0.118>, fillcolor="#fcf0e8"] ;
69 -> 70 ;
71 [label=<squared_error = 0.0<br/>samples = 1<br/>value = 1.0>, fillcolor="#e58139"] ;
70 -> 71 ;
72 [label=<BMI &le; 35.05<br/>squared_error = 0.059<br/>samples = 10<br/>value = 0.062>, fillcolor="#fdf7f3"] ;
70 -> 72 ;
73 [label=<squared_error = 0.0<br/>samples = 7<br/>value = 0.0>, fillcolor="#ffffff"] ;
72 -> 73 ;
74 [label=<BMI &le; 37.2<br/>squared_error = 0.222<br/>samples = 3<br/>value = 0.333>, fillcolor="#f6d5bd"] ;
72 -> 74 ;
75 [label=<squared_error = 0.0<br/>samples = 1<br/>value = 1.0>, fillcolor="#e58139"] ;
74 -> 75 ;
76 [label=<squared_error = 0.0<br/>samples = 2<br/>value = 0.0>, fillcolor="#ffffff"] ;
74 -> 76 ;
77 [label=<Insulin &le; 256.5<br/>squared_error = 0.16<br/>samples = 6<br/>value = 0.8>, fillcolor="#ea9a61"] ;
69 -> 77 ;
78 [label=<DiabetesPedigreeFunction &le; 0.159<br/>squared_error = 0.099<br/>samples = 5<br/>value = 0.889>, fillcolor="#e88f4f"] ;
77 -> 78 ;
79 [label=<squared_error = 0.0<br/>samples = 1<br/>value = 0.0>, fillcolor="#ffffff"] ;
78 -> 79 ;
80 [label=<squared_error = 0.0<br/>samples = 4<br/>value = 1.0>, fillcolor="#e58139"] ;
78 -> 80 ;
81 [label=<squared_error = 0.0<br/>samples = 1<br/>value = 0.0>, fillcolor="#ffffff"] ;
77 -> 81 ;
82 [label=<squared_error = 0.0<br/>samples = 4<br/>value = 1.0>, fillcolor="#e58139"] ;
68 -> 82 ;
83 [label=<DiabetesPedigreeFunction &le; 0.556<br/>squared_error = 0.225<br/>samples = 40<br/>value = 0.343>, fillcolor="#f6d4bb"] ;
49 -> 83 ;
84 [label=<squared_error = 0.0<br/>samples = 10<br/>value = 0.0>, fillcolor="#ffffff"] ;
83 -> 84 ;
85 [label=<Age &le; 28.5<br/>squared_error = 0.249<br/>samples = 30<br/>value = 0.469>, fillcolor="#f3c4a2"] ;
83 -> 85 ;
86 [label=<BloodPressure &le; 57.0<br/>squared_error = 0.109<br/>samples = 11<br/>value = 0.875>, fillcolor="#e89152"] ;
85 -> 86 ;
87 [label=<Insulin &le; 126.0<br/>squared_error = 0.222<br/>samples = 3<br/>value = 0.333>, fillcolor="#f6d5bd"] ;
86 -> 87 ;
88 [label=<squared_error = 0.0<br/>samples = 1<br/>value = 1.0>, fillcolor="#e58139"] ;
87 -> 88 ;
89 [label=<squared_error = 0.0<br/>samples = 2<br/>value = 0.0>, fillcolor="#ffffff"] ;
87 -> 89 ;
90 [label=<squared_error = 0.0<br/>samples = 8<br/>value = 1.0>, fillcolor="#e58139"] ;
86 -> 90 ;
91 [label=<Insulin &le; 225.0<br/>squared_error = 0.198<br/>samples = 19<br/>value = 0.273>, fillcolor="#f8ddc9"] ;
85 -> 91 ;
92 [label=<Age &le; 52.0<br/>squared_error = 0.16<br/>samples = 18<br/>value = 0.2>, fillcolor="#fae6d7"] ;
91 -> 92 ;
93 [label=<BloodPressure &le; 60.0<br/>squared_error = 0.099<br/>samples = 16<br/>value = 0.111>, fillcolor="#fcf1e9"] ;
92 -> 93 ;
94 [label=<Glucose &le; 116.5<br/>squared_error = 0.222<br/>samples = 2<br/>value = 0.667>, fillcolor="#eeab7b"] ;
93 -> 94 ;
95 [label=<squared_error = 0.0<br/>samples = 1<br/>value = 1.0>, fillcolor="#e58139"] ;
94 -> 95 ;
96 [label=<squared_error = 0.0<br/>samples = 1<br/>value = 0.0>, fillcolor="#ffffff"] ;
94 -> 96 ;
97 [label=<Glucose &le; 131.5<br/>squared_error = 0.04<br/>samples = 14<br/>value = 0.042>, fillcolor="#fefaf7"] ;
93 -> 97 ;
98 [label=<squared_error = 0.0<br/>samples = 11<br/>value = 0.0>, fillcolor="#ffffff"] ;
97 -> 98 ;
99 [label=<Glucose &le; 135.5<br/>squared_error = 0.188<br/>samples = 3<br/>value = 0.25>, fillcolor="#f8e0ce"] ;
97 -> 99 ;
100 [label=<squared_error = 0.0<br/>samples = 1<br/>value = 1.0>, fillcolor="#e58139"] ;
99 -> 100 ;
101 [label=<squared_error = 0.0<br/>samples = 2<br/>value = 0.0>, fillcolor="#ffffff"] ;
99 -> 101 ;
102 [label=<squared_error = 0.0<br/>samples = 2<br/>value = 1.0>, fillcolor="#e58139"] ;
92 -> 102 ;
103 [label=<squared_error = 0.0<br/>samples = 1<br/>value = 1.0>, fillcolor="#e58139"] ;
91 -> 103 ;
104 [label=<DiabetesPedigreeFunction &le; 0.312<br/>squared_error = 0.124<br/>samples = 50<br/>value = 0.145>, fillcolor="#fbede2"] ;
0 -> 104 [labeldistance=2.5, labelangle=-45, headlabel="False"] ;
105 [label=<Pregnancies &le; 3.5<br/>squared_error = 0.237<br/>samples = 17<br/>value = 0.385>, fillcolor="#f5cfb3"] ;
104 -> 105 ;
106 [label=<squared_error = 0.0<br/>samples = 3<br/>value = 1.0>, fillcolor="#e58139"] ;
105 -> 106 ;
107 [label=<Age &le; 55.0<br/>squared_error = 0.16<br/>samples = 14<br/>value = 0.2>, fillcolor="#fae6d7"] ;
105 -> 107 ;
108 [label=<Glucose &le; 155.0<br/>squared_error = 0.055<br/>samples = 12<br/>value = 0.059>, fillcolor="#fdf8f3"] ;
107 -> 108 ;
109 [label=<Pregnancies &le; 8.0<br/>squared_error = 0.16<br/>samples = 4<br/>value = 0.2>, fillcolor="#fae6d7"] ;
108 -> 109 ;
110 [label=<squared_error = 0.0<br/>samples = 3<br/>value = 0.0>, fillcolor="#ffffff"] ;
109 -> 110 ;
111 [label=<squared_error = 0.0<br/>samples = 1<br/>value = 1.0>, fillcolor="#e58139"] ;
109 -> 111 ;
112 [label=<squared_error = 0.0<br/>samples = 8<br/>value = 0.0>, fillcolor="#ffffff"] ;
108 -> 112 ;
113 [label=<squared_error = 0.0<br/>samples = 2<br/>value = 1.0>, fillcolor="#e58139"] ;
107 -> 113 ;
114 [label=<squared_error = 0.0<br/>samples = 33<br/>value = 0.0>, fillcolor="#ffffff"] ;
104 -> 114 ;
}