digraph Tree {
node [shape=box, style="filled, rounded", color="black", fontname="helvetica"] ;
edge [fontname="helvetica"] ;
0 [label=<Glucose &le; 154.5<br/>squared_error = 0.21<br/>samples = 319<br/>value = 0.699>, fillcolor="#eda775"] ;
1 [label=<Age &le; 39.5<br/>squared_error = 0.173<br/>samples = 281<br/>value = 0.778>, fillcolor="#eb9d65"] ;
0 -> 1 [labeldistance=2.5, labelangle=45, headlabel="True"] ;
2 [label=<BMI &le; 30.85<br/>squared_error = 0.121<br/>samples = 220<br/>value = 0.859>, fillcolor="#e99355"] ;
1 -> 2 ;
3 [label=<Pregnancies &le; 6.5<br/>squared_error = 0.047<br/>samples = 104<br/>value = 0.95>, fillcolor="#e68743"] ;
2 -> 3 ;
4 [label=<Glucose &le; 128.0<br/>squared_error = 0.024<br/>samples = 94<br/>value = 0.975>, fillcolor="#e6843e"] ;
3 -> 4 ;
5 [label=<squared_error = 0.0<br/>samples = 80<br/>value = 1.0>, fillcolor="#e58139"] ;
4 -> 5 ;
6 [label=<BloodPressure &le; 55.0<br/>squared_error = 0.144<br/>samples = 14<br/>value = 0.826>, fillcolor="#ea975b"] ;
4 -> 6 ;
7 [label=<squared_error = 0.0<br/>samples = 1<br/>value = 0.0>, fillcolor="#ffffff"] ;
6 -> 7 ;
8 [label=<Age &le; 31.5<br/>squared_error = 0.086<br/>samples = 13<br/>value = 0.905>, fillcolor="#e78d4c"] ;
6 -> 8 ;
9 [label=<squared_error = 0.0<br/>samples = 10<br/>value = 1.0>, fillcolor="#e58139"] ;
8 -> 9 ;
10 [label=<BMI &le; 28.95<br/>squared_error = 0.25<br/>samples = 3<br/>value = 0.5>, fillcolor="#f2c09c"] ;
8 -> 10 ;
11 [label=<squared_error = 0.0<br/>samples = 1<br/>value = 0.0>, fillcolor="#ffffff"] ;
10 -> 11 ;
12 [label=<squared_error = 0.0<br/>samples = 2<br/>value = 1.0>, fillcolor="#e58139"] ;
10 -> 12 ;
13 [label=<BMI &le; 26.2<br/>squared_error = 0.201<br/>samples = 10<br/>value = 0.722>, fillcolor="#eca470"] ;
3 -> 13 ;
14 [label=<squared_error = 0.0<br/>samples = 5<br/>value = 1.0>, fillcolor="#e58139"] ;
13 -> 14 ;
15 [label=<Age &le; 33.5<br/>squared_error = 0.204<br/>samples = 5<br/>value = 0.286>, fillcolor="#f8dbc6"] ;
13 -> 15 ;
16 [label=<squared_error = 0.0<br/>samples = 3<br/>value = 0.0>, fillcolor="#ffffff"] ;
15 -> 16 ;
17 [label=<squared_error = 0.0<br/>samples = 2<br/>value = 1.0>, fillcolor="#e58139"] ;
15 -> 17 ;
18 [label=<DiabetesPedigreeFunction &le; 0.524<br/>squared_error = 0.18<br/>samples = 116<br/>value = 0.764>, fillcolor="#eb9f68"] ;
2 -> 18 ;
19 [label=<BMI &le; 31.1<br/>squared_error = 0.122<br/>samples = 77<br/>value = 0.858>, fillcolor="#e99355"] ;
18 -> 19 ;
20 [label=<squared_error = 0.0<br/>samples = 2<br/>value = 0.0>, fillcolor="#ffffff"] ;
19 -> 20 ;
21 [label=<DiabetesPedigreeFunction &le; 0.135<br/>squared_error = 0.098<br/>samples = 75<br/>value = 0.89>, fillcolor="#e88f4f"] ;
19 -> 21 ;
22 [label=<DiabetesPedigreeFunction &le; 0.108<br/>squared_error = 0.24<br/>samples = 4<br/>value = 0.4>, fillcolor="#f5cdb0"] ;
21 -> 22 ;
23 [label=<squared_error = 0.0<br/>samples = 2<br/>value = 1.0>, fillcolor="#e58139"] ;
22 -> 23 ;
24 [label=<squared_error = 0.0<br/>samples = 2<br/>value = 0.0>, fillcolor="#ffffff"] ;
22 -> 24 ;
25 [label=<Insulin &le; 9.0<br/>squared_error = 0.079<br/>samples = 71<br/>value = 0.913>, fillcolor="#e78c4a"] ;
21 -> 25 ;
26 [label=<Glucose &le; 93.5<br/>squared_error = 0.163<br/>samples = 29<br/>value = 0.795>, fillcolor="#ea9b62"] ;
25 -> 26 ;
27 [label=<squared_error = 0.0<br/>samples = 8<br/>value = 1.0>, fillcolor="#e58139"] ;
26 -> 27 ;
28 [label=<Glucose &le; 104.5<br/>squared_error = 0.209<br/>samples = 21<br/>value = 0.704>, fillcolor="#eda674"] ;
26 -> 28 ;
29 [label=<squared_error = 0.0<br/>samples = 2<br/>value = 0.0>, fillcolor="#ffffff"] ;
28 -> 29 ;
30 [label=<BMI &le; 34.05<br/>squared_error = 0.165<br/>samples = 19<br/>value = 0.792>, fillcolor="#ea9b62"] ;
28 -> 30 ;
31 [label=<Glucose &le; 124.5<br/>squared_error = 0.247<br/>samples = 8<br/>value = 0.556>, fillcolor="#f1b991"] ;
30 -> 31 ;
32 [label=<squared_error = 0.0<br/>samples = 3<br/>value = 0.0>, fillcolor="#ffffff"] ;
31 -> 32 ;
33 [label=<squared_error = 0.0<br/>samples = 5<br/>value = 1.0>, fillcolor="#e58139"] ;
31 -> 33 ;
34 [label=<Glucose &le; 137.0<br/>squared_error = 0.062<br/>samples = 11<br/>value = 0.933>, fillcolor="#e78946"] ;
30 -> 34 ;
35 [label=<squared_error = 0.0<br/>samples = 9<br/>value = 1.0>, fillcolor="#e58139"] ;
34 -> 35 ;
36 [label=<Age &le; 26.0<br/>squared_error = 0.25<br/>samples = 2<br/>value = 0.5>, fillcolor="#f2c09c"] ;
34 -> 36 ;
37 [label=<squared_error = 0.0<br/>samples = 1<br/>value = 1.0>, fillcolor="#e58139"] ;
36 -> 37 ;
38 [label=<squared_error = 0.0<br/>samples = 1<br/>value = 0.0>, fillcolor="#ffffff"] ;
36 -> 38 ;
39 [label=<DiabetesPedigreeFunction &le; 0.509<br/>squared_error = 0.015<br/>samples = 42<br/>value = 0.985>, fillcolor="#e5833c"] ;
25 -> 39 ;
40 [label=<squared_error = 0.0<br/>samples = 40<br/>value = 1.0>, fillcolor="#e58139"] ;
39 -> 40 ;
41 [label=<Pregnancies &le; 1.0<br/>squared_error = 0.25<br/>samples = 2<br/>value = 0.5>, fillcolor="#f2c09c"] ;
39 -> 41 ;
42 [label=<squared_error = 0.0<br/>samples = 1<br/>value = 0.0>, fillcolor="#ffffff"] ;
41 -> 42 ;
43 [label=<squared_error = 0.0<br/>samples = 1<br/>value = 1.0>, fillcolor="#e58139"] ;
41 -> 43 ;
44 [label=<DiabetesPedigreeFunction &le; 0.544<br/>squared_error = 0.242<br/>samples = 39<br/>value = 0.59>, fillcolor="#f0b58a"] ;
18 -> 44 ;
45 [label=<squared_error = 0.0<br/>samples = 4<br/>value = 0.0>, fillcolor="#ffffff"] ;
44 -> 45 ;
46 [label=<Insulin &le; 86.0<br/>squared_error = 0.218<br/>samples = 35<br/>value = 0.679>, fillcolor="#eda979"] ;
44 -> 46 ;
47 [label=<Pregnancies &le; 8.0<br/>squared_error = 0.122<br/>samples = 19<br/>value = 0.857>, fillcolor="#e99355"] ;
46 -> 47 ;
48 [label=<Glucose &le; 112.5<br/>squared_error = 0.071<br/>samples = 17<br/>value = 0.923>, fillcolor="#e78b48"] ;
47 -> 48 ;
49 [label=<squared_error = 0.0<br/>samples = 11<br/>value = 1.0>, fillcolor="#e58139"] ;
48 -> 49 ;
50 [label=<BMI &le; 39.55<br/>squared_error = 0.204<br/>samples = 6<br/>value = 0.714>, fillcolor="#eca572"] ;
48 -> 50 ;
51 [label=<squared_error = 0.0<br/>samples = 1<br/>value = 0.0>, fillcolor="#ffffff"] ;
50 -> 51 ;
52 [label=<Age &le; 22.5<br/>squared_error = 0.139<br/>samples = 5<br/>value = 0.833>, fillcolor="#e9965a"] ;
50 -> 52 ;
53 [label=<squared_error = 0.0<br/>samples = 1<br/>value = 0.0>, fillcolor="#ffffff"] ;
52 -> 53 ;
54 [label=<squared_error = 0.0<br/>samples = 4<br/>value = 1.0>, fillcolor="#e58139"] ;
52 -> 54 ;
55 [label=<squared_error = 0.0<br/>samples = 2<br/>value = 0.0>, fillcolor="#ffffff"] ;
47 -> 55 ;
56 [label=<Insulin &le; 198.0<br/>squared_error = 0.25<br/>samples = 16<br/>value = 0.48>, fillcolor="#f3c3a0"] ;
46 -> 56 ;
57 [label=<BMI &le; 43.5<br/>squared_error = 0.201<br/>samples = 12<br/>value = 0.278>, fillcolor="#f8dcc8"] ;
56 -> 57 ;
58 [label=<Pregnancies &le; 0.5<br/>squared_error = 0.116<br/>samples = 10<br/>value = 0.133>, fillcolor="#fceee5"] ;
57 -> 58 ;
59 [label=<squared_error = 0.0<br/>samples = 1<br/>value = 1.0>, fillcolor="#e58139"] ;
58 -> 59 ;
60 [label=<BMI &le; 32.85<br/>squared_error = 0.066<br/>samples = 9<br/>value = 0.071>, fillcolor="#fdf6f1"] ;
58 -> 60 ;
61 [label=<BloodPressure &le; 73.0<br/>squared_error = 0.222<br/>samples = 2<br/>value = 0.333>, fillcolor="#f6d5bd"] ;
60 -> 61 ;
62 [label=<squared_error = 0.0<br/>samples = 1<br/>value = 0.0>, fillcolor="#ffffff"] ;
61 -> 62 ;
63 [label=<squared_error = 0.0<br/>samples = 1<br/>value = 1.0>, fillcolor="#e58139"] ;
61 -> 63 ;
64 [label=<squared_error = 0.0<br/>samples = 7<br/>value = 0.0>, fillcolor="#ffffff"] ;
60 -> 64 ;
65 [label=<squared_error = 0.0<br/>samples = 2<br/>value = 1.0>, fillcolor="#e58139"] ;
57 -> 65 ;
66 [label=<squared_error = 0.0<br/>samples = 4<br/>value = 1.0>, fillcolor="#e58139"] ;
56 -> 66 ;
67 [label=<DiabetesPedigreeFunction &le; 0.583<br/>squared_error = 0.249<br/>samples = 61<br/>value = 0.462>, fillcolor="#f3c5a4"] ;
1 -> 67 ;
68 [label=<Glucose &le; 142.0<br/>squared_error = 0.241<br/>samples = 43<br/>value = 0.594>, fillcolor="#f0b489"] ;
67 -> 68 ;
69 [label=<BloodPressure &le; 77.0<br/>squared_error = 0.226<br/>samples = 39<br/>value = 0.655>, fillcolor="#eead7d"] ;
68 -> 69 ;
70 [label=<DiabetesPedigreeFunction &le; 0.241<br/>squared_error = 0.248<br/>samples = 18<br/>value = 0.458>, fillcolor="#f3c5a4"] ;
69 -> 70 ;
71 [label=<DiabetesPedigreeFunction &le; 0.146<br/>squared_error = 0.16<br/>samples = 8<br/>value = 0.8>, fillcolor="#ea9a61"] ;
70 -> 71 ;
72 [label=<BMI &le; 40.0<br/>squared_error = 0.222<br/>samples = 3<br/>value = 0.333>, fillcolor="#f6d5bd"] ;
71 -> 72 ;
73 [label=<squared_error = 0.0<br/>samples = 2<br/>value = 0.0>, fillcolor="#ffffff"] ;
72 -> 73 ;
74 [label=<squared_error = 0.0<br/>samples = 1<br/>value = 1.0>, fillcolor="#e58139"] ;
72 -> 74 ;
75 [label=<squared_error = 0.0<br/>samples = 5<br/>value = 1.0>, fillcolor="#e58139"] ;
71 -> 75 ;
76 [label=<DiabetesPedigreeFunction &le; 0.303<br/>squared_error = 0.168<br/>samples = 10<br/>value = 0.214>, fillcolor="#f9e4d5"] ;
70 -> 76 ;
77 [label=<squared_error = 0.0<br/>samples = 5<br/>value = 0.0>, fillcolor="#ffffff"] ;
76 -> 77 ;
78 [label=<Age &le; 42.5<br/>squared_error = 0.24<br/>samples = 5<br/>value = 0.6>, fillcolor="#efb388"] ;
76 -> 78 ;
79 [label=<squared_error = 0.0<br/>samples = 3<br/>value = 1.0>, fillcolor="#e58139"] ;
78 -> 79 ;
80 [label=<squared_error = 0.0<br/>samples = 2<br/>value = 0.0>, fillcolor="#ffffff"] ;
78 -> 80 ;
81 [label=<BloodPressure &le; 97.0<br/>squared_error = 0.156<br/>samples = 21<br/>value = 0.806>, fillcolor="#ea995f"] ;
69 -> 81 ;
82 [label=<Insulin &le; 90.0<br/>squared_error = 0.096<br/>samples = 19<br/>value = 0.893>, fillcolor="#e88e4e"] ;
81 -> 82 ;
83 [label=<DiabetesPedigreeFunction &le; 0.539<br/>squared_error = 0.071<br/>samples = 17<br/>value = 0.923>, fillcolor="#e78b48"] ;
82 -> 83 ;
84 [label=<Pregnancies &le; 2.5<br/>squared_error = 0.038<br/>samples = 16<br/>value = 0.96>, fillcolor="#e68641"] ;
83 -> 84 ;
85 [label=<Pregnancies &le; 1.5<br/>squared_error = 0.139<br/>samples = 4<br/>value = 0.833>, fillcolor="#e9965a"] ;
84 -> 85 ;
86 [label=<squared_error = 0.0<br/>samples = 3<br/>value = 1.0>, fillcolor="#e58139"] ;
85 -> 86 ;
87 [label=<squared_error = 0.0<br/>samples = 1<br/>value = 0.0>, fillcolor="#ffffff"] ;
85 -> 87 ;
88 [label=<squared_error = 0.0<br/>samples = 12<br/>value = 1.0>, fillcolor="#e58139"] ;
84 -> 88 ;
89 [label=<squared_error = 0.0<br/>samples = 1<br/>value = 0.0>, fillcolor="#ffffff"] ;
83 -> 89 ;
90 [label=<BMI &le; 27.3<br/>squared_error = 0.25<br/>samples = 2<br/>value = 0.5>, fillcolor="#f2c09c"] ;
82 -> 90 ;
91 [label=<squared_error = 0.0<br/>samples = 1<br/>value = 1.0>, fillcolor="#e58139"] ;
90 -> 91 ;
92 [label=<squared_error = 0.0<br/>samples = 1<br/>value = 0.0>, fillcolor="#ffffff"] ;
90 -> 92 ;
93 [label=<squared_error = 0.0<br/>samples = 2<br/>value = 0.0>, fillcolor="#ffffff"] ;
81 -> 93 ;
94 [label=<Age &le; 61.5<br/>squared_error = 0.173<br/>samples = 4<br/>value = 0.222>, fillcolor="#f9e3d3"] ;
68 -> 94 ;
95 [label=<squared_error = 0.0<br/>samples = 3<br/>value = 0.0>, fillcolor="#ffffff"] ;
94 -> 95 ;
96 [label=<squared_error = 0.0<br/>samples = 1<br/>value = 1.0>, fillcolor="#e58139"] ;
94 -> 96 ;
97 [label=<BloodPressure &le; 65.0<br/>squared_error = 0.126<br/>samples = 18<br/>value = 0.148>, fillcolor="#fbece2"] ;
67 -> 97 ;
98 [label=<squared_error = 0.0<br/>samples = 2<br/>value = 1.0>, fillcolor="#e58139"] ;
97 -> 98 ;
99 [label=<Pregnancies &le; 3.0<br/>squared_error = 0.04<br/>samples = 16<br/>value = 0.042>, fillcolor="#fefaf7"] ;
97 -> 99 ;
100 [label=<BMI &le; 35.3<br/>squared_error = 0.25<br/>samples = 2<br/>value = 0.5>, fillcolor="#f2c09c"] ;
99 -> 100 ;
101 [label=<squared_error = 0.0<br/>samples = 1<br/>value = 0.0>, fillcolor="#ffffff"] ;
100 -> 101 ;
102 [label=<squared_error = 0.0<br/>samples = 1<br/>value = 1.0>, fillcolor="#e58139"] ;
100 -> 102 ;
103 [label=<squared_error = 0.0<br/>samples = 14<br/>value = 0.0>, fillcolor="#ffffff"] ;
99 -> 103 ;
104 [label=<Age &le; 59.5<br/>squared_error = 0.122<br/>samples = 38<br/>value = 0.143>, fillcolor="#fbede3"] ;
0 -> 104 [labeldistance=2.5, labelangle=-45, headlabel="False"] ;
105 [label=<DiabetesPedigreeFunction &le; 0.3<br/>squared_error = 0.09<br/>samples = 36<br/>value = 0.1>, fillcolor="#fcf2eb"] ;
104 -> 105 ;
106 [label=<DiabetesPedigreeFunction &le; 0.25<br/>squared_error = 0.204<br/>samples = 12<br/>value = 0.286>, fillcolor="#f8dbc6"] ;
105 -> 106 ;
107 [label=<Pregnancies &le; 9.5<br/>squared_error = 0.104<br/>samples = 9<br/>value = 0.118>, fillcolor="#fcf0e8"] ;
106 -> 107 ;
108 [label=<squared_error = 0.0<br/>samples = 8<br/>value = 0.0>, fillcolor="#ffffff"] ;
107 -> 108 ;
109 [label=<squared_error = 0.0<br/>samples = 1<br/>value = 1.0>, fillcolor="#e58139"] ;
107 -> 109 ;
110 [label=<squared_error = 0.0<br/>samples = 3<br/>value = 1.0>, fillcolor="#e58139"] ;
106 -> 110 ;
111 [label=<squared_error = 0.0<br/>samples = 24<br/>value = 0.0>, fillcolor="#ffffff"] ;
105 -> 111 ;
112 [label=<squared_error = 0.0<br/>samples = 2<br/>value = 1.0>, fillcolor="#e58139"] ;
104 -> 112 ;
}