digraph Tree {
node [shape=box, style="filled, rounded", color="black", fontname="helvetica"] ;
edge [fontname="helvetica"] ;
0 [label=<Age &le; 40.5<br/>gini = 0.421<br/>samples = 324<br/>value = [153, 355]<br/>class = 0>, fillcolor="#8ec7f0"] ;
1 [label=<BMI &le; 43.55<br/>gini = 0.352<br/>samples = 252<br/>value = [92, 311]<br/>class = 0>, fillcolor="#74baed"] ;
0 -> 1 [labeldistance=2.5, labelangle=45, headlabel="True"] ;
2 [label=<DiabetesPedigreeFunction &le; 0.295<br/>gini = 0.314<br/>samples = 241<br/>value = [75, 309]<br/>class = 0>, fillcolor="#69b5eb"] ;
1 -> 2 ;
3 [label=<BloodPressure &le; 73.0<br/>gini = 0.117<br/>samples = 93<br/>value = [9, 135]<br/>class = 0>, fillcolor="#46a4e7"] ;
2 -> 3 ;
4 [label=<Glucose &le; 165.0<br/>gini = 0.188<br/>samples = 52<br/>value = [8, 68]<br/>class = 0>, fillcolor="#50a9e8"] ;
3 -> 4 ;
5 [label=<Age &le; 30.5<br/>gini = 0.128<br/>samples = 50<br/>value = [5, 68]<br/>class = 0>, fillcolor="#48a4e7"] ;
4 -> 5 ;
6 [label=<gini = 0.0<br/>samples = 37<br/>value = [0, 54]<br/>class = 0>, fillcolor="#399de5"] ;
5 -> 6 ;
7 [label=<BMI &le; 27.2<br/>gini = 0.388<br/>samples = 13<br/>value = [5, 14]<br/>class = 0>, fillcolor="#80c0ee"] ;
5 -> 7 ;
8 [label=<gini = 0.0<br/>samples = 4<br/>value = [0, 7]<br/>class = 0>, fillcolor="#399de5"] ;
7 -> 8 ;
9 [label=<Pregnancies &le; 1.0<br/>gini = 0.486<br/>samples = 9<br/>value = [5, 7]<br/>class = 0>, fillcolor="#c6e3f8"] ;
7 -> 9 ;
10 [label=<gini = 0.0<br/>samples = 1<br/>value = [2, 0]<br/>class = 1>, fillcolor="#e58139"] ;
9 -> 10 ;
11 [label=<BMI &le; 33.35<br/>gini = 0.42<br/>samples = 8<br/>value = [3, 7]<br/>class = 0>, fillcolor="#8ec7f0"] ;
9 -> 11 ;
12 [label=<Pregnancies &le; 7.5<br/>gini = 0.49<br/>samples = 6<br/>value = [3, 4]<br/>class = 0>, fillcolor="#cee6f8"] ;
11 -> 12 ;
13 [label=<Age &le; 34.0<br/>gini = 0.32<br/>samples = 4<br/>value = [1, 4]<br/>class = 0>, fillcolor="#6ab6ec"] ;
12 -> 13 ;
14 [label=<gini = 0.0<br/>samples = 1<br/>value = [1, 0]<br/>class = 1>, fillcolor="#e58139"] ;
13 -> 14 ;
15 [label=<gini = 0.0<br/>samples = 3<br/>value = [0, 4]<br/>class = 0>, fillcolor="#399de5"] ;
13 -> 15 ;
16 [label=<gini = 0.0<br/>samples = 2<br/>value = [2, 0]<br/>class = 1>, fillcolor="#e58139"] ;
12 -> 16 ;
17 [label=<gini = 0.0<br/>samples = 2<br/>value = [0, 3]<br/>class = 0>, fillcolor="#399de5"] ;
11 -> 17 ;
18 [label=<gini = 0.0<br/>samples = 2<br/>value = [3, 0]<br/>class = 1>, fillcolor="#e58139"] ;
4 -> 18 ;
19 [label=<BloodPressure &le; 77.0<br/>gini = 0.029<br/>samples = 41<br/>value = [1, 67]<br/>class = 0>, fillcolor="#3c9ee5"] ;
3 -> 19 ;
20 [label=<DiabetesPedigreeFunction &le; 0.273<br/>gini = 0.071<br/>samples = 17<br/>value = [1, 26]<br/>class = 0>, fillcolor="#41a1e6"] ;
19 -> 20 ;
21 [label=<gini = 0.0<br/>samples = 14<br/>value = [0, 21]<br/>class = 0>, fillcolor="#399de5"] ;
20 -> 21 ;
22 [label=<Age &le; 24.5<br/>gini = 0.278<br/>samples = 3<br/>value = [1, 5]<br/>class = 0>, fillcolor="#61b1ea"] ;
20 -> 22 ;
23 [label=<gini = 0.0<br/>samples = 1<br/>value = [1, 0]<br/>class = 1>, fillcolor="#e58139"] ;
22 -> 23 ;
24 [label=<gini = 0.0<br/>samples = 2<br/>value = [0, 5]<br/>class = 0>, fillcolor="#399de5"] ;
22 -> 24 ;
25 [label=<gini = 0.0<br/>samples = 24<br/>value = [0, 41]<br/>class = 0>, fillcolor="#399de5"] ;
19 -> 25 ;
26 [label=<Age &le; 27.5<br/>gini = 0.399<br/>samples = 148<br/>value = [66, 174]<br/>class = 0>, fillcolor="#84c2ef"] ;
2 -> 26 ;
27 [label=<BloodPressure &le; 53.0<br/>gini = 0.285<br/>samples = 84<br/>value = [22, 106]<br/>class = 0>, fillcolor="#62b1ea"] ;
26 -> 27 ;
28 [label=<Age &le; 21.5<br/>gini = 0.408<br/>samples = 5<br/>value = [5, 2]<br/>class = 1>, fillcolor="#efb388"] ;
27 -> 28 ;
29 [label=<gini = 0.0<br/>samples = 1<br/>value = [0, 1]<br/>class = 0>, fillcolor="#399de5"] ;
28 -> 29 ;
30 [label=<Pregnancies &le; 2.0<br/>gini = 0.278<br/>samples = 4<br/>value = [5, 1]<br/>class = 1>, fillcolor="#ea9a61"] ;
28 -> 30 ;
31 [label=<gini = 0.0<br/>samples = 2<br/>value = [3, 0]<br/>class = 1>, fillcolor="#e58139"] ;
30 -> 31 ;
32 [label=<BloodPressure &le; 51.0<br/>gini = 0.444<br/>samples = 2<br/>value = [2, 1]<br/>class = 1>, fillcolor="#f2c09c"] ;
30 -> 32 ;
33 [label=<gini = 0.0<br/>samples = 1<br/>value = [0, 1]<br/>class = 0>, fillcolor="#399de5"] ;
32 -> 33 ;
34 [label=<gini = 0.0<br/>samples = 1<br/>value = [2, 0]<br/>class = 1>, fillcolor="#e58139"] ;
32 -> 34 ;
35 [label=<Glucose &le; 137.0<br/>gini = 0.242<br/>samples = 79<br/>value = [17, 104]<br/>class = 0>, fillcolor="#59ade9"] ;
27 -> 35 ;
36 [label=<DiabetesPedigreeFunction &le; 0.532<br/>gini = 0.112<br/>samples = 70<br/>value = [6, 95]<br/>class = 0>, fillcolor="#46a3e7"] ;
35 -> 36 ;
37 [label=<gini = 0.0<br/>samples = 43<br/>value = [0, 61]<br/>class = 0>, fillcolor="#399de5"] ;
36 -> 37 ;
38 [label=<DiabetesPedigreeFunction &le; 0.554<br/>gini = 0.255<br/>samples = 27<br/>value = [6, 34]<br/>class = 0>, fillcolor="#5caeea"] ;
36 -> 38 ;
39 [label=<Glucose &le; 97.0<br/>gini = 0.278<br/>samples = 5<br/>value = [5, 1]<br/>class = 1>, fillcolor="#ea9a61"] ;
38 -> 39 ;
40 [label=<gini = 0.0<br/>samples = 1<br/>value = [0, 1]<br/>class = 0>, fillcolor="#399de5"] ;
39 -> 40 ;
41 [label=<gini = 0.0<br/>samples = 4<br/>value = [5, 0]<br/>class = 1>, fillcolor="#e58139"] ;
39 -> 41 ;
42 [label=<Glucose &le; 94.5<br/>gini = 0.057<br/>samples = 22<br/>value = [1, 33]<br/>class = 0>, fillcolor="#3fa0e6"] ;
38 -> 42 ;
43 [label=<BMI &le; 35.2<br/>gini = 0.198<br/>samples = 6<br/>value = [1, 8]<br/>class = 0>, fillcolor="#52a9e8"] ;
42 -> 43 ;
44 [label=<gini = 0.0<br/>samples = 3<br/>value = [0, 6]<br/>class = 0>, fillcolor="#399de5"] ;
43 -> 44 ;
45 [label=<Insulin &le; 104.0<br/>gini = 0.444<br/>samples = 3<br/>value = [1, 2]<br/>class = 0>, fillcolor="#9ccef2"] ;
43 -> 45 ;
46 [label=<gini = 0.0<br/>samples = 2<br/>value = [0, 2]<br/>class = 0>, fillcolor="#399de5"] ;
45 -> 46 ;
47 [label=<gini = 0.0<br/>samples = 1<br/>value = [1, 0]<br/>class = 1>, fillcolor="#e58139"] ;
45 -> 47 ;
48 [label=<gini = 0.0<br/>samples = 16<br/>value = [0, 25]<br/>class = 0>, fillcolor="#399de5"] ;
42 -> 48 ;
49 [label=<DiabetesPedigreeFunction &le; 0.616<br/>gini = 0.495<br/>samples = 9<br/>value = [11, 9]<br/>class = 1>, fillcolor="#fae8db"] ;
35 -> 49 ;
50 [label=<Insulin &le; 67.5<br/>gini = 0.391<br/>samples = 6<br/>value = [11, 4]<br/>class = 1>, fillcolor="#eeaf81"] ;
49 -> 50 ;
51 [label=<BMI &le; 42.45<br/>gini = 0.5<br/>samples = 3<br/>value = [4, 4]<br/>class = 1>, fillcolor="#ffffff"] ;
50 -> 51 ;
52 [label=<gini = 0.0<br/>samples = 2<br/>value = [4, 0]<br/>class = 1>, fillcolor="#e58139"] ;
51 -> 52 ;
53 [label=<gini = 0.0<br/>samples = 1<br/>value = [0, 4]<br/>class = 0>, fillcolor="#399de5"] ;
51 -> 53 ;
54 [label=<gini = 0.0<br/>samples = 3<br/>value = [7, 0]<br/>class = 1>, fillcolor="#e58139"] ;
50 -> 54 ;
55 [label=<gini = 0.0<br/>samples = 3<br/>value = [0, 5]<br/>class = 0>, fillcolor="#399de5"] ;
49 -> 55 ;
56 [label=<Glucose &le; 156.0<br/>gini = 0.477<br/>samples = 64<br/>value = [44, 68]<br/>class = 0>, fillcolor="#b9dcf6"] ;
26 -> 56 ;
57 [label=<Pregnancies &le; 6.5<br/>gini = 0.411<br/>samples = 51<br/>value = [26.0, 64.0]<br/>class = 0>, fillcolor="#89c5f0"] ;
56 -> 57 ;
58 [label=<Glucose &le; 124.0<br/>gini = 0.351<br/>samples = 37<br/>value = [15, 51]<br/>class = 0>, fillcolor="#73baed"] ;
57 -> 58 ;
59 [label=<Insulin &le; 11.5<br/>gini = 0.176<br/>samples = 22<br/>value = [4, 37]<br/>class = 0>, fillcolor="#4ea8e8"] ;
58 -> 59 ;
60 [label=<Age &le; 37.0<br/>gini = 0.426<br/>samples = 7<br/>value = [4, 9]<br/>class = 0>, fillcolor="#91c9f1"] ;
59 -> 60 ;
61 [label=<BMI &le; 29.65<br/>gini = 0.298<br/>samples = 6<br/>value = [2, 9]<br/>class = 0>, fillcolor="#65b3eb"] ;
60 -> 61 ;
62 [label=<gini = 0.0<br/>samples = 3<br/>value = [0, 5]<br/>class = 0>, fillcolor="#399de5"] ;
61 -> 62 ;
63 [label=<BMI &le; 29.9<br/>gini = 0.444<br/>samples = 3<br/>value = [2, 4]<br/>class = 0>, fillcolor="#9ccef2"] ;
61 -> 63 ;
64 [label=<gini = 0.0<br/>samples = 1<br/>value = [2, 0]<br/>class = 1>, fillcolor="#e58139"] ;
63 -> 64 ;
65 [label=<gini = 0.0<br/>samples = 2<br/>value = [0, 4]<br/>class = 0>, fillcolor="#399de5"] ;
63 -> 65 ;
66 [label=<gini = 0.0<br/>samples = 1<br/>value = [2, 0]<br/>class = 1>, fillcolor="#e58139"] ;
60 -> 66 ;
67 [label=<gini = 0.0<br/>samples = 15<br/>value = [0, 28]<br/>class = 0>, fillcolor="#399de5"] ;
59 -> 67 ;
68 [label=<Glucose &le; 146.5<br/>gini = 0.493<br/>samples = 15<br/>value = [11.0, 14.0]<br/>class = 0>, fillcolor="#d5eaf9"] ;
58 -> 68 ;
69 [label=<BMI &le; 32.25<br/>gini = 0.488<br/>samples = 12<br/>value = [11, 8]<br/>class = 1>, fillcolor="#f8ddc9"] ;
68 -> 69 ;
70 [label=<Age &le; 33.0<br/>gini = 0.408<br/>samples = 4<br/>value = [2, 5]<br/>class = 0>, fillcolor="#88c4ef"] ;
69 -> 70 ;
71 [label=<gini = 0.0<br/>samples = 3<br/>value = [0, 5]<br/>class = 0>, fillcolor="#399de5"] ;
70 -> 71 ;
72 [label=<gini = 0.0<br/>samples = 1<br/>value = [2, 0]<br/>class = 1>, fillcolor="#e58139"] ;
70 -> 72 ;
73 [label=<Insulin &le; 180.5<br/>gini = 0.375<br/>samples = 8<br/>value = [9, 3]<br/>class = 1>, fillcolor="#eeab7b"] ;
69 -> 73 ;
74 [label=<Glucose &le; 128.0<br/>gini = 0.298<br/>samples = 7<br/>value = [9, 2]<br/>class = 1>, fillcolor="#eb9d65"] ;
73 -> 74 ;
75 [label=<DiabetesPedigreeFunction &le; 0.78<br/>gini = 0.444<br/>samples = 2<br/>value = [2, 1]<br/>class = 1>, fillcolor="#f2c09c"] ;
74 -> 75 ;
76 [label=<gini = 0.0<br/>samples = 1<br/>value = [0, 1]<br/>class = 0>, fillcolor="#399de5"] ;
75 -> 76 ;
77 [label=<gini = 0.0<br/>samples = 1<br/>value = [2, 0]<br/>class = 1>, fillcolor="#e58139"] ;
75 -> 77 ;
78 [label=<BMI &le; 39.9<br/>gini = 0.219<br/>samples = 5<br/>value = [7, 1]<br/>class = 1>, fillcolor="#e99355"] ;
74 -> 78 ;
79 [label=<gini = 0.0<br/>samples = 4<br/>value = [7, 0]<br/>class = 1>, fillcolor="#e58139"] ;
78 -> 79 ;
80 [label=<gini = 0.0<br/>samples = 1<br/>value = [0, 1]<br/>class = 0>, fillcolor="#399de5"] ;
78 -> 80 ;
81 [label=<gini = 0.0<br/>samples = 1<br/>value = [0, 1]<br/>class = 0>, fillcolor="#399de5"] ;
73 -> 81 ;
82 [label=<gini = 0.0<br/>samples = 3<br/>value = [0, 6]<br/>class = 0>, fillcolor="#399de5"] ;
68 -> 82 ;
83 [label=<BMI &le; 28.3<br/>gini = 0.497<br/>samples = 14<br/>value = [11, 13]<br/>class = 0>, fillcolor="#e1f0fb"] ;
57 -> 83 ;
84 [label=<Glucose &le; 106.5<br/>gini = 0.32<br/>samples = 2<br/>value = [4, 1]<br/>class = 1>, fillcolor="#eca06a"] ;
83 -> 84 ;
85 [label=<gini = 0.0<br/>samples = 1<br/>value = [4, 0]<br/>class = 1>, fillcolor="#e58139"] ;
84 -> 85 ;
86 [label=<gini = 0.0<br/>samples = 1<br/>value = [0, 1]<br/>class = 0>, fillcolor="#399de5"] ;
84 -> 86 ;
87 [label=<Age &le; 34.0<br/>gini = 0.465<br/>samples = 12<br/>value = [7, 12]<br/>class = 0>, fillcolor="#acd6f4"] ;
83 -> 87 ;
88 [label=<gini = 0.0<br/>samples = 4<br/>value = [5, 0]<br/>class = 1>, fillcolor="#e58139"] ;
87 -> 88 ;
89 [label=<DiabetesPedigreeFunction &le; 0.431<br/>gini = 0.245<br/>samples = 8<br/>value = [2, 12]<br/>class = 0>, fillcolor="#5aade9"] ;
87 -> 89 ;
90 [label=<gini = 0.0<br/>samples = 4<br/>value = [0, 9]<br/>class = 0>, fillcolor="#399de5"] ;
89 -> 90 ;
91 [label=<DiabetesPedigreeFunction &le; 0.58<br/>gini = 0.48<br/>samples = 4<br/>value = [2, 3]<br/>class = 0>, fillcolor="#bddef6"] ;
89 -> 91 ;
92 [label=<Age &le; 38.5<br/>gini = 0.444<br/>samples = 3<br/>value = [2, 1]<br/>class = 1>, fillcolor="#f2c09c"] ;
91 -> 92 ;
93 [label=<gini = 0.0<br/>samples = 2<br/>value = [2, 0]<br/>class = 1>, fillcolor="#e58139"] ;
92 -> 93 ;
94 [label=<gini = 0.0<br/>samples = 1<br/>value = [0, 1]<br/>class = 0>, fillcolor="#399de5"] ;
92 -> 94 ;
95 [label=<gini = 0.0<br/>samples = 1<br/>value = [0, 2]<br/>class = 0>, fillcolor="#399de5"] ;
91 -> 95 ;
96 [label=<Glucose &le; 188.5<br/>gini = 0.298<br/>samples = 13<br/>value = [18, 4]<br/>class = 1>, fillcolor="#eb9d65"] ;
56 -> 96 ;
97 [label=<gini = 0.0<br/>samples = 11<br/>value = [15, 0]<br/>class = 1>, fillcolor="#e58139"] ;
96 -> 97 ;
98 [label=<BloodPressure &le; 67.0<br/>gini = 0.49<br/>samples = 2<br/>value = [3, 4]<br/>class = 0>, fillcolor="#cee6f8"] ;
96 -> 98 ;
99 [label=<gini = 0.0<br/>samples = 1<br/>value = [3, 0]<br/>class = 1>, fillcolor="#e58139"] ;
98 -> 99 ;
100 [label=<gini = 0.0<br/>samples = 1<br/>value = [0, 4]<br/>class = 0>, fillcolor="#399de5"] ;
98 -> 100 ;
101 [label=<BloodPressure &le; 80.0<br/>gini = 0.188<br/>samples = 11<br/>value = [17, 2]<br/>class = 1>, fillcolor="#e89050"] ;
1 -> 101 ;
102 [label=<Glucose &le; 136.5<br/>gini = 0.444<br/>samples = 4<br/>value = [4, 2]<br/>class = 1>, fillcolor="#f2c09c"] ;
101 -> 102 ;
103 [label=<gini = 0.0<br/>samples = 2<br/>value = [0, 2]<br/>class = 0>, fillcolor="#399de5"] ;
102 -> 103 ;
104 [label=<gini = 0.0<br/>samples = 2<br/>value = [4, 0]<br/>class = 1>, fillcolor="#e58139"] ;
102 -> 104 ;
105 [label=<gini = 0.0<br/>samples = 7<br/>value = [13, 0]<br/>class = 1>, fillcolor="#e58139"] ;
101 -> 105 ;
106 [label=<BloodPressure &le; 62.0<br/>gini = 0.487<br/>samples = 72<br/>value = [61.0, 44.0]<br/>class = 1>, fillcolor="#f8dcc8"] ;
0 -> 106 [labeldistance=2.5, labelangle=-45, headlabel="False"] ;
107 [label=<gini = 0.0<br/>samples = 4<br/>value = [0, 5]<br/>class = 0>, fillcolor="#399de5"] ;
106 -> 107 ;
108 [label=<Glucose &le; 128.5<br/>gini = 0.476<br/>samples = 68<br/>value = [61, 39]<br/>class = 1>, fillcolor="#f6d2b8"] ;
106 -> 108 ;
109 [label=<Insulin &le; 111.5<br/>gini = 0.491<br/>samples = 36<br/>value = [23, 30]<br/>class = 0>, fillcolor="#d1e8f9"] ;
108 -> 109 ;
110 [label=<Pregnancies &le; 12.5<br/>gini = 0.449<br/>samples = 30<br/>value = [15.0, 29.0]<br/>class = 0>, fillcolor="#9fd0f2"] ;
109 -> 110 ;
111 [label=<BMI &le; 26.6<br/>gini = 0.399<br/>samples = 29<br/>value = [11, 29]<br/>class = 0>, fillcolor="#84c2ef"] ;
110 -> 111 ;
112 [label=<gini = 0.0<br/>samples = 6<br/>value = [0, 8]<br/>class = 0>, fillcolor="#399de5"] ;
111 -> 112 ;
113 [label=<BloodPressure &le; 85.0<br/>gini = 0.451<br/>samples = 23<br/>value = [11, 21]<br/>class = 0>, fillcolor="#a1d0f3"] ;
111 -> 113 ;
114 [label=<BMI &le; 28.35<br/>gini = 0.493<br/>samples = 18<br/>value = [11.0, 14.0]<br/>class = 0>, fillcolor="#d5eaf9"] ;
113 -> 114 ;
115 [label=<Glucose &le; 115.0<br/>gini = 0.219<br/>samples = 4<br/>value = [7, 1]<br/>class = 1>, fillcolor="#e99355"] ;
114 -> 115 ;
116 [label=<gini = 0.0<br/>samples = 2<br/>value = [6, 0]<br/>class = 1>, fillcolor="#e58139"] ;
115 -> 116 ;
117 [label=<Age &le; 47.0<br/>gini = 0.5<br/>samples = 2<br/>value = [1, 1]<br/>class = 1>, fillcolor="#ffffff"] ;
115 -> 117 ;
118 [label=<gini = 0.0<br/>samples = 1<br/>value = [0, 1]<br/>class = 0>, fillcolor="#399de5"] ;
117 -> 118 ;
119 [label=<gini = 0.0<br/>samples = 1<br/>value = [1, 0]<br/>class = 1>, fillcolor="#e58139"] ;
117 -> 119 ;
120 [label=<Pregnancies &le; 5.5<br/>gini = 0.36<br/>samples = 14<br/>value = [4, 13]<br/>class = 0>, fillcolor="#76bbed"] ;
114 -> 120 ;
121 [label=<DiabetesPedigreeFunction &le; 0.228<br/>gini = 0.494<br/>samples = 7<br/>value = [4, 5]<br/>class = 0>, fillcolor="#d7ebfa"] ;
120 -> 121 ;
122 [label=<gini = 0.0<br/>samples = 3<br/>value = [0, 4]<br/>class = 0>, fillcolor="#399de5"] ;
121 -> 122 ;
123 [label=<BloodPressure &le; 74.5<br/>gini = 0.32<br/>samples = 4<br/>value = [4, 1]<br/>class = 1>, fillcolor="#eca06a"] ;
121 -> 123 ;
124 [label=<gini = 0.0<br/>samples = 2<br/>value = [2, 0]<br/>class = 1>, fillcolor="#e58139"] ;
123 -> 124 ;
125 [label=<Age &le; 56.0<br/>gini = 0.444<br/>samples = 2<br/>value = [2, 1]<br/>class = 1>, fillcolor="#f2c09c"] ;
123 -> 125 ;
126 [label=<gini = 0.0<br/>samples = 1<br/>value = [2, 0]<br/>class = 1>, fillcolor="#e58139"] ;
125 -> 126 ;
127 [label=<gini = 0.0<br/>samples = 1<br/>value = [0, 1]<br/>class = 0>, fillcolor="#399de5"] ;
125 -> 127 ;
128 [label=<gini = 0.0<br/>samples = 7<br/>value = [0, 8]<br/>class = 0>, fillcolor="#399de5"] ;
120 -> 128 ;
129 [label=<gini = 0.0<br/>samples = 5<br/>value = [0, 7]<br/>class = 0>, fillcolor="#399de5"] ;
113 -> 129 ;
130 [label=<gini = 0.0<br/>samples = 1<br/>value = [4, 0]<br/>class = 1>, fillcolor="#e58139"] ;
110 -> 130 ;
131 [label=<Pregnancies &le; 2.5<br/>gini = 0.198<br/>samples = 6<br/>value = [8, 1]<br/>class = 1>, fillcolor="#e89152"] ;
109 -> 131 ;
132 [label=<Age &le; 42.5<br/>gini = 0.5<br/>samples = 2<br/>value = [1, 1]<br/>class = 1>, fillcolor="#ffffff"] ;
131 -> 132 ;
133 [label=<gini = 0.0<br/>samples = 1<br/>value = [0, 1]<br/>class = 0>, fillcolor="#399de5"] ;
132 -> 133 ;
134 [label=<gini = 0.0<br/>samples = 1<br/>value = [1, 0]<br/>class = 1>, fillcolor="#e58139"] ;
132 -> 134 ;
135 [label=<gini = 0.0<br/>samples = 4<br/>value = [7, 0]<br/>class = 1>, fillcolor="#e58139"] ;
131 -> 135 ;
136 [label=<Pregnancies &le; 12.5<br/>gini = 0.31<br/>samples = 32<br/>value = [38, 9]<br/>class = 1>, fillcolor="#eb9f68"] ;
108 -> 136 ;
137 [label=<BMI &le; 44.3<br/>gini = 0.21<br/>samples = 30<br/>value = [37, 5]<br/>class = 1>, fillcolor="#e99254"] ;
136 -> 137 ;
138 [label=<Glucose &le; 132.5<br/>gini = 0.142<br/>samples = 27<br/>value = [36, 3]<br/>class = 1>, fillcolor="#e78c49"] ;
137 -> 138 ;
139 [label=<Glucose &le; 131.0<br/>gini = 0.375<br/>samples = 3<br/>value = [3, 1]<br/>class = 1>, fillcolor="#eeab7b"] ;
138 -> 139 ;
140 [label=<gini = 0.0<br/>samples = 2<br/>value = [3, 0]<br/>class = 1>, fillcolor="#e58139"] ;
139 -> 140 ;
141 [label=<gini = 0.0<br/>samples = 1<br/>value = [0, 1]<br/>class = 0>, fillcolor="#399de5"] ;
139 -> 141 ;
142 [label=<DiabetesPedigreeFunction &le; 0.165<br/>gini = 0.108<br/>samples = 24<br/>value = [33, 2]<br/>class = 1>, fillcolor="#e78945"] ;
138 -> 142 ;
143 [label=<BMI &le; 34.55<br/>gini = 0.375<br/>samples = 6<br/>value = [6, 2]<br/>class = 1>, fillcolor="#eeab7b"] ;
142 -> 143 ;
144 [label=<Pregnancies &le; 6.5<br/>gini = 0.48<br/>samples = 4<br/>value = [3, 2]<br/>class = 1>, fillcolor="#f6d5bd"] ;
143 -> 144 ;
145 [label=<gini = 0.0<br/>samples = 2<br/>value = [3, 0]<br/>class = 1>, fillcolor="#e58139"] ;
144 -> 145 ;
146 [label=<gini = 0.0<br/>samples = 2<br/>value = [0, 2]<br/>class = 0>, fillcolor="#399de5"] ;
144 -> 146 ;
147 [label=<gini = 0.0<br/>samples = 2<br/>value = [3, 0]<br/>class = 1>, fillcolor="#e58139"] ;
143 -> 147 ;
148 [label=<gini = 0.0<br/>samples = 18<br/>value = [27, 0]<br/>class = 1>, fillcolor="#e58139"] ;
142 -> 148 ;
149 [label=<Pregnancies &le; 6.5<br/>gini = 0.444<br/>samples = 3<br/>value = [1, 2]<br/>class = 0>, fillcolor="#9ccef2"] ;
137 -> 149 ;
150 [label=<gini = 0.0<br/>samples = 2<br/>value = [0, 2]<br/>class = 0>, fillcolor="#399de5"] ;
149 -> 150 ;
151 [label=<gini = 0.0<br/>samples = 1<br/>value = [1, 0]<br/>class = 1>, fillcolor="#e58139"] ;
149 -> 151 ;
152 [label=<BloodPressure &le; 86.0<br/>gini = 0.32<br/>samples = 2<br/>value = [1, 4]<br/>class = 0>, fillcolor="#6ab6ec"] ;
136 -> 152 ;
153 [label=<gini = 0.0<br/>samples = 1<br/>value = [0, 4]<br/>class = 0>, fillcolor="#399de5"] ;
152 -> 153 ;
154 [label=<gini = 0.0<br/>samples = 1<br/>value = [1, 0]<br/>class = 1>, fillcolor="#e58139"] ;
152 -> 154 ;
}