digraph Tree {
node [shape=box, style="filled, rounded", color="black", fontname="helvetica"] ;
edge [fontname="helvetica"] ;
0 [label=<Glucose &le; 155.0<br/>squared_error = 0.214<br/>samples = 321<br/>value = 0.691>, fillcolor="#eda876"] ;
1 [label=<Glucose &le; 108.5<br/>squared_error = 0.171<br/>samples = 279<br/>value = 0.781>, fillcolor="#eb9d64"] ;
0 -> 1 [labeldistance=2.5, labelangle=45, headlabel="True"] ;
2 [label=<Pregnancies &le; 6.5<br/>squared_error = 0.058<br/>samples = 126<br/>value = 0.938>, fillcolor="#e78945"] ;
1 -> 2 ;
3 [label=<BMI &le; 45.4<br/>squared_error = 0.024<br/>samples = 107<br/>value = 0.976>, fillcolor="#e6843e"] ;
2 -> 3 ;
4 [label=<DiabetesPedigreeFunction &le; 0.163<br/>squared_error = 0.018<br/>samples = 105<br/>value = 0.981>, fillcolor="#e5833d"] ;
3 -> 4 ;
5 [label=<DiabetesPedigreeFunction &le; 0.16<br/>squared_error = 0.104<br/>samples = 11<br/>value = 0.882>, fillcolor="#e89050"] ;
4 -> 5 ;
6 [label=<squared_error = 0.0<br/>samples = 10<br/>value = 1.0>, fillcolor="#e58139"] ;
5 -> 6 ;
7 [label=<squared_error = 0.0<br/>samples = 1<br/>value = 0.0>, fillcolor="#ffffff"] ;
5 -> 7 ;
8 [label=<BloodPressure &le; 51.0<br/>squared_error = 0.007<br/>samples = 94<br/>value = 0.993>, fillcolor="#e5823a"] ;
4 -> 8 ;
9 [label=<BMI &le; 30.9<br/>squared_error = 0.16<br/>samples = 4<br/>value = 0.8>, fillcolor="#ea9a61"] ;
8 -> 9 ;
10 [label=<squared_error = 0.0<br/>samples = 3<br/>value = 1.0>, fillcolor="#e58139"] ;
9 -> 10 ;
11 [label=<squared_error = 0.0<br/>samples = 1<br/>value = 0.0>, fillcolor="#ffffff"] ;
9 -> 11 ;
12 [label=<squared_error = 0.0<br/>samples = 90<br/>value = 1.0>, fillcolor="#e58139"] ;
8 -> 12 ;
13 [label=<DiabetesPedigreeFunction &le; 0.611<br/>squared_error = 0.25<br/>samples = 2<br/>value = 0.5>, fillcolor="#f2c09c"] ;
3 -> 13 ;
14 [label=<squared_error = 0.0<br/>samples = 1<br/>value = 0.0>, fillcolor="#ffffff"] ;
13 -> 14 ;
15 [label=<squared_error = 0.0<br/>samples = 1<br/>value = 1.0>, fillcolor="#e58139"] ;
13 -> 15 ;
16 [label=<Glucose &le; 96.0<br/>squared_error = 0.2<br/>samples = 19<br/>value = 0.724>, fillcolor="#eca470"] ;
2 -> 16 ;
17 [label=<squared_error = 0.0<br/>samples = 8<br/>value = 1.0>, fillcolor="#e58139"] ;
16 -> 17 ;
18 [label=<Age &le; 40.0<br/>squared_error = 0.25<br/>samples = 11<br/>value = 0.5>, fillcolor="#f2c09c"] ;
16 -> 18 ;
19 [label=<squared_error = 0.0<br/>samples = 3<br/>value = 0.0>, fillcolor="#ffffff"] ;
18 -> 19 ;
20 [label=<BMI &le; 39.05<br/>squared_error = 0.16<br/>samples = 8<br/>value = 0.8>, fillcolor="#ea9a61"] ;
18 -> 20 ;
21 [label=<squared_error = 0.0<br/>samples = 5<br/>value = 1.0>, fillcolor="#e58139"] ;
20 -> 21 ;
22 [label=<DiabetesPedigreeFunction &le; 0.182<br/>squared_error = 0.222<br/>samples = 3<br/>value = 0.333>, fillcolor="#f6d5bd"] ;
20 -> 22 ;
23 [label=<squared_error = 0.0<br/>samples = 1<br/>value = 1.0>, fillcolor="#e58139"] ;
22 -> 23 ;
24 [label=<squared_error = 0.0<br/>samples = 2<br/>value = 0.0>, fillcolor="#ffffff"] ;
22 -> 24 ;
25 [label=<BMI &le; 30.2<br/>squared_error = 0.225<br/>samples = 153<br/>value = 0.659>, fillcolor="#eeac7d"] ;
1 -> 25 ;
26 [label=<Insulin &le; 22.0<br/>squared_error = 0.134<br/>samples = 59<br/>value = 0.84>, fillcolor="#e99559"] ;
25 -> 26 ;
27 [label=<BloodPressure &le; 69.0<br/>squared_error = 0.199<br/>samples = 30<br/>value = 0.725>, fillcolor="#eca46f"] ;
26 -> 27 ;
28 [label=<Age &le; 23.0<br/>squared_error = 0.052<br/>samples = 11<br/>value = 0.944>, fillcolor="#e68844"] ;
27 -> 28 ;
29 [label=<Age &le; 21.5<br/>squared_error = 0.25<br/>samples = 2<br/>value = 0.5>, fillcolor="#f2c09c"] ;
28 -> 29 ;
30 [label=<squared_error = 0.0<br/>samples = 1<br/>value = 1.0>, fillcolor="#e58139"] ;
29 -> 30 ;
31 [label=<squared_error = 0.0<br/>samples = 1<br/>value = 0.0>, fillcolor="#ffffff"] ;
29 -> 31 ;
32 [label=<squared_error = 0.0<br/>samples = 9<br/>value = 1.0>, fillcolor="#e58139"] ;
28 -> 32 ;
33 [label=<BloodPressure &le; 73.0<br/>squared_error = 0.239<br/>samples = 19<br/>value = 0.606>, fillcolor="#efb387"] ;
27 -> 33 ;
34 [label=<squared_error = 0.0<br/>samples = 4<br/>value = 0.0>, fillcolor="#ffffff"] ;
33 -> 34 ;
35 [label=<BMI &le; 28.2<br/>squared_error = 0.178<br/>samples = 15<br/>value = 0.769>, fillcolor="#eb9e67"] ;
33 -> 35 ;
36 [label=<DiabetesPedigreeFunction &le; 0.539<br/>squared_error = 0.05<br/>samples = 10<br/>value = 0.947>, fillcolor="#e68843"] ;
35 -> 36 ;
37 [label=<squared_error = 0.0<br/>samples = 7<br/>value = 1.0>, fillcolor="#e58139"] ;
36 -> 37 ;
38 [label=<Glucose &le; 120.0<br/>squared_error = 0.188<br/>samples = 3<br/>value = 0.75>, fillcolor="#eca06a"] ;
36 -> 38 ;
39 [label=<squared_error = 0.0<br/>samples = 2<br/>value = 1.0>, fillcolor="#e58139"] ;
38 -> 39 ;
40 [label=<squared_error = 0.0<br/>samples = 1<br/>value = 0.0>, fillcolor="#ffffff"] ;
38 -> 40 ;
41 [label=<BMI &le; 29.6<br/>squared_error = 0.204<br/>samples = 5<br/>value = 0.286>, fillcolor="#f8dbc6"] ;
35 -> 41 ;
42 [label=<squared_error = 0.0<br/>samples = 3<br/>value = 0.0>, fillcolor="#ffffff"] ;
41 -> 42 ;
43 [label=<squared_error = 0.0<br/>samples = 2<br/>value = 1.0>, fillcolor="#e58139"] ;
41 -> 43 ;
44 [label=<Glucose &le; 109.5<br/>squared_error = 0.039<br/>samples = 29<br/>value = 0.959>, fillcolor="#e68641"] ;
26 -> 44 ;
45 [label=<Pregnancies &le; 4.5<br/>squared_error = 0.16<br/>samples = 3<br/>value = 0.8>, fillcolor="#ea9a61"] ;
44 -> 45 ;
46 [label=<squared_error = 0.0<br/>samples = 2<br/>value = 1.0>, fillcolor="#e58139"] ;
45 -> 46 ;
47 [label=<squared_error = 0.0<br/>samples = 1<br/>value = 0.0>, fillcolor="#ffffff"] ;
45 -> 47 ;
48 [label=<DiabetesPedigreeFunction &le; 0.232<br/>squared_error = 0.022<br/>samples = 26<br/>value = 0.977>, fillcolor="#e6843d"] ;
44 -> 48 ;
49 [label=<DiabetesPedigreeFunction &le; 0.204<br/>squared_error = 0.122<br/>samples = 5<br/>value = 0.857>, fillcolor="#e99355"] ;
48 -> 49 ;
50 [label=<squared_error = 0.0<br/>samples = 4<br/>value = 1.0>, fillcolor="#e58139"] ;
49 -> 50 ;
51 [label=<squared_error = 0.0<br/>samples = 1<br/>value = 0.0>, fillcolor="#ffffff"] ;
49 -> 51 ;
52 [label=<squared_error = 0.0<br/>samples = 21<br/>value = 1.0>, fillcolor="#e58139"] ;
48 -> 52 ;
53 [label=<Age &le; 40.5<br/>squared_error = 0.249<br/>samples = 94<br/>value = 0.534>, fillcolor="#f1bc95"] ;
25 -> 53 ;
54 [label=<DiabetesPedigreeFunction &le; 0.528<br/>squared_error = 0.229<br/>samples = 71<br/>value = 0.644>, fillcolor="#eeae7f"] ;
53 -> 54 ;
55 [label=<BMI &le; 40.9<br/>squared_error = 0.158<br/>samples = 43<br/>value = 0.803>, fillcolor="#ea9a60"] ;
54 -> 55 ;
56 [label=<Insulin &le; 305.5<br/>squared_error = 0.104<br/>samples = 37<br/>value = 0.882>, fillcolor="#e89050"] ;
55 -> 56 ;
57 [label=<BloodPressure &le; 73.0<br/>squared_error = 0.09<br/>samples = 36<br/>value = 0.9>, fillcolor="#e88e4d"] ;
56 -> 57 ;
58 [label=<squared_error = 0.0<br/>samples = 17<br/>value = 1.0>, fillcolor="#e58139"] ;
57 -> 58 ;
59 [label=<BMI &le; 34.55<br/>squared_error = 0.176<br/>samples = 19<br/>value = 0.773>, fillcolor="#eb9e66"] ;
57 -> 59 ;
60 [label=<BMI &le; 33.25<br/>squared_error = 0.247<br/>samples = 8<br/>value = 0.444>, fillcolor="#f3c7a7"] ;
59 -> 60 ;
61 [label=<BMI &le; 31.8<br/>squared_error = 0.16<br/>samples = 5<br/>value = 0.8>, fillcolor="#ea9a61"] ;
60 -> 61 ;
62 [label=<squared_error = 0.0<br/>samples = 1<br/>value = 0.0>, fillcolor="#ffffff"] ;
61 -> 62 ;
63 [label=<squared_error = 0.0<br/>samples = 4<br/>value = 1.0>, fillcolor="#e58139"] ;
61 -> 63 ;
64 [label=<squared_error = 0.0<br/>samples = 3<br/>value = 0.0>, fillcolor="#ffffff"] ;
60 -> 64 ;
65 [label=<squared_error = 0.0<br/>samples = 11<br/>value = 1.0>, fillcolor="#e58139"] ;
59 -> 65 ;
66 [label=<squared_error = 0.0<br/>samples = 1<br/>value = 0.0>, fillcolor="#ffffff"] ;
56 -> 66 ;
67 [label=<Glucose &le; 126.0<br/>squared_error = 0.24<br/>samples = 6<br/>value = 0.4>, fillcolor="#f5cdb0"] ;
55 -> 67 ;
68 [label=<squared_error = 0.0<br/>samples = 2<br/>value = 1.0>, fillcolor="#e58139"] ;
67 -> 68 ;
69 [label=<BMI &le; 42.7<br/>squared_error = 0.122<br/>samples = 4<br/>value = 0.143>, fillcolor="#fbede3"] ;
67 -> 69 ;
70 [label=<squared_error = 0.0<br/>samples = 3<br/>value = 0.0>, fillcolor="#ffffff"] ;
69 -> 70 ;
71 [label=<squared_error = 0.0<br/>samples = 1<br/>value = 1.0>, fillcolor="#e58139"] ;
69 -> 71 ;
72 [label=<BloodPressure &le; 62.0<br/>squared_error = 0.243<br/>samples = 28<br/>value = 0.419>, fillcolor="#f4caac"] ;
54 -> 72 ;
73 [label=<squared_error = 0.0<br/>samples = 4<br/>value = 0.0>, fillcolor="#ffffff"] ;
72 -> 73 ;
74 [label=<DiabetesPedigreeFunction &le; 0.696<br/>squared_error = 0.25<br/>samples = 24<br/>value = 0.514>, fillcolor="#f2be99"] ;
72 -> 74 ;
75 [label=<Glucose &le; 143.0<br/>squared_error = 0.21<br/>samples = 13<br/>value = 0.3>, fillcolor="#f7d9c4"] ;
74 -> 75 ;
76 [label=<BloodPressure &le; 87.0<br/>squared_error = 0.145<br/>samples = 11<br/>value = 0.176>, fillcolor="#fae9dc"] ;
75 -> 76 ;
77 [label=<Insulin &le; 197.5<br/>squared_error = 0.062<br/>samples = 10<br/>value = 0.067>, fillcolor="#fdf7f2"] ;
76 -> 77 ;
78 [label=<squared_error = 0.0<br/>samples = 9<br/>value = 0.0>, fillcolor="#ffffff"] ;
77 -> 78 ;
79 [label=<squared_error = 0.0<br/>samples = 1<br/>value = 1.0>, fillcolor="#e58139"] ;
77 -> 79 ;
80 [label=<squared_error = 0.0<br/>samples = 1<br/>value = 1.0>, fillcolor="#e58139"] ;
76 -> 80 ;
81 [label=<squared_error = 0.0<br/>samples = 2<br/>value = 1.0>, fillcolor="#e58139"] ;
75 -> 81 ;
82 [label=<Age &le; 35.5<br/>squared_error = 0.16<br/>samples = 11<br/>value = 0.8>, fillcolor="#ea9a61"] ;
74 -> 82 ;
83 [label=<BMI &le; 45.05<br/>squared_error = 0.071<br/>samples = 10<br/>value = 0.923>, fillcolor="#e78b48"] ;
82 -> 83 ;
84 [label=<squared_error = 0.0<br/>samples = 9<br/>value = 1.0>, fillcolor="#e58139"] ;
83 -> 84 ;
85 [label=<squared_error = 0.0<br/>samples = 1<br/>value = 0.0>, fillcolor="#ffffff"] ;
83 -> 85 ;
86 [label=<squared_error = 0.0<br/>samples = 1<br/>value = 0.0>, fillcolor="#ffffff"] ;
82 -> 86 ;
87 [label=<Age &le; 59.0<br/>squared_error = 0.193<br/>samples = 23<br/>value = 0.262>, fillcolor="#f8decb"] ;
53 -> 87 ;
88 [label=<Glucose &le; 150.5<br/>squared_error = 0.15<br/>samples = 21<br/>value = 0.184>, fillcolor="#fae8db"] ;
87 -> 88 ;
89 [label=<BloodPressure &le; 83.5<br/>squared_error = 0.12<br/>samples = 20<br/>value = 0.139>, fillcolor="#fbeee4"] ;
88 -> 89 ;
90 [label=<DiabetesPedigreeFunction &le; 0.174<br/>squared_error = 0.038<br/>samples = 14<br/>value = 0.04>, fillcolor="#fefaf7"] ;
89 -> 90 ;
91 [label=<BloodPressure &le; 78.0<br/>squared_error = 0.16<br/>samples = 3<br/>value = 0.2>, fillcolor="#fae6d7"] ;
90 -> 91 ;
92 [label=<squared_error = 0.0<br/>samples = 2<br/>value = 0.0>, fillcolor="#ffffff"] ;
91 -> 92 ;
93 [label=<squared_error = 0.0<br/>samples = 1<br/>value = 1.0>, fillcolor="#e58139"] ;
91 -> 93 ;
94 [label=<squared_error = 0.0<br/>samples = 11<br/>value = 0.0>, fillcolor="#ffffff"] ;
90 -> 94 ;
95 [label=<DiabetesPedigreeFunction &le; 0.466<br/>squared_error = 0.231<br/>samples = 6<br/>value = 0.364>, fillcolor="#f6d1b7"] ;
89 -> 95 ;
96 [label=<Insulin &le; 124.0<br/>squared_error = 0.16<br/>samples = 3<br/>value = 0.8>, fillcolor="#ea9a61"] ;
95 -> 96 ;
97 [label=<squared_error = 0.0<br/>samples = 2<br/>value = 1.0>, fillcolor="#e58139"] ;
96 -> 97 ;
98 [label=<squared_error = 0.0<br/>samples = 1<br/>value = 0.0>, fillcolor="#ffffff"] ;
96 -> 98 ;
99 [label=<squared_error = 0.0<br/>samples = 3<br/>value = 0.0>, fillcolor="#ffffff"] ;
95 -> 99 ;
100 [label=<squared_error = 0.0<br/>samples = 1<br/>value = 1.0>, fillcolor="#e58139"] ;
88 -> 100 ;
101 [label=<squared_error = 0.0<br/>samples = 2<br/>value = 1.0>, fillcolor="#e58139"] ;
87 -> 101 ;
102 [label=<DiabetesPedigreeFunction &le; 0.3<br/>squared_error = 0.102<br/>samples = 42<br/>value = 0.116>, fillcolor="#fcf0e8"] ;
0 -> 102 [labeldistance=2.5, labelangle=-45, headlabel="False"] ;
103 [label=<Age &le; 40.5<br/>squared_error = 0.209<br/>samples = 17<br/>value = 0.296>, fillcolor="#f7dac4"] ;
102 -> 103 ;
104 [label=<Age &le; 33.0<br/>squared_error = 0.243<br/>samples = 7<br/>value = 0.583>, fillcolor="#f0b68c"] ;
103 -> 104 ;
105 [label=<Insulin &le; 190.0<br/>squared_error = 0.139<br/>samples = 4<br/>value = 0.167>, fillcolor="#fbeade"] ;
104 -> 105 ;
106 [label=<squared_error = 0.0<br/>samples = 3<br/>value = 0.0>, fillcolor="#ffffff"] ;
105 -> 106 ;
107 [label=<squared_error = 0.0<br/>samples = 1<br/>value = 1.0>, fillcolor="#e58139"] ;
105 -> 107 ;
108 [label=<squared_error = 0.0<br/>samples = 3<br/>value = 1.0>, fillcolor="#e58139"] ;
104 -> 108 ;
109 [label=<Age &le; 61.0<br/>squared_error = 0.062<br/>samples = 10<br/>value = 0.067>, fillcolor="#fdf7f2"] ;
103 -> 109 ;
110 [label=<squared_error = 0.0<br/>samples = 9<br/>value = 0.0>, fillcolor="#ffffff"] ;
109 -> 110 ;
111 [label=<squared_error = 0.0<br/>samples = 1<br/>value = 1.0>, fillcolor="#e58139"] ;
109 -> 111 ;
112 [label=<squared_error = 0.0<br/>samples = 25<br/>value = 0.0>, fillcolor="#ffffff"] ;
102 -> 112 ;
}