digraph Tree {
node [shape=box, style="filled, rounded", color="black", fontname="helvetica"] ;
edge [fontname="helvetica"] ;
0 [label=<Age &le; 28.5<br/>gini = 0.427<br/>samples = 324<br/>value = [157, 351]<br/>class = 0>, fillcolor="#92c9f1"] ;
1 [label=<Glucose &le; 138.5<br/>gini = 0.224<br/>samples = 157<br/>value = [33, 224]<br/>class = 0>, fillcolor="#56abe9"] ;
0 -> 1 [labeldistance=2.5, labelangle=45, headlabel="True"] ;
2 [label=<BloodPressure &le; 79.0<br/>gini = 0.131<br/>samples = 139<br/>value = [16, 212]<br/>class = 0>, fillcolor="#48a4e7"] ;
1 -> 2 ;
3 [label=<Insulin &le; 166.5<br/>gini = 0.074<br/>samples = 115<br/>value = [7, 176]<br/>class = 0>, fillcolor="#41a1e6"] ;
2 -> 3 ;
4 [label=<DiabetesPedigreeFunction &le; 0.279<br/>gini = 0.058<br/>samples = 103<br/>value = [5, 162]<br/>class = 0>, fillcolor="#3fa0e6"] ;
3 -> 4 ;
5 [label=<Age &le; 22.5<br/>gini = 0.105<br/>samples = 41<br/>value = [4, 68]<br/>class = 0>, fillcolor="#45a3e7"] ;
4 -> 5 ;
6 [label=<gini = 0.0<br/>samples = 17<br/>value = [0, 33]<br/>class = 0>, fillcolor="#399de5"] ;
5 -> 6 ;
7 [label=<Age &le; 23.5<br/>gini = 0.184<br/>samples = 24<br/>value = [4, 35]<br/>class = 0>, fillcolor="#50a8e8"] ;
5 -> 7 ;
8 [label=<Insulin &le; 18.5<br/>gini = 0.5<br/>samples = 2<br/>value = [2, 2]<br/>class = 1>, fillcolor="#ffffff"] ;
7 -> 8 ;
9 [label=<gini = 0.0<br/>samples = 1<br/>value = [2, 0]<br/>class = 1>, fillcolor="#e58139"] ;
8 -> 9 ;
10 [label=<gini = 0.0<br/>samples = 1<br/>value = [0, 2]<br/>class = 0>, fillcolor="#399de5"] ;
8 -> 10 ;
11 [label=<BloodPressure &le; 54.0<br/>gini = 0.108<br/>samples = 22<br/>value = [2, 33]<br/>class = 0>, fillcolor="#45a3e7"] ;
7 -> 11 ;
12 [label=<gini = 0.0<br/>samples = 1<br/>value = [1, 0]<br/>class = 1>, fillcolor="#e58139"] ;
11 -> 12 ;
13 [label=<BMI &le; 26.6<br/>gini = 0.057<br/>samples = 21<br/>value = [1, 33]<br/>class = 0>, fillcolor="#3fa0e6"] ;
11 -> 13 ;
14 [label=<Insulin &le; 110.0<br/>gini = 0.198<br/>samples = 6<br/>value = [1, 8]<br/>class = 0>, fillcolor="#52a9e8"] ;
13 -> 14 ;
15 [label=<gini = 0.0<br/>samples = 5<br/>value = [0, 8]<br/>class = 0>, fillcolor="#399de5"] ;
14 -> 15 ;
16 [label=<gini = 0.0<br/>samples = 1<br/>value = [1, 0]<br/>class = 1>, fillcolor="#e58139"] ;
14 -> 16 ;
17 [label=<gini = 0.0<br/>samples = 15<br/>value = [0, 25]<br/>class = 0>, fillcolor="#399de5"] ;
13 -> 17 ;
18 [label=<BMI &le; 33.4<br/>gini = 0.021<br/>samples = 62<br/>value = [1, 94]<br/>class = 0>, fillcolor="#3b9ee5"] ;
4 -> 18 ;
19 [label=<gini = 0.0<br/>samples = 41<br/>value = [0, 64]<br/>class = 0>, fillcolor="#399de5"] ;
18 -> 19 ;
20 [label=<Age &le; 22.5<br/>gini = 0.062<br/>samples = 21<br/>value = [1, 30]<br/>class = 0>, fillcolor="#40a0e6"] ;
18 -> 20 ;
21 [label=<Insulin &le; 65.0<br/>gini = 0.32<br/>samples = 5<br/>value = [1, 4]<br/>class = 0>, fillcolor="#6ab6ec"] ;
20 -> 21 ;
22 [label=<Glucose &le; 97.0<br/>gini = 0.5<br/>samples = 2<br/>value = [1, 1]<br/>class = 1>, fillcolor="#ffffff"] ;
21 -> 22 ;
23 [label=<gini = 0.0<br/>samples = 1<br/>value = [0, 1]<br/>class = 0>, fillcolor="#399de5"] ;
22 -> 23 ;
24 [label=<gini = 0.0<br/>samples = 1<br/>value = [1, 0]<br/>class = 1>, fillcolor="#e58139"] ;
22 -> 24 ;
25 [label=<gini = 0.0<br/>samples = 3<br/>value = [0, 3]<br/>class = 0>, fillcolor="#399de5"] ;
21 -> 25 ;
26 [label=<gini = 0.0<br/>samples = 16<br/>value = [0, 26]<br/>class = 0>, fillcolor="#399de5"] ;
20 -> 26 ;
27 [label=<BMI &le; 40.2<br/>gini = 0.219<br/>samples = 12<br/>value = [2, 14]<br/>class = 0>, fillcolor="#55abe9"] ;
3 -> 27 ;
28 [label=<BloodPressure &le; 55.0<br/>gini = 0.124<br/>samples = 11<br/>value = [1, 14]<br/>class = 0>, fillcolor="#47a4e7"] ;
27 -> 28 ;
29 [label=<gini = 0.0<br/>samples = 1<br/>value = [1, 0]<br/>class = 1>, fillcolor="#e58139"] ;
28 -> 29 ;
30 [label=<gini = 0.0<br/>samples = 10<br/>value = [0, 14]<br/>class = 0>, fillcolor="#399de5"] ;
28 -> 30 ;
31 [label=<gini = 0.0<br/>samples = 1<br/>value = [1, 0]<br/>class = 1>, fillcolor="#e58139"] ;
27 -> 31 ;
32 [label=<Glucose &le; 117.5<br/>gini = 0.32<br/>samples = 24<br/>value = [9, 36]<br/>class = 0>, fillcolor="#6ab6ec"] ;
2 -> 32 ;
33 [label=<BloodPressure &le; 83.0<br/>gini = 0.095<br/>samples = 13<br/>value = [1, 19]<br/>class = 0>, fillcolor="#43a2e6"] ;
32 -> 33 ;
34 [label=<gini = 0.0<br/>samples = 8<br/>value = [0, 14]<br/>class = 0>, fillcolor="#399de5"] ;
33 -> 34 ;
35 [label=<DiabetesPedigreeFunction &le; 0.135<br/>gini = 0.278<br/>samples = 5<br/>value = [1, 5]<br/>class = 0>, fillcolor="#61b1ea"] ;
33 -> 35 ;
36 [label=<gini = 0.0<br/>samples = 1<br/>value = [1, 0]<br/>class = 1>, fillcolor="#e58139"] ;
35 -> 36 ;
37 [label=<gini = 0.0<br/>samples = 4<br/>value = [0, 5]<br/>class = 0>, fillcolor="#399de5"] ;
35 -> 37 ;
38 [label=<DiabetesPedigreeFunction &le; 0.522<br/>gini = 0.435<br/>samples = 11<br/>value = [8, 17]<br/>class = 0>, fillcolor="#96cbf1"] ;
32 -> 38 ;
39 [label=<Age &le; 22.5<br/>gini = 0.133<br/>samples = 7<br/>value = [1, 13]<br/>class = 0>, fillcolor="#48a5e7"] ;
38 -> 39 ;
40 [label=<Glucose &le; 122.5<br/>gini = 0.444<br/>samples = 2<br/>value = [1, 2]<br/>class = 0>, fillcolor="#9ccef2"] ;
39 -> 40 ;
41 [label=<gini = 0.0<br/>samples = 1<br/>value = [1, 0]<br/>class = 1>, fillcolor="#e58139"] ;
40 -> 41 ;
42 [label=<gini = 0.0<br/>samples = 1<br/>value = [0, 2]<br/>class = 0>, fillcolor="#399de5"] ;
40 -> 42 ;
43 [label=<gini = 0.0<br/>samples = 5<br/>value = [0, 11]<br/>class = 0>, fillcolor="#399de5"] ;
39 -> 43 ;
44 [label=<Insulin &le; 77.5<br/>gini = 0.463<br/>samples = 4<br/>value = [7, 4]<br/>class = 1>, fillcolor="#f4c9aa"] ;
38 -> 44 ;
45 [label=<gini = 0.0<br/>samples = 2<br/>value = [7, 0]<br/>class = 1>, fillcolor="#e58139"] ;
44 -> 45 ;
46 [label=<gini = 0.0<br/>samples = 2<br/>value = [0, 4]<br/>class = 0>, fillcolor="#399de5"] ;
44 -> 46 ;
47 [label=<Glucose &le; 156.0<br/>gini = 0.485<br/>samples = 18<br/>value = [17, 12]<br/>class = 1>, fillcolor="#f7dac5"] ;
1 -> 47 ;
48 [label=<Glucose &le; 140.5<br/>gini = 0.496<br/>samples = 14<br/>value = [10, 12]<br/>class = 0>, fillcolor="#deeffb"] ;
47 -> 48 ;
49 [label=<gini = 0.0<br/>samples = 2<br/>value = [4, 0]<br/>class = 1>, fillcolor="#e58139"] ;
48 -> 49 ;
50 [label=<BloodPressure &le; 85.5<br/>gini = 0.444<br/>samples = 12<br/>value = [6, 12]<br/>class = 0>, fillcolor="#9ccef2"] ;
48 -> 50 ;
51 [label=<DiabetesPedigreeFunction &le; 0.496<br/>gini = 0.32<br/>samples = 9<br/>value = [3, 12]<br/>class = 0>, fillcolor="#6ab6ec"] ;
50 -> 51 ;
52 [label=<BloodPressure &le; 60.0<br/>gini = 0.49<br/>samples = 4<br/>value = [3, 4]<br/>class = 0>, fillcolor="#cee6f8"] ;
51 -> 52 ;
53 [label=<gini = 0.0<br/>samples = 1<br/>value = [3, 0]<br/>class = 1>, fillcolor="#e58139"] ;
52 -> 53 ;
54 [label=<gini = 0.0<br/>samples = 3<br/>value = [0, 4]<br/>class = 0>, fillcolor="#399de5"] ;
52 -> 54 ;
55 [label=<gini = 0.0<br/>samples = 5<br/>value = [0, 8]<br/>class = 0>, fillcolor="#399de5"] ;
51 -> 55 ;
56 [label=<gini = 0.0<br/>samples = 3<br/>value = [3, 0]<br/>class = 1>, fillcolor="#e58139"] ;
50 -> 56 ;
57 [label=<gini = 0.0<br/>samples = 4<br/>value = [7, 0]<br/>class = 1>, fillcolor="#e58139"] ;
47 -> 57 ;
58 [label=<BMI &le; 26.75<br/>gini = 0.5<br/>samples = 167<br/>value = [124, 127]<br/>class = 0>, fillcolor="#fafdfe"] ;
0 -> 58 [labeldistance=2.5, labelangle=-45, headlabel="False"] ;
59 [label=<BMI &le; 25.25<br/>gini = 0.21<br/>samples = 28<br/>value = [5, 37]<br/>class = 0>, fillcolor="#54aae9"] ;
58 -> 59 ;
60 [label=<Glucose &le; 158.5<br/>gini = 0.124<br/>samples = 19<br/>value = [2, 28]<br/>class = 0>, fillcolor="#47a4e7"] ;
59 -> 60 ;
61 [label=<gini = 0.0<br/>samples = 18<br/>value = [0, 28]<br/>class = 0>, fillcolor="#399de5"] ;
60 -> 61 ;
62 [label=<gini = 0.0<br/>samples = 1<br/>value = [2, 0]<br/>class = 1>, fillcolor="#e58139"] ;
60 -> 62 ;
63 [label=<Insulin &le; 103.5<br/>gini = 0.375<br/>samples = 9<br/>value = [3, 9]<br/>class = 0>, fillcolor="#7bbeee"] ;
59 -> 63 ;
64 [label=<gini = 0.0<br/>samples = 6<br/>value = [0, 8]<br/>class = 0>, fillcolor="#399de5"] ;
63 -> 64 ;
65 [label=<Glucose &le; 142.5<br/>gini = 0.375<br/>samples = 3<br/>value = [3, 1]<br/>class = 1>, fillcolor="#eeab7b"] ;
63 -> 65 ;
66 [label=<gini = 0.0<br/>samples = 1<br/>value = [0, 1]<br/>class = 0>, fillcolor="#399de5"] ;
65 -> 66 ;
67 [label=<gini = 0.0<br/>samples = 2<br/>value = [3, 0]<br/>class = 1>, fillcolor="#e58139"] ;
65 -> 67 ;
68 [label=<Glucose &le; 111.5<br/>gini = 0.49<br/>samples = 139<br/>value = [119, 90]<br/>class = 1>, fillcolor="#f9e0cf"] ;
58 -> 68 ;
69 [label=<BloodPressure &le; 61.0<br/>gini = 0.425<br/>samples = 53<br/>value = [23, 52]<br/>class = 0>, fillcolor="#91c8f0"] ;
68 -> 69 ;
70 [label=<gini = 0.0<br/>samples = 4<br/>value = [0, 10]<br/>class = 0>, fillcolor="#399de5"] ;
69 -> 70 ;
71 [label=<DiabetesPedigreeFunction &le; 0.595<br/>gini = 0.457<br/>samples = 49<br/>value = [23, 42]<br/>class = 0>, fillcolor="#a5d3f3"] ;
69 -> 71 ;
72 [label=<DiabetesPedigreeFunction &le; 0.411<br/>gini = 0.387<br/>samples = 33<br/>value = [11, 31]<br/>class = 0>, fillcolor="#7fc0ee"] ;
71 -> 72 ;
73 [label=<Age &le; 50.0<br/>gini = 0.418<br/>samples = 28<br/>value = [11, 26]<br/>class = 0>, fillcolor="#8dc6f0"] ;
72 -> 73 ;
74 [label=<BloodPressure &le; 67.0<br/>gini = 0.382<br/>samples = 26<br/>value = [9, 26]<br/>class = 0>, fillcolor="#7ebfee"] ;
73 -> 74 ;
75 [label=<Pregnancies &le; 3.0<br/>gini = 0.32<br/>samples = 4<br/>value = [4, 1]<br/>class = 1>, fillcolor="#eca06a"] ;
74 -> 75 ;
76 [label=<gini = 0.0<br/>samples = 1<br/>value = [0, 1]<br/>class = 0>, fillcolor="#399de5"] ;
75 -> 76 ;
77 [label=<gini = 0.0<br/>samples = 3<br/>value = [4, 0]<br/>class = 1>, fillcolor="#e58139"] ;
75 -> 77 ;
78 [label=<Pregnancies &le; 1.5<br/>gini = 0.278<br/>samples = 22<br/>value = [5, 25]<br/>class = 0>, fillcolor="#61b1ea"] ;
74 -> 78 ;
79 [label=<BMI &le; 33.9<br/>gini = 0.494<br/>samples = 5<br/>value = [4, 5]<br/>class = 0>, fillcolor="#d7ebfa"] ;
78 -> 79 ;
80 [label=<gini = 0.0<br/>samples = 2<br/>value = [0, 3]<br/>class = 0>, fillcolor="#399de5"] ;
79 -> 80 ;
81 [label=<DiabetesPedigreeFunction &le; 0.214<br/>gini = 0.444<br/>samples = 3<br/>value = [4, 2]<br/>class = 1>, fillcolor="#f2c09c"] ;
79 -> 81 ;
82 [label=<gini = 0.0<br/>samples = 1<br/>value = [0, 2]<br/>class = 0>, fillcolor="#399de5"] ;
81 -> 82 ;
83 [label=<gini = 0.0<br/>samples = 2<br/>value = [4, 0]<br/>class = 1>, fillcolor="#e58139"] ;
81 -> 83 ;
84 [label=<Age &le; 36.5<br/>gini = 0.091<br/>samples = 17<br/>value = [1, 20]<br/>class = 0>, fillcolor="#43a2e6"] ;
78 -> 84 ;
85 [label=<Glucose &le; 100.5<br/>gini = 0.219<br/>samples = 6<br/>value = [1, 7]<br/>class = 0>, fillcolor="#55abe9"] ;
84 -> 85 ;
86 [label=<gini = 0.0<br/>samples = 4<br/>value = [0, 5]<br/>class = 0>, fillcolor="#399de5"] ;
85 -> 86 ;
87 [label=<DiabetesPedigreeFunction &le; 0.222<br/>gini = 0.444<br/>samples = 2<br/>value = [1, 2]<br/>class = 0>, fillcolor="#9ccef2"] ;
85 -> 87 ;
88 [label=<gini = 0.0<br/>samples = 1<br/>value = [1, 0]<br/>class = 1>, fillcolor="#e58139"] ;
87 -> 88 ;
89 [label=<gini = 0.0<br/>samples = 1<br/>value = [0, 2]<br/>class = 0>, fillcolor="#399de5"] ;
87 -> 89 ;
90 [label=<gini = 0.0<br/>samples = 11<br/>value = [0, 13]<br/>class = 0>, fillcolor="#399de5"] ;
84 -> 90 ;
91 [label=<gini = 0.0<br/>samples = 2<br/>value = [2, 0]<br/>class = 1>, fillcolor="#e58139"] ;
73 -> 91 ;
92 [label=<gini = 0.0<br/>samples = 5<br/>value = [0, 5]<br/>class = 0>, fillcolor="#399de5"] ;
72 -> 92 ;
93 [label=<Insulin &le; 112.0<br/>gini = 0.499<br/>samples = 16<br/>value = [12, 11]<br/>class = 1>, fillcolor="#fdf5ef"] ;
71 -> 93 ;
94 [label=<BMI &le; 41.1<br/>gini = 0.475<br/>samples = 13<br/>value = [7, 11]<br/>class = 0>, fillcolor="#b7dbf6"] ;
93 -> 94 ;
95 [label=<DiabetesPedigreeFunction &le; 0.796<br/>gini = 0.463<br/>samples = 8<br/>value = [7, 4]<br/>class = 1>, fillcolor="#f4c9aa"] ;
94 -> 95 ;
96 [label=<gini = 0.0<br/>samples = 3<br/>value = [0, 4]<br/>class = 0>, fillcolor="#399de5"] ;
95 -> 96 ;
97 [label=<gini = 0.0<br/>samples = 5<br/>value = [7, 0]<br/>class = 1>, fillcolor="#e58139"] ;
95 -> 97 ;
98 [label=<gini = 0.0<br/>samples = 5<br/>value = [0, 7]<br/>class = 0>, fillcolor="#399de5"] ;
94 -> 98 ;
99 [label=<gini = 0.0<br/>samples = 3<br/>value = [5, 0]<br/>class = 1>, fillcolor="#e58139"] ;
93 -> 99 ;
100 [label=<Age &le; 58.5<br/>gini = 0.406<br/>samples = 86<br/>value = [96, 38]<br/>class = 1>, fillcolor="#efb387"] ;
68 -> 100 ;
101 [label=<Glucose &le; 160.0<br/>gini = 0.383<br/>samples = 81<br/>value = [95, 33]<br/>class = 1>, fillcolor="#eead7e"] ;
100 -> 101 ;
102 [label=<Age &le; 41.5<br/>gini = 0.442<br/>samples = 58<br/>value = [63.0, 31.0]<br/>class = 1>, fillcolor="#f2bf9a"] ;
101 -> 102 ;
103 [label=<BMI &le; 30.2<br/>gini = 0.487<br/>samples = 42<br/>value = [40, 29]<br/>class = 1>, fillcolor="#f8dcc9"] ;
102 -> 103 ;
104 [label=<Pregnancies &le; 0.5<br/>gini = 0.397<br/>samples = 7<br/>value = [3, 8]<br/>class = 0>, fillcolor="#83c2ef"] ;
103 -> 104 ;
105 [label=<gini = 0.0<br/>samples = 1<br/>value = [1, 0]<br/>class = 1>, fillcolor="#e58139"] ;
104 -> 105 ;
106 [label=<Age &le; 31.0<br/>gini = 0.32<br/>samples = 6<br/>value = [2, 8]<br/>class = 0>, fillcolor="#6ab6ec"] ;
104 -> 106 ;
107 [label=<BloodPressure &le; 59.0<br/>gini = 0.444<br/>samples = 2<br/>value = [2, 1]<br/>class = 1>, fillcolor="#f2c09c"] ;
106 -> 107 ;
108 [label=<gini = 0.0<br/>samples = 1<br/>value = [0, 1]<br/>class = 0>, fillcolor="#399de5"] ;
107 -> 108 ;
109 [label=<gini = 0.0<br/>samples = 1<br/>value = [2, 0]<br/>class = 1>, fillcolor="#e58139"] ;
107 -> 109 ;
110 [label=<gini = 0.0<br/>samples = 4<br/>value = [0, 7]<br/>class = 0>, fillcolor="#399de5"] ;
106 -> 110 ;
111 [label=<Pregnancies &le; 10.5<br/>gini = 0.462<br/>samples = 35<br/>value = [37, 21]<br/>class = 1>, fillcolor="#f4c9a9"] ;
103 -> 111 ;
112 [label=<BloodPressure &le; 67.0<br/>gini = 0.44<br/>samples = 33<br/>value = [37, 18]<br/>class = 1>, fillcolor="#f2be99"] ;
111 -> 112 ;
113 [label=<gini = 0.0<br/>samples = 8<br/>value = [13, 0]<br/>class = 1>, fillcolor="#e58139"] ;
112 -> 113 ;
114 [label=<DiabetesPedigreeFunction &le; 0.484<br/>gini = 0.49<br/>samples = 25<br/>value = [24, 18]<br/>class = 1>, fillcolor="#f8e0ce"] ;
112 -> 114 ;
115 [label=<Glucose &le; 155.0<br/>gini = 0.48<br/>samples = 15<br/>value = [10, 15]<br/>class = 0>, fillcolor="#bddef6"] ;
114 -> 115 ;
116 [label=<Glucose &le; 135.0<br/>gini = 0.408<br/>samples = 13<br/>value = [6, 15]<br/>class = 0>, fillcolor="#88c4ef"] ;
115 -> 116 ;
117 [label=<Glucose &le; 123.5<br/>gini = 0.496<br/>samples = 8<br/>value = [6, 5]<br/>class = 1>, fillcolor="#fbeade"] ;
116 -> 117 ;
118 [label=<Pregnancies &le; 7.0<br/>gini = 0.278<br/>samples = 5<br/>value = [1, 5]<br/>class = 0>, fillcolor="#61b1ea"] ;
117 -> 118 ;
119 [label=<gini = 0.0<br/>samples = 4<br/>value = [0, 5]<br/>class = 0>, fillcolor="#399de5"] ;
118 -> 119 ;
120 [label=<gini = 0.0<br/>samples = 1<br/>value = [1, 0]<br/>class = 1>, fillcolor="#e58139"] ;
118 -> 120 ;
121 [label=<gini = 0.0<br/>samples = 3<br/>value = [5, 0]<br/>class = 1>, fillcolor="#e58139"] ;
117 -> 121 ;
122 [label=<gini = 0.0<br/>samples = 5<br/>value = [0, 10]<br/>class = 0>, fillcolor="#399de5"] ;
116 -> 122 ;
123 [label=<gini = 0.0<br/>samples = 2<br/>value = [4, 0]<br/>class = 1>, fillcolor="#e58139"] ;
115 -> 123 ;
124 [label=<Pregnancies &le; 0.5<br/>gini = 0.291<br/>samples = 10<br/>value = [14, 3]<br/>class = 1>, fillcolor="#eb9c63"] ;
114 -> 124 ;
125 [label=<gini = 0.0<br/>samples = 1<br/>value = [0, 2]<br/>class = 0>, fillcolor="#399de5"] ;
124 -> 125 ;
126 [label=<Insulin &le; 48.0<br/>gini = 0.124<br/>samples = 9<br/>value = [14, 1]<br/>class = 1>, fillcolor="#e78a47"] ;
124 -> 126 ;
127 [label=<Pregnancies &le; 6.0<br/>gini = 0.32<br/>samples = 3<br/>value = [4, 1]<br/>class = 1>, fillcolor="#eca06a"] ;
126 -> 127 ;
128 [label=<gini = 0.0<br/>samples = 2<br/>value = [4, 0]<br/>class = 1>, fillcolor="#e58139"] ;
127 -> 128 ;
129 [label=<gini = 0.0<br/>samples = 1<br/>value = [0, 1]<br/>class = 0>, fillcolor="#399de5"] ;
127 -> 129 ;
130 [label=<gini = 0.0<br/>samples = 6<br/>value = [10, 0]<br/>class = 1>, fillcolor="#e58139"] ;
126 -> 130 ;
131 [label=<gini = 0.0<br/>samples = 2<br/>value = [0, 3]<br/>class = 0>, fillcolor="#399de5"] ;
111 -> 131 ;
132 [label=<BMI &le; 42.1<br/>gini = 0.147<br/>samples = 16<br/>value = [23, 2]<br/>class = 1>, fillcolor="#e78c4a"] ;
102 -> 132 ;
133 [label=<DiabetesPedigreeFunction &le; 0.52<br/>gini = 0.08<br/>samples = 15<br/>value = [23, 1]<br/>class = 1>, fillcolor="#e68642"] ;
132 -> 133 ;
134 [label=<BMI &le; 27.95<br/>gini = 0.219<br/>samples = 7<br/>value = [7, 1]<br/>class = 1>, fillcolor="#e99355"] ;
133 -> 134 ;
135 [label=<gini = 0.0<br/>samples = 1<br/>value = [0, 1]<br/>class = 0>, fillcolor="#399de5"] ;
134 -> 135 ;
136 [label=<gini = 0.0<br/>samples = 6<br/>value = [7, 0]<br/>class = 1>, fillcolor="#e58139"] ;
134 -> 136 ;
137 [label=<gini = 0.0<br/>samples = 8<br/>value = [16, 0]<br/>class = 1>, fillcolor="#e58139"] ;
133 -> 137 ;
138 [label=<gini = 0.0<br/>samples = 1<br/>value = [0, 1]<br/>class = 0>, fillcolor="#399de5"] ;
132 -> 138 ;
139 [label=<Insulin &le; 248.0<br/>gini = 0.111<br/>samples = 23<br/>value = [32, 2]<br/>class = 1>, fillcolor="#e78945"] ;
101 -> 139 ;
140 [label=<Glucose &le; 190.0<br/>gini = 0.064<br/>samples = 19<br/>value = [29, 1]<br/>class = 1>, fillcolor="#e68540"] ;
139 -> 140 ;
141 [label=<gini = 0.0<br/>samples = 16<br/>value = [26, 0]<br/>class = 1>, fillcolor="#e58139"] ;
140 -> 141 ;
142 [label=<Insulin &le; 65.0<br/>gini = 0.375<br/>samples = 3<br/>value = [3, 1]<br/>class = 1>, fillcolor="#eeab7b"] ;
140 -> 142 ;
143 [label=<gini = 0.0<br/>samples = 2<br/>value = [3, 0]<br/>class = 1>, fillcolor="#e58139"] ;
142 -> 143 ;
144 [label=<gini = 0.0<br/>samples = 1<br/>value = [0, 1]<br/>class = 0>, fillcolor="#399de5"] ;
142 -> 144 ;
145 [label=<BMI &le; 42.35<br/>gini = 0.375<br/>samples = 4<br/>value = [3, 1]<br/>class = 1>, fillcolor="#eeab7b"] ;
139 -> 145 ;
146 [label=<gini = 0.0<br/>samples = 3<br/>value = [3, 0]<br/>class = 1>, fillcolor="#e58139"] ;
145 -> 146 ;
147 [label=<gini = 0.0<br/>samples = 1<br/>value = [0, 1]<br/>class = 0>, fillcolor="#399de5"] ;
145 -> 147 ;
148 [label=<BMI &le; 32.45<br/>gini = 0.278<br/>samples = 5<br/>value = [1, 5]<br/>class = 0>, fillcolor="#61b1ea"] ;
100 -> 148 ;
149 [label=<Pregnancies &le; 2.0<br/>gini = 0.444<br/>samples = 3<br/>value = [1, 2]<br/>class = 0>, fillcolor="#9ccef2"] ;
148 -> 149 ;
150 [label=<gini = 0.0<br/>samples = 1<br/>value = [0, 1]<br/>class = 0>, fillcolor="#399de5"] ;
149 -> 150 ;
151 [label=<Glucose &le; 139.0<br/>gini = 0.5<br/>samples = 2<br/>value = [1, 1]<br/>class = 1>, fillcolor="#ffffff"] ;
149 -> 151 ;
152 [label=<gini = 0.0<br/>samples = 1<br/>value = [0, 1]<br/>class = 0>, fillcolor="#399de5"] ;
151 -> 152 ;
153 [label=<gini = 0.0<br/>samples = 1<br/>value = [1, 0]<br/>class = 1>, fillcolor="#e58139"] ;
151 -> 153 ;
154 [label=<gini = 0.0<br/>samples = 2<br/>value = [0, 3]<br/>class = 0>, fillcolor="#399de5"] ;
148 -> 154 ;
}