digraph Tree {
node [shape=box, style="filled, rounded", color="black", fontname="helvetica"] ;
edge [fontname="helvetica"] ;
0 [label=<Age &le; 28.5<br/>gini = 0.447<br/>samples = 315<br/>value = [171, 337]<br/>class = 0>, fillcolor="#9dcff2"] ;
1 [label=<BMI &le; 41.8<br/>gini = 0.238<br/>samples = 152<br/>value = [35, 219]<br/>class = 0>, fillcolor="#59ade9"] ;
0 -> 1 [labeldistance=2.5, labelangle=45, headlabel="True"] ;
2 [label=<BloodPressure &le; 53.0<br/>gini = 0.169<br/>samples = 135<br/>value = [21, 205]<br/>class = 0>, fillcolor="#4da7e8"] ;
1 -> 2 ;
3 [label=<Age &le; 23.0<br/>gini = 0.459<br/>samples = 9<br/>value = [5, 9]<br/>class = 0>, fillcolor="#a7d3f3"] ;
2 -> 3 ;
4 [label=<gini = 0.0<br/>samples = 4<br/>value = [0, 6]<br/>class = 0>, fillcolor="#399de5"] ;
3 -> 4 ;
5 [label=<Pregnancies &le; 4.0<br/>gini = 0.469<br/>samples = 5<br/>value = [5, 3]<br/>class = 1>, fillcolor="#f5cdb0"] ;
3 -> 5 ;
6 [label=<BloodPressure &le; 47.0<br/>gini = 0.408<br/>samples = 4<br/>value = [5, 2]<br/>class = 1>, fillcolor="#efb388"] ;
5 -> 6 ;
7 [label=<gini = 0.0<br/>samples = 2<br/>value = [0, 2]<br/>class = 0>, fillcolor="#399de5"] ;
6 -> 7 ;
8 [label=<gini = 0.0<br/>samples = 2<br/>value = [5, 0]<br/>class = 1>, fillcolor="#e58139"] ;
6 -> 8 ;
9 [label=<gini = 0.0<br/>samples = 1<br/>value = [0, 1]<br/>class = 0>, fillcolor="#399de5"] ;
5 -> 9 ;
10 [label=<DiabetesPedigreeFunction &le; 0.419<br/>gini = 0.14<br/>samples = 126<br/>value = [16, 196]<br/>class = 0>, fillcolor="#49a5e7"] ;
2 -> 10 ;
11 [label=<Glucose &le; 173.5<br/>gini = 0.062<br/>samples = 72<br/>value = [4, 120]<br/>class = 0>, fillcolor="#40a0e6"] ;
10 -> 11 ;
12 [label=<Glucose &le; 112.5<br/>gini = 0.048<br/>samples = 71<br/>value = [3, 120]<br/>class = 0>, fillcolor="#3e9fe6"] ;
11 -> 12 ;
13 [label=<gini = 0.0<br/>samples = 46<br/>value = [0, 79]<br/>class = 0>, fillcolor="#399de5"] ;
12 -> 13 ;
14 [label=<Pregnancies &le; 6.5<br/>gini = 0.127<br/>samples = 25<br/>value = [3, 41]<br/>class = 0>, fillcolor="#47a4e7"] ;
12 -> 14 ;
15 [label=<DiabetesPedigreeFunction &le; 0.212<br/>gini = 0.089<br/>samples = 24<br/>value = [2, 41]<br/>class = 0>, fillcolor="#43a2e6"] ;
14 -> 15 ;
16 [label=<gini = 0.0<br/>samples = 7<br/>value = [0, 16]<br/>class = 0>, fillcolor="#399de5"] ;
15 -> 16 ;
17 [label=<Age &le; 22.5<br/>gini = 0.137<br/>samples = 17<br/>value = [2, 25]<br/>class = 0>, fillcolor="#49a5e7"] ;
15 -> 17 ;
18 [label=<gini = 0.0<br/>samples = 8<br/>value = [0, 12]<br/>class = 0>, fillcolor="#399de5"] ;
17 -> 18 ;
19 [label=<DiabetesPedigreeFunction &le; 0.225<br/>gini = 0.231<br/>samples = 9<br/>value = [2, 13]<br/>class = 0>, fillcolor="#57ace9"] ;
17 -> 19 ;
20 [label=<gini = 0.0<br/>samples = 1<br/>value = [1, 0]<br/>class = 1>, fillcolor="#e58139"] ;
19 -> 20 ;
21 [label=<DiabetesPedigreeFunction &le; 0.273<br/>gini = 0.133<br/>samples = 8<br/>value = [1, 13]<br/>class = 0>, fillcolor="#48a5e7"] ;
19 -> 21 ;
22 [label=<gini = 0.0<br/>samples = 6<br/>value = [0, 12]<br/>class = 0>, fillcolor="#399de5"] ;
21 -> 22 ;
23 [label=<Pregnancies &le; 2.0<br/>gini = 0.5<br/>samples = 2<br/>value = [1, 1]<br/>class = 1>, fillcolor="#ffffff"] ;
21 -> 23 ;
24 [label=<gini = 0.0<br/>samples = 1<br/>value = [1, 0]<br/>class = 1>, fillcolor="#e58139"] ;
23 -> 24 ;
25 [label=<gini = 0.0<br/>samples = 1<br/>value = [0, 1]<br/>class = 0>, fillcolor="#399de5"] ;
23 -> 25 ;
26 [label=<gini = 0.0<br/>samples = 1<br/>value = [1, 0]<br/>class = 1>, fillcolor="#e58139"] ;
14 -> 26 ;
27 [label=<gini = 0.0<br/>samples = 1<br/>value = [1, 0]<br/>class = 1>, fillcolor="#e58139"] ;
11 -> 27 ;
28 [label=<Insulin &le; 130.0<br/>gini = 0.236<br/>samples = 54<br/>value = [12, 76]<br/>class = 0>, fillcolor="#58ace9"] ;
10 -> 28 ;
29 [label=<Glucose &le; 103.5<br/>gini = 0.128<br/>samples = 38<br/>value = [4, 54]<br/>class = 0>, fillcolor="#48a4e7"] ;
28 -> 29 ;
30 [label=<gini = 0.0<br/>samples = 22<br/>value = [0, 32]<br/>class = 0>, fillcolor="#399de5"] ;
29 -> 30 ;
31 [label=<DiabetesPedigreeFunction &le; 0.562<br/>gini = 0.26<br/>samples = 16<br/>value = [4, 22]<br/>class = 0>, fillcolor="#5dafea"] ;
29 -> 31 ;
32 [label=<Insulin &le; 84.5<br/>gini = 0.494<br/>samples = 7<br/>value = [4, 5]<br/>class = 0>, fillcolor="#d7ebfa"] ;
31 -> 32 ;
33 [label=<Age &le; 25.0<br/>gini = 0.444<br/>samples = 5<br/>value = [4, 2]<br/>class = 1>, fillcolor="#f2c09c"] ;
32 -> 33 ;
34 [label=<Insulin &le; 32.0<br/>gini = 0.32<br/>samples = 4<br/>value = [4, 1]<br/>class = 1>, fillcolor="#eca06a"] ;
33 -> 34 ;
35 [label=<BMI &le; 34.7<br/>gini = 0.444<br/>samples = 3<br/>value = [2, 1]<br/>class = 1>, fillcolor="#f2c09c"] ;
34 -> 35 ;
36 [label=<gini = 0.0<br/>samples = 2<br/>value = [2, 0]<br/>class = 1>, fillcolor="#e58139"] ;
35 -> 36 ;
37 [label=<gini = 0.0<br/>samples = 1<br/>value = [0, 1]<br/>class = 0>, fillcolor="#399de5"] ;
35 -> 37 ;
38 [label=<gini = 0.0<br/>samples = 1<br/>value = [2, 0]<br/>class = 1>, fillcolor="#e58139"] ;
34 -> 38 ;
39 [label=<gini = 0.0<br/>samples = 1<br/>value = [0, 1]<br/>class = 0>, fillcolor="#399de5"] ;
33 -> 39 ;
40 [label=<gini = 0.0<br/>samples = 2<br/>value = [0, 3]<br/>class = 0>, fillcolor="#399de5"] ;
32 -> 40 ;
41 [label=<gini = 0.0<br/>samples = 9<br/>value = [0, 17]<br/>class = 0>, fillcolor="#399de5"] ;
31 -> 41 ;
42 [label=<Pregnancies &le; 1.5<br/>gini = 0.391<br/>samples = 16<br/>value = [8, 22]<br/>class = 0>, fillcolor="#81c1ee"] ;
28 -> 42 ;
43 [label=<BMI &le; 31.35<br/>gini = 0.142<br/>samples = 8<br/>value = [1, 12]<br/>class = 0>, fillcolor="#49a5e7"] ;
42 -> 43 ;
44 [label=<gini = 0.0<br/>samples = 5<br/>value = [0, 10]<br/>class = 0>, fillcolor="#399de5"] ;
43 -> 44 ;
45 [label=<BloodPressure &le; 81.0<br/>gini = 0.444<br/>samples = 3<br/>value = [1, 2]<br/>class = 0>, fillcolor="#9ccef2"] ;
43 -> 45 ;
46 [label=<gini = 0.0<br/>samples = 2<br/>value = [0, 2]<br/>class = 0>, fillcolor="#399de5"] ;
45 -> 46 ;
47 [label=<gini = 0.0<br/>samples = 1<br/>value = [1, 0]<br/>class = 1>, fillcolor="#e58139"] ;
45 -> 47 ;
48 [label=<Glucose &le; 127.5<br/>gini = 0.484<br/>samples = 8<br/>value = [7, 10]<br/>class = 0>, fillcolor="#c4e2f7"] ;
42 -> 48 ;
49 [label=<BMI &le; 36.25<br/>gini = 0.165<br/>samples = 6<br/>value = [1, 10]<br/>class = 0>, fillcolor="#4da7e8"] ;
48 -> 49 ;
50 [label=<gini = 0.0<br/>samples = 4<br/>value = [0, 9]<br/>class = 0>, fillcolor="#399de5"] ;
49 -> 50 ;
51 [label=<BloodPressure &le; 76.0<br/>gini = 0.5<br/>samples = 2<br/>value = [1, 1]<br/>class = 1>, fillcolor="#ffffff"] ;
49 -> 51 ;
52 [label=<gini = 0.0<br/>samples = 1<br/>value = [1, 0]<br/>class = 1>, fillcolor="#e58139"] ;
51 -> 52 ;
53 [label=<gini = 0.0<br/>samples = 1<br/>value = [0, 1]<br/>class = 0>, fillcolor="#399de5"] ;
51 -> 53 ;
54 [label=<gini = 0.0<br/>samples = 2<br/>value = [6, 0]<br/>class = 1>, fillcolor="#e58139"] ;
48 -> 54 ;
55 [label=<Age &le; 23.5<br/>gini = 0.5<br/>samples = 17<br/>value = [14, 14]<br/>class = 1>, fillcolor="#ffffff"] ;
1 -> 55 ;
56 [label=<BloodPressure &le; 79.0<br/>gini = 0.346<br/>samples = 5<br/>value = [7, 2]<br/>class = 1>, fillcolor="#eca572"] ;
55 -> 56 ;
57 [label=<gini = 0.0<br/>samples = 1<br/>value = [0, 2]<br/>class = 0>, fillcolor="#399de5"] ;
56 -> 57 ;
58 [label=<gini = 0.0<br/>samples = 4<br/>value = [7, 0]<br/>class = 1>, fillcolor="#e58139"] ;
56 -> 58 ;
59 [label=<Glucose &le; 131.5<br/>gini = 0.465<br/>samples = 12<br/>value = [7, 12]<br/>class = 0>, fillcolor="#acd6f4"] ;
55 -> 59 ;
60 [label=<gini = 0.0<br/>samples = 4<br/>value = [0, 8]<br/>class = 0>, fillcolor="#399de5"] ;
59 -> 60 ;
61 [label=<Pregnancies &le; 5.0<br/>gini = 0.463<br/>samples = 8<br/>value = [7, 4]<br/>class = 1>, fillcolor="#f4c9aa"] ;
59 -> 61 ;
62 [label=<DiabetesPedigreeFunction &le; 0.309<br/>gini = 0.346<br/>samples = 7<br/>value = [7, 2]<br/>class = 1>, fillcolor="#eca572"] ;
61 -> 62 ;
63 [label=<gini = 0.0<br/>samples = 1<br/>value = [0, 1]<br/>class = 0>, fillcolor="#399de5"] ;
62 -> 63 ;
64 [label=<Pregnancies &le; 0.5<br/>gini = 0.219<br/>samples = 6<br/>value = [7, 1]<br/>class = 1>, fillcolor="#e99355"] ;
62 -> 64 ;
65 [label=<Glucose &le; 143.5<br/>gini = 0.444<br/>samples = 3<br/>value = [2, 1]<br/>class = 1>, fillcolor="#f2c09c"] ;
64 -> 65 ;
66 [label=<gini = 0.0<br/>samples = 1<br/>value = [1, 0]<br/>class = 1>, fillcolor="#e58139"] ;
65 -> 66 ;
67 [label=<BMI &le; 46.2<br/>gini = 0.5<br/>samples = 2<br/>value = [1, 1]<br/>class = 1>, fillcolor="#ffffff"] ;
65 -> 67 ;
68 [label=<gini = 0.0<br/>samples = 1<br/>value = [0, 1]<br/>class = 0>, fillcolor="#399de5"] ;
67 -> 68 ;
69 [label=<gini = 0.0<br/>samples = 1<br/>value = [1, 0]<br/>class = 1>, fillcolor="#e58139"] ;
67 -> 69 ;
70 [label=<gini = 0.0<br/>samples = 3<br/>value = [5, 0]<br/>class = 1>, fillcolor="#e58139"] ;
64 -> 70 ;
71 [label=<gini = 0.0<br/>samples = 1<br/>value = [0, 2]<br/>class = 0>, fillcolor="#399de5"] ;
61 -> 71 ;
72 [label=<Age &le; 39.5<br/>gini = 0.497<br/>samples = 163<br/>value = [136, 118]<br/>class = 1>, fillcolor="#fceee5"] ;
0 -> 72 [labeldistance=2.5, labelangle=-45, headlabel="False"] ;
73 [label=<BloodPressure &le; 87.0<br/>gini = 0.49<br/>samples = 80<br/>value = [55, 73]<br/>class = 0>, fillcolor="#cee7f9"] ;
72 -> 73 ;
74 [label=<Glucose &le; 93.5<br/>gini = 0.498<br/>samples = 74<br/>value = [53, 61]<br/>class = 0>, fillcolor="#e5f2fc"] ;
73 -> 74 ;
75 [label=<gini = 0.0<br/>samples = 12<br/>value = [0, 19]<br/>class = 0>, fillcolor="#399de5"] ;
74 -> 75 ;
76 [label=<Age &le; 38.5<br/>gini = 0.493<br/>samples = 62<br/>value = [53.0, 42.0]<br/>class = 1>, fillcolor="#fae5d6"] ;
74 -> 76 ;
77 [label=<BMI &le; 26.35<br/>gini = 0.488<br/>samples = 60<br/>value = [53, 39]<br/>class = 1>, fillcolor="#f8decb"] ;
76 -> 77 ;
78 [label=<gini = 0.0<br/>samples = 7<br/>value = [0, 10]<br/>class = 0>, fillcolor="#399de5"] ;
77 -> 78 ;
79 [label=<Pregnancies &le; 9.5<br/>gini = 0.457<br/>samples = 53<br/>value = [53, 29]<br/>class = 1>, fillcolor="#f3c6a5"] ;
77 -> 79 ;
80 [label=<BMI &le; 34.6<br/>gini = 0.438<br/>samples = 47<br/>value = [48, 23]<br/>class = 1>, fillcolor="#f1bd98"] ;
79 -> 80 ;
81 [label=<BloodPressure &le; 73.0<br/>gini = 0.346<br/>samples = 31<br/>value = [35, 10]<br/>class = 1>, fillcolor="#eca572"] ;
80 -> 81 ;
82 [label=<Age &le; 33.5<br/>gini = 0.472<br/>samples = 18<br/>value = [13, 8]<br/>class = 1>, fillcolor="#f5cfb3"] ;
81 -> 82 ;
83 [label=<DiabetesPedigreeFunction &le; 0.119<br/>gini = 0.337<br/>samples = 11<br/>value = [11, 3]<br/>class = 1>, fillcolor="#eca36f"] ;
82 -> 83 ;
84 [label=<gini = 0.0<br/>samples = 1<br/>value = [0, 1]<br/>class = 0>, fillcolor="#399de5"] ;
83 -> 84 ;
85 [label=<Pregnancies &le; 2.0<br/>gini = 0.26<br/>samples = 10<br/>value = [11, 2]<br/>class = 1>, fillcolor="#ea985d"] ;
83 -> 85 ;
86 [label=<gini = 0.0<br/>samples = 1<br/>value = [0, 1]<br/>class = 0>, fillcolor="#399de5"] ;
85 -> 86 ;
87 [label=<Age &le; 31.5<br/>gini = 0.153<br/>samples = 9<br/>value = [11, 1]<br/>class = 1>, fillcolor="#e78c4b"] ;
85 -> 87 ;
88 [label=<gini = 0.0<br/>samples = 5<br/>value = [7, 0]<br/>class = 1>, fillcolor="#e58139"] ;
87 -> 88 ;
89 [label=<Insulin &le; 60.0<br/>gini = 0.32<br/>samples = 4<br/>value = [4, 1]<br/>class = 1>, fillcolor="#eca06a"] ;
87 -> 89 ;
90 [label=<gini = 0.0<br/>samples = 2<br/>value = [3, 0]<br/>class = 1>, fillcolor="#e58139"] ;
89 -> 90 ;
91 [label=<BloodPressure &le; 69.0<br/>gini = 0.5<br/>samples = 2<br/>value = [1, 1]<br/>class = 1>, fillcolor="#ffffff"] ;
89 -> 91 ;
92 [label=<gini = 0.0<br/>samples = 1<br/>value = [0, 1]<br/>class = 0>, fillcolor="#399de5"] ;
91 -> 92 ;
93 [label=<gini = 0.0<br/>samples = 1<br/>value = [1, 0]<br/>class = 1>, fillcolor="#e58139"] ;
91 -> 93 ;
94 [label=<Age &le; 35.0<br/>gini = 0.408<br/>samples = 7<br/>value = [2, 5]<br/>class = 0>, fillcolor="#88c4ef"] ;
82 -> 94 ;
95 [label=<gini = 0.0<br/>samples = 3<br/>value = [0, 3]<br/>class = 0>, fillcolor="#399de5"] ;
94 -> 95 ;
96 [label=<Glucose &le; 134.0<br/>gini = 0.5<br/>samples = 4<br/>value = [2, 2]<br/>class = 1>, fillcolor="#ffffff"] ;
94 -> 96 ;
97 [label=<gini = 0.0<br/>samples = 1<br/>value = [1, 0]<br/>class = 1>, fillcolor="#e58139"] ;
96 -> 97 ;
98 [label=<DiabetesPedigreeFunction &le; 0.465<br/>gini = 0.444<br/>samples = 3<br/>value = [1, 2]<br/>class = 0>, fillcolor="#9ccef2"] ;
96 -> 98 ;
99 [label=<gini = 0.0<br/>samples = 2<br/>value = [0, 2]<br/>class = 0>, fillcolor="#399de5"] ;
98 -> 99 ;
100 [label=<gini = 0.0<br/>samples = 1<br/>value = [1, 0]<br/>class = 1>, fillcolor="#e58139"] ;
98 -> 100 ;
101 [label=<DiabetesPedigreeFunction &le; 0.151<br/>gini = 0.153<br/>samples = 13<br/>value = [22, 2]<br/>class = 1>, fillcolor="#e78c4b"] ;
81 -> 101 ;
102 [label=<gini = 0.0<br/>samples = 1<br/>value = [0, 1]<br/>class = 0>, fillcolor="#399de5"] ;
101 -> 102 ;
103 [label=<Glucose &le; 121.0<br/>gini = 0.083<br/>samples = 12<br/>value = [22, 1]<br/>class = 1>, fillcolor="#e68742"] ;
101 -> 103 ;
104 [label=<gini = 0.0<br/>samples = 6<br/>value = [13, 0]<br/>class = 1>, fillcolor="#e58139"] ;
103 -> 104 ;
105 [label=<BMI &le; 31.4<br/>gini = 0.18<br/>samples = 6<br/>value = [9, 1]<br/>class = 1>, fillcolor="#e88f4f"] ;
103 -> 105 ;
106 [label=<gini = 0.0<br/>samples = 3<br/>value = [6, 0]<br/>class = 1>, fillcolor="#e58139"] ;
105 -> 106 ;
107 [label=<BMI &le; 32.9<br/>gini = 0.375<br/>samples = 3<br/>value = [3, 1]<br/>class = 1>, fillcolor="#eeab7b"] ;
105 -> 107 ;
108 [label=<gini = 0.0<br/>samples = 1<br/>value = [0, 1]<br/>class = 0>, fillcolor="#399de5"] ;
107 -> 108 ;
109 [label=<gini = 0.0<br/>samples = 2<br/>value = [3, 0]<br/>class = 1>, fillcolor="#e58139"] ;
107 -> 109 ;
110 [label=<Age &le; 29.5<br/>gini = 0.5<br/>samples = 16<br/>value = [13, 13]<br/>class = 1>, fillcolor="#ffffff"] ;
80 -> 110 ;
111 [label=<Pregnancies &le; 1.5<br/>gini = 0.198<br/>samples = 3<br/>value = [1, 8]<br/>class = 0>, fillcolor="#52a9e8"] ;
110 -> 111 ;
112 [label=<gini = 0.0<br/>samples = 1<br/>value = [1, 0]<br/>class = 1>, fillcolor="#e58139"] ;
111 -> 112 ;
113 [label=<gini = 0.0<br/>samples = 2<br/>value = [0, 8]<br/>class = 0>, fillcolor="#399de5"] ;
111 -> 113 ;
114 [label=<BloodPressure &le; 83.0<br/>gini = 0.415<br/>samples = 13<br/>value = [12, 5]<br/>class = 1>, fillcolor="#f0b58b"] ;
110 -> 114 ;
115 [label=<BMI &le; 35.0<br/>gini = 0.32<br/>samples = 11<br/>value = [12, 3]<br/>class = 1>, fillcolor="#eca06a"] ;
114 -> 115 ;
116 [label=<gini = 0.0<br/>samples = 1<br/>value = [0, 1]<br/>class = 0>, fillcolor="#399de5"] ;
115 -> 116 ;
117 [label=<Age &le; 34.0<br/>gini = 0.245<br/>samples = 10<br/>value = [12, 2]<br/>class = 1>, fillcolor="#e9965a"] ;
115 -> 117 ;
118 [label=<Insulin &le; 145.5<br/>gini = 0.408<br/>samples = 6<br/>value = [5, 2]<br/>class = 1>, fillcolor="#efb388"] ;
117 -> 118 ;
119 [label=<Glucose &le; 105.5<br/>gini = 0.5<br/>samples = 4<br/>value = [2, 2]<br/>class = 1>, fillcolor="#ffffff"] ;
118 -> 119 ;
120 [label=<gini = 0.0<br/>samples = 1<br/>value = [1, 0]<br/>class = 1>, fillcolor="#e58139"] ;
119 -> 120 ;
121 [label=<DiabetesPedigreeFunction &le; 0.251<br/>gini = 0.444<br/>samples = 3<br/>value = [1, 2]<br/>class = 0>, fillcolor="#9ccef2"] ;
119 -> 121 ;
122 [label=<gini = 0.0<br/>samples = 1<br/>value = [1, 0]<br/>class = 1>, fillcolor="#e58139"] ;
121 -> 122 ;
123 [label=<gini = 0.0<br/>samples = 2<br/>value = [0, 2]<br/>class = 0>, fillcolor="#399de5"] ;
121 -> 123 ;
124 [label=<gini = 0.0<br/>samples = 2<br/>value = [3, 0]<br/>class = 1>, fillcolor="#e58139"] ;
118 -> 124 ;
125 [label=<gini = 0.0<br/>samples = 4<br/>value = [7, 0]<br/>class = 1>, fillcolor="#e58139"] ;
117 -> 125 ;
126 [label=<gini = 0.0<br/>samples = 2<br/>value = [0, 2]<br/>class = 0>, fillcolor="#399de5"] ;
114 -> 126 ;
127 [label=<DiabetesPedigreeFunction &le; 0.431<br/>gini = 0.496<br/>samples = 6<br/>value = [5, 6]<br/>class = 0>, fillcolor="#deeffb"] ;
79 -> 127 ;
128 [label=<gini = 0.0<br/>samples = 3<br/>value = [0, 6]<br/>class = 0>, fillcolor="#399de5"] ;
127 -> 128 ;
129 [label=<gini = 0.0<br/>samples = 3<br/>value = [5, 0]<br/>class = 1>, fillcolor="#e58139"] ;
127 -> 129 ;
130 [label=<gini = 0.0<br/>samples = 2<br/>value = [0, 3]<br/>class = 0>, fillcolor="#399de5"] ;
76 -> 130 ;
131 [label=<Insulin &le; 116.5<br/>gini = 0.245<br/>samples = 6<br/>value = [2, 12]<br/>class = 0>, fillcolor="#5aade9"] ;
73 -> 131 ;
132 [label=<gini = 0.0<br/>samples = 4<br/>value = [0, 12]<br/>class = 0>, fillcolor="#399de5"] ;
131 -> 132 ;
133 [label=<gini = 0.0<br/>samples = 2<br/>value = [2, 0]<br/>class = 1>, fillcolor="#e58139"] ;
131 -> 133 ;
134 [label=<BMI &le; 26.75<br/>gini = 0.459<br/>samples = 83<br/>value = [81, 45]<br/>class = 1>, fillcolor="#f3c7a7"] ;
72 -> 134 ;
135 [label=<Insulin &le; 142.5<br/>gini = 0.32<br/>samples = 15<br/>value = [4, 16]<br/>class = 0>, fillcolor="#6ab6ec"] ;
134 -> 135 ;
136 [label=<Glucose &le; 153.5<br/>gini = 0.266<br/>samples = 14<br/>value = [3, 16]<br/>class = 0>, fillcolor="#5eafea"] ;
135 -> 136 ;
137 [label=<Glucose &le; 131.0<br/>gini = 0.111<br/>samples = 12<br/>value = [1, 16]<br/>class = 0>, fillcolor="#45a3e7"] ;
136 -> 137 ;
138 [label=<gini = 0.0<br/>samples = 8<br/>value = [0, 11]<br/>class = 0>, fillcolor="#399de5"] ;
137 -> 138 ;
139 [label=<BloodPressure &le; 66.5<br/>gini = 0.278<br/>samples = 4<br/>value = [1, 5]<br/>class = 0>, fillcolor="#61b1ea"] ;
137 -> 139 ;
140 [label=<gini = 0.0<br/>samples = 2<br/>value = [0, 3]<br/>class = 0>, fillcolor="#399de5"] ;
139 -> 140 ;
141 [label=<DiabetesPedigreeFunction &le; 0.261<br/>gini = 0.444<br/>samples = 2<br/>value = [1, 2]<br/>class = 0>, fillcolor="#9ccef2"] ;
139 -> 141 ;
142 [label=<gini = 0.0<br/>samples = 1<br/>value = [0, 2]<br/>class = 0>, fillcolor="#399de5"] ;
141 -> 142 ;
143 [label=<gini = 0.0<br/>samples = 1<br/>value = [1, 0]<br/>class = 1>, fillcolor="#e58139"] ;
141 -> 143 ;
144 [label=<gini = 0.0<br/>samples = 2<br/>value = [2, 0]<br/>class = 1>, fillcolor="#e58139"] ;
136 -> 144 ;
145 [label=<gini = 0.0<br/>samples = 1<br/>value = [1, 0]<br/>class = 1>, fillcolor="#e58139"] ;
135 -> 145 ;
146 [label=<Age &le; 44.5<br/>gini = 0.397<br/>samples = 68<br/>value = [77, 29]<br/>class = 1>, fillcolor="#efb084"] ;
134 -> 146 ;
147 [label=<BloodPressure &le; 61.0<br/>gini = 0.258<br/>samples = 26<br/>value = [39, 7]<br/>class = 1>, fillcolor="#ea985d"] ;
146 -> 147 ;
148 [label=<gini = 0.0<br/>samples = 3<br/>value = [0, 3]<br/>class = 0>, fillcolor="#399de5"] ;
147 -> 148 ;
149 [label=<BMI &le; 33.9<br/>gini = 0.169<br/>samples = 23<br/>value = [39, 4]<br/>class = 1>, fillcolor="#e88e4d"] ;
147 -> 149 ;
150 [label=<Pregnancies &le; 8.5<br/>gini = 0.36<br/>samples = 10<br/>value = [13, 4]<br/>class = 1>, fillcolor="#eda876"] ;
149 -> 150 ;
151 [label=<BloodPressure &le; 77.0<br/>gini = 0.49<br/>samples = 5<br/>value = [3, 4]<br/>class = 0>, fillcolor="#cee6f8"] ;
150 -> 151 ;
152 [label=<BloodPressure &le; 70.0<br/>gini = 0.375<br/>samples = 3<br/>value = [3, 1]<br/>class = 1>, fillcolor="#eeab7b"] ;
151 -> 152 ;
153 [label=<BMI &le; 30.15<br/>gini = 0.5<br/>samples = 2<br/>value = [1, 1]<br/>class = 1>, fillcolor="#ffffff"] ;
152 -> 153 ;
154 [label=<gini = 0.0<br/>samples = 1<br/>value = [0, 1]<br/>class = 0>, fillcolor="#399de5"] ;
153 -> 154 ;
155 [label=<gini = 0.0<br/>samples = 1<br/>value = [1, 0]<br/>class = 1>, fillcolor="#e58139"] ;
153 -> 155 ;
156 [label=<gini = 0.0<br/>samples = 1<br/>value = [2, 0]<br/>class = 1>, fillcolor="#e58139"] ;
152 -> 156 ;
157 [label=<gini = 0.0<br/>samples = 2<br/>value = [0, 3]<br/>class = 0>, fillcolor="#399de5"] ;
151 -> 157 ;
158 [label=<gini = 0.0<br/>samples = 5<br/>value = [10, 0]<br/>class = 1>, fillcolor="#e58139"] ;
150 -> 158 ;
159 [label=<gini = 0.0<br/>samples = 13<br/>value = [26, 0]<br/>class = 1>, fillcolor="#e58139"] ;
149 -> 159 ;
160 [label=<Pregnancies &le; 8.5<br/>gini = 0.464<br/>samples = 42<br/>value = [38, 22]<br/>class = 1>, fillcolor="#f4caac"] ;
146 -> 160 ;
161 [label=<DiabetesPedigreeFunction &le; 0.319<br/>gini = 0.491<br/>samples = 32<br/>value = [26.0, 20.0]<br/>class = 1>, fillcolor="#f9e2d1"] ;
160 -> 161 ;
162 [label=<DiabetesPedigreeFunction &le; 0.262<br/>gini = 0.477<br/>samples = 19<br/>value = [11, 17]<br/>class = 0>, fillcolor="#b9dcf6"] ;
161 -> 162 ;
163 [label=<Pregnancies &le; 2.5<br/>gini = 0.497<br/>samples = 17<br/>value = [11, 13]<br/>class = 0>, fillcolor="#e1f0fb"] ;
162 -> 163 ;
164 [label=<DiabetesPedigreeFunction &le; 0.233<br/>gini = 0.408<br/>samples = 5<br/>value = [5, 2]<br/>class = 1>, fillcolor="#efb388"] ;
163 -> 164 ;
165 [label=<gini = 0.0<br/>samples = 2<br/>value = [0, 2]<br/>class = 0>, fillcolor="#399de5"] ;
164 -> 165 ;
166 [label=<gini = 0.0<br/>samples = 3<br/>value = [5, 0]<br/>class = 1>, fillcolor="#e58139"] ;
164 -> 166 ;
167 [label=<DiabetesPedigreeFunction &le; 0.178<br/>gini = 0.457<br/>samples = 12<br/>value = [6, 11]<br/>class = 0>, fillcolor="#a5d2f3"] ;
163 -> 167 ;
168 [label=<Glucose &le; 144.5<br/>gini = 0.5<br/>samples = 6<br/>value = [5, 5]<br/>class = 1>, fillcolor="#ffffff"] ;
167 -> 168 ;
169 [label=<DiabetesPedigreeFunction &le; 0.132<br/>gini = 0.32<br/>samples = 3<br/>value = [1, 4]<br/>class = 0>, fillcolor="#6ab6ec"] ;
168 -> 169 ;
170 [label=<gini = 0.0<br/>samples = 1<br/>value = [1, 0]<br/>class = 1>, fillcolor="#e58139"] ;
169 -> 170 ;
171 [label=<gini = 0.0<br/>samples = 2<br/>value = [0, 4]<br/>class = 0>, fillcolor="#399de5"] ;
169 -> 171 ;
172 [label=<BloodPressure &le; 90.5<br/>gini = 0.32<br/>samples = 3<br/>value = [4, 1]<br/>class = 1>, fillcolor="#eca06a"] ;
168 -> 172 ;
173 [label=<gini = 0.0<br/>samples = 1<br/>value = [2, 0]<br/>class = 1>, fillcolor="#e58139"] ;
172 -> 173 ;
174 [label=<Age &le; 56.0<br/>gini = 0.444<br/>samples = 2<br/>value = [2, 1]<br/>class = 1>, fillcolor="#f2c09c"] ;
172 -> 174 ;
175 [label=<gini = 0.0<br/>samples = 1<br/>value = [2, 0]<br/>class = 1>, fillcolor="#e58139"] ;
174 -> 175 ;
176 [label=<gini = 0.0<br/>samples = 1<br/>value = [0, 1]<br/>class = 0>, fillcolor="#399de5"] ;
174 -> 176 ;
177 [label=<Glucose &le; 107.5<br/>gini = 0.245<br/>samples = 6<br/>value = [1, 6]<br/>class = 0>, fillcolor="#5aade9"] ;
167 -> 177 ;
178 [label=<BloodPressure &le; 91.0<br/>gini = 0.5<br/>samples = 2<br/>value = [1, 1]<br/>class = 1>, fillcolor="#ffffff"] ;
177 -> 178 ;
179 [label=<gini = 0.0<br/>samples = 1<br/>value = [0, 1]<br/>class = 0>, fillcolor="#399de5"] ;
178 -> 179 ;
180 [label=<gini = 0.0<br/>samples = 1<br/>value = [1, 0]<br/>class = 1>, fillcolor="#e58139"] ;
178 -> 180 ;
181 [label=<gini = 0.0<br/>samples = 4<br/>value = [0, 5]<br/>class = 0>, fillcolor="#399de5"] ;
177 -> 181 ;
182 [label=<gini = 0.0<br/>samples = 2<br/>value = [0, 4]<br/>class = 0>, fillcolor="#399de5"] ;
162 -> 182 ;
183 [label=<Age &le; 53.5<br/>gini = 0.278<br/>samples = 13<br/>value = [15, 3]<br/>class = 1>, fillcolor="#ea9a61"] ;
161 -> 183 ;
184 [label=<gini = 0.0<br/>samples = 7<br/>value = [10, 0]<br/>class = 1>, fillcolor="#e58139"] ;
183 -> 184 ;
185 [label=<DiabetesPedigreeFunction &le; 0.793<br/>gini = 0.469<br/>samples = 6<br/>value = [5, 3]<br/>class = 1>, fillcolor="#f5cdb0"] ;
183 -> 185 ;
186 [label=<Insulin &le; 95.0<br/>gini = 0.278<br/>samples = 4<br/>value = [5, 1]<br/>class = 1>, fillcolor="#ea9a61"] ;
185 -> 186 ;
187 [label=<gini = 0.0<br/>samples = 2<br/>value = [4, 0]<br/>class = 1>, fillcolor="#e58139"] ;
186 -> 187 ;
188 [label=<Glucose &le; 143.0<br/>gini = 0.5<br/>samples = 2<br/>value = [1, 1]<br/>class = 1>, fillcolor="#ffffff"] ;
186 -> 188 ;
189 [label=<gini = 0.0<br/>samples = 1<br/>value = [0, 1]<br/>class = 0>, fillcolor="#399de5"] ;
188 -> 189 ;
190 [label=<gini = 0.0<br/>samples = 1<br/>value = [1, 0]<br/>class = 1>, fillcolor="#e58139"] ;
188 -> 190 ;
191 [label=<gini = 0.0<br/>samples = 2<br/>value = [0, 2]<br/>class = 0>, fillcolor="#399de5"] ;
185 -> 191 ;
192 [label=<BloodPressure &le; 79.0<br/>gini = 0.245<br/>samples = 10<br/>value = [12, 2]<br/>class = 1>, fillcolor="#e9965a"] ;
160 -> 192 ;
193 [label=<Pregnancies &le; 12.5<br/>gini = 0.444<br/>samples = 5<br/>value = [4, 2]<br/>class = 1>, fillcolor="#f2c09c"] ;
192 -> 193 ;
194 [label=<Age &le; 45.5<br/>gini = 0.32<br/>samples = 4<br/>value = [4, 1]<br/>class = 1>, fillcolor="#eca06a"] ;
193 -> 194 ;
195 [label=<DiabetesPedigreeFunction &le; 0.156<br/>gini = 0.375<br/>samples = 3<br/>value = [3, 1]<br/>class = 1>, fillcolor="#eeab7b"] ;
194 -> 195 ;
196 [label=<gini = 0.0<br/>samples = 1<br/>value = [2, 0]<br/>class = 1>, fillcolor="#e58139"] ;
195 -> 196 ;
197 [label=<BMI &le; 32.55<br/>gini = 0.5<br/>samples = 2<br/>value = [1, 1]<br/>class = 1>, fillcolor="#ffffff"] ;
195 -> 197 ;
198 [label=<gini = 0.0<br/>samples = 1<br/>value = [0, 1]<br/>class = 0>, fillcolor="#399de5"] ;
197 -> 198 ;
199 [label=<gini = 0.0<br/>samples = 1<br/>value = [1, 0]<br/>class = 1>, fillcolor="#e58139"] ;
197 -> 199 ;
200 [label=<gini = 0.0<br/>samples = 1<br/>value = [1, 0]<br/>class = 1>, fillcolor="#e58139"] ;
194 -> 200 ;
201 [label=<gini = 0.0<br/>samples = 1<br/>value = [0, 1]<br/>class = 0>, fillcolor="#399de5"] ;
193 -> 201 ;
202 [label=<gini = 0.0<br/>samples = 5<br/>value = [8, 0]<br/>class = 1>, fillcolor="#e58139"] ;
192 -> 202 ;
}