digraph Tree {
node [shape=box, style="filled, rounded", color="black", fontname="helvetica"] ;
edge [fontname="helvetica"] ;
0 [label=<Glucose &le; 121.5<br/>gini = 0.419<br/>samples = 312<br/>value = [152, 356]<br/>class = 0>, fillcolor="#8ec7f0"] ;
1 [label=<Pregnancies &le; 9.5<br/>gini = 0.219<br/>samples = 185<br/>value = [38, 266]<br/>class = 0>, fillcolor="#55abe9"] ;
0 -> 1 [labeldistance=2.5, labelangle=45, headlabel="True"] ;
2 [label=<BMI &le; 29.65<br/>gini = 0.174<br/>samples = 173<br/>value = [27, 254]<br/>class = 0>, fillcolor="#4ea7e8"] ;
1 -> 2 ;
3 [label=<BMI &le; 26.45<br/>gini = 0.046<br/>samples = 78<br/>value = [3, 123]<br/>class = 0>, fillcolor="#3e9fe6"] ;
2 -> 3 ;
4 [label=<gini = 0.0<br/>samples = 52<br/>value = [0, 86]<br/>class = 0>, fillcolor="#399de5"] ;
3 -> 4 ;
5 [label=<Age &le; 43.0<br/>gini = 0.139<br/>samples = 26<br/>value = [3, 37]<br/>class = 0>, fillcolor="#49a5e7"] ;
3 -> 5 ;
6 [label=<BMI &le; 26.55<br/>gini = 0.1<br/>samples = 24<br/>value = [2, 36]<br/>class = 0>, fillcolor="#44a2e6"] ;
5 -> 6 ;
7 [label=<Pregnancies &le; 4.0<br/>gini = 0.5<br/>samples = 2<br/>value = [1, 1]<br/>class = 1>, fillcolor="#ffffff"] ;
6 -> 7 ;
8 [label=<gini = 0.0<br/>samples = 1<br/>value = [0, 1]<br/>class = 0>, fillcolor="#399de5"] ;
7 -> 8 ;
9 [label=<gini = 0.0<br/>samples = 1<br/>value = [1, 0]<br/>class = 1>, fillcolor="#e58139"] ;
7 -> 9 ;
10 [label=<Glucose &le; 117.0<br/>gini = 0.054<br/>samples = 22<br/>value = [1, 35]<br/>class = 0>, fillcolor="#3fa0e6"] ;
6 -> 10 ;
11 [label=<gini = 0.0<br/>samples = 19<br/>value = [0, 33]<br/>class = 0>, fillcolor="#399de5"] ;
10 -> 11 ;
12 [label=<Age &le; 24.5<br/>gini = 0.444<br/>samples = 3<br/>value = [1, 2]<br/>class = 0>, fillcolor="#9ccef2"] ;
10 -> 12 ;
13 [label=<gini = 0.0<br/>samples = 1<br/>value = [1, 0]<br/>class = 1>, fillcolor="#e58139"] ;
12 -> 13 ;
14 [label=<gini = 0.0<br/>samples = 2<br/>value = [0, 2]<br/>class = 0>, fillcolor="#399de5"] ;
12 -> 14 ;
15 [label=<DiabetesPedigreeFunction &le; 0.248<br/>gini = 0.5<br/>samples = 2<br/>value = [1, 1]<br/>class = 1>, fillcolor="#ffffff"] ;
5 -> 15 ;
16 [label=<gini = 0.0<br/>samples = 1<br/>value = [0, 1]<br/>class = 0>, fillcolor="#399de5"] ;
15 -> 16 ;
17 [label=<gini = 0.0<br/>samples = 1<br/>value = [1, 0]<br/>class = 1>, fillcolor="#e58139"] ;
15 -> 17 ;
18 [label=<BMI &le; 29.8<br/>gini = 0.262<br/>samples = 95<br/>value = [24, 131]<br/>class = 0>, fillcolor="#5dafea"] ;
2 -> 18 ;
19 [label=<BloodPressure &le; 63.0<br/>gini = 0.48<br/>samples = 3<br/>value = [3, 2]<br/>class = 1>, fillcolor="#f6d5bd"] ;
18 -> 19 ;
20 [label=<gini = 0.0<br/>samples = 1<br/>value = [3, 0]<br/>class = 1>, fillcolor="#e58139"] ;
19 -> 20 ;
21 [label=<gini = 0.0<br/>samples = 2<br/>value = [0, 2]<br/>class = 0>, fillcolor="#399de5"] ;
19 -> 21 ;
22 [label=<Age &le; 30.5<br/>gini = 0.241<br/>samples = 92<br/>value = [21.0, 129.0]<br/>class = 0>, fillcolor="#59ade9"] ;
18 -> 22 ;
23 [label=<Glucose &le; 112.5<br/>gini = 0.142<br/>samples = 66<br/>value = [8, 96]<br/>class = 0>, fillcolor="#49a5e7"] ;
22 -> 23 ;
24 [label=<BMI &le; 45.4<br/>gini = 0.076<br/>samples = 45<br/>value = [3, 73]<br/>class = 0>, fillcolor="#41a1e6"] ;
23 -> 24 ;
25 [label=<Insulin &le; 63.5<br/>gini = 0.052<br/>samples = 44<br/>value = [2, 73]<br/>class = 0>, fillcolor="#3ea0e6"] ;
24 -> 25 ;
26 [label=<gini = 0.0<br/>samples = 21<br/>value = [0, 30]<br/>class = 0>, fillcolor="#399de5"] ;
25 -> 26 ;
27 [label=<BMI &le; 33.8<br/>gini = 0.085<br/>samples = 23<br/>value = [2, 43]<br/>class = 0>, fillcolor="#42a2e6"] ;
25 -> 27 ;
28 [label=<BMI &le; 33.35<br/>gini = 0.172<br/>samples = 11<br/>value = [2, 19]<br/>class = 0>, fillcolor="#4ea7e8"] ;
27 -> 28 ;
29 [label=<Pregnancies &le; 2.5<br/>gini = 0.095<br/>samples = 10<br/>value = [1, 19]<br/>class = 0>, fillcolor="#43a2e6"] ;
28 -> 29 ;
30 [label=<gini = 0.0<br/>samples = 6<br/>value = [0, 12]<br/>class = 0>, fillcolor="#399de5"] ;
29 -> 30 ;
31 [label=<DiabetesPedigreeFunction &le; 0.27<br/>gini = 0.219<br/>samples = 4<br/>value = [1, 7]<br/>class = 0>, fillcolor="#55abe9"] ;
29 -> 31 ;
32 [label=<gini = 0.0<br/>samples = 1<br/>value = [1, 0]<br/>class = 1>, fillcolor="#e58139"] ;
31 -> 32 ;
33 [label=<gini = 0.0<br/>samples = 3<br/>value = [0, 7]<br/>class = 0>, fillcolor="#399de5"] ;
31 -> 33 ;
34 [label=<gini = 0.0<br/>samples = 1<br/>value = [1, 0]<br/>class = 1>, fillcolor="#e58139"] ;
28 -> 34 ;
35 [label=<gini = 0.0<br/>samples = 12<br/>value = [0, 24]<br/>class = 0>, fillcolor="#399de5"] ;
27 -> 35 ;
36 [label=<gini = 0.0<br/>samples = 1<br/>value = [1, 0]<br/>class = 1>, fillcolor="#e58139"] ;
24 -> 36 ;
37 [label=<BloodPressure &le; 75.0<br/>gini = 0.293<br/>samples = 21<br/>value = [5, 23]<br/>class = 0>, fillcolor="#64b2eb"] ;
23 -> 37 ;
38 [label=<DiabetesPedigreeFunction &le; 0.139<br/>gini = 0.198<br/>samples = 14<br/>value = [2, 16]<br/>class = 0>, fillcolor="#52a9e8"] ;
37 -> 38 ;
39 [label=<gini = 0.0<br/>samples = 1<br/>value = [1, 0]<br/>class = 1>, fillcolor="#e58139"] ;
38 -> 39 ;
40 [label=<Glucose &le; 113.5<br/>gini = 0.111<br/>samples = 13<br/>value = [1, 16]<br/>class = 0>, fillcolor="#45a3e7"] ;
38 -> 40 ;
41 [label=<gini = 0.0<br/>samples = 1<br/>value = [1, 0]<br/>class = 1>, fillcolor="#e58139"] ;
40 -> 41 ;
42 [label=<gini = 0.0<br/>samples = 12<br/>value = [0, 16]<br/>class = 0>, fillcolor="#399de5"] ;
40 -> 42 ;
43 [label=<DiabetesPedigreeFunction &le; 0.27<br/>gini = 0.42<br/>samples = 7<br/>value = [3, 7]<br/>class = 0>, fillcolor="#8ec7f0"] ;
37 -> 43 ;
44 [label=<gini = 0.0<br/>samples = 4<br/>value = [0, 5]<br/>class = 0>, fillcolor="#399de5"] ;
43 -> 44 ;
45 [label=<BMI &le; 32.15<br/>gini = 0.48<br/>samples = 3<br/>value = [3, 2]<br/>class = 1>, fillcolor="#f6d5bd"] ;
43 -> 45 ;
46 [label=<gini = 0.0<br/>samples = 1<br/>value = [0, 2]<br/>class = 0>, fillcolor="#399de5"] ;
45 -> 46 ;
47 [label=<gini = 0.0<br/>samples = 2<br/>value = [3, 0]<br/>class = 1>, fillcolor="#e58139"] ;
45 -> 47 ;
48 [label=<Age &le; 37.0<br/>gini = 0.405<br/>samples = 26<br/>value = [13.0, 33.0]<br/>class = 0>, fillcolor="#87c4ef"] ;
22 -> 48 ;
49 [label=<Glucose &le; 110.0<br/>gini = 0.444<br/>samples = 7<br/>value = [8, 4]<br/>class = 1>, fillcolor="#f2c09c"] ;
48 -> 49 ;
50 [label=<Insulin &le; 37.5<br/>gini = 0.444<br/>samples = 4<br/>value = [2, 4]<br/>class = 0>, fillcolor="#9ccef2"] ;
49 -> 50 ;
51 [label=<BMI &le; 34.4<br/>gini = 0.444<br/>samples = 3<br/>value = [2, 1]<br/>class = 1>, fillcolor="#f2c09c"] ;
50 -> 51 ;
52 [label=<gini = 0.0<br/>samples = 2<br/>value = [2, 0]<br/>class = 1>, fillcolor="#e58139"] ;
51 -> 52 ;
53 [label=<gini = 0.0<br/>samples = 1<br/>value = [0, 1]<br/>class = 0>, fillcolor="#399de5"] ;
51 -> 53 ;
54 [label=<gini = 0.0<br/>samples = 1<br/>value = [0, 3]<br/>class = 0>, fillcolor="#399de5"] ;
50 -> 54 ;
55 [label=<gini = 0.0<br/>samples = 3<br/>value = [6, 0]<br/>class = 1>, fillcolor="#e58139"] ;
49 -> 55 ;
56 [label=<DiabetesPedigreeFunction &le; 0.728<br/>gini = 0.251<br/>samples = 19<br/>value = [5, 29]<br/>class = 0>, fillcolor="#5baee9"] ;
48 -> 56 ;
57 [label=<BMI &le; 39.1<br/>gini = 0.17<br/>samples = 17<br/>value = [3, 29]<br/>class = 0>, fillcolor="#4da7e8"] ;
56 -> 57 ;
58 [label=<DiabetesPedigreeFunction &le; 0.258<br/>gini = 0.064<br/>samples = 16<br/>value = [1, 29]<br/>class = 0>, fillcolor="#40a0e6"] ;
57 -> 58 ;
59 [label=<Glucose &le; 108.5<br/>gini = 0.153<br/>samples = 5<br/>value = [1, 11]<br/>class = 0>, fillcolor="#4ba6e7"] ;
58 -> 59 ;
60 [label=<gini = 0.0<br/>samples = 4<br/>value = [0, 11]<br/>class = 0>, fillcolor="#399de5"] ;
59 -> 60 ;
61 [label=<gini = 0.0<br/>samples = 1<br/>value = [1, 0]<br/>class = 1>, fillcolor="#e58139"] ;
59 -> 61 ;
62 [label=<gini = 0.0<br/>samples = 11<br/>value = [0, 18]<br/>class = 0>, fillcolor="#399de5"] ;
58 -> 62 ;
63 [label=<gini = 0.0<br/>samples = 1<br/>value = [2, 0]<br/>class = 1>, fillcolor="#e58139"] ;
57 -> 63 ;
64 [label=<gini = 0.0<br/>samples = 2<br/>value = [2, 0]<br/>class = 1>, fillcolor="#e58139"] ;
56 -> 64 ;
65 [label=<Age &le; 36.5<br/>gini = 0.499<br/>samples = 12<br/>value = [11, 12]<br/>class = 0>, fillcolor="#eff7fd"] ;
1 -> 65 ;
66 [label=<gini = 0.0<br/>samples = 2<br/>value = [0, 5]<br/>class = 0>, fillcolor="#399de5"] ;
65 -> 66 ;
67 [label=<BloodPressure &le; 61.0<br/>gini = 0.475<br/>samples = 10<br/>value = [11, 7]<br/>class = 1>, fillcolor="#f6d1b7"] ;
65 -> 67 ;
68 [label=<gini = 0.0<br/>samples = 1<br/>value = [0, 1]<br/>class = 0>, fillcolor="#399de5"] ;
67 -> 68 ;
69 [label=<BMI &le; 32.85<br/>gini = 0.457<br/>samples = 9<br/>value = [11, 6]<br/>class = 1>, fillcolor="#f3c6a5"] ;
67 -> 69 ;
70 [label=<gini = 0.0<br/>samples = 5<br/>value = [9, 0]<br/>class = 1>, fillcolor="#e58139"] ;
69 -> 70 ;
71 [label=<BloodPressure &le; 84.0<br/>gini = 0.375<br/>samples = 4<br/>value = [2, 6]<br/>class = 0>, fillcolor="#7bbeee"] ;
69 -> 71 ;
72 [label=<gini = 0.0<br/>samples = 3<br/>value = [0, 6]<br/>class = 0>, fillcolor="#399de5"] ;
71 -> 72 ;
73 [label=<gini = 0.0<br/>samples = 1<br/>value = [2, 0]<br/>class = 1>, fillcolor="#e58139"] ;
71 -> 73 ;
74 [label=<Glucose &le; 158.5<br/>gini = 0.493<br/>samples = 127<br/>value = [114, 90]<br/>class = 1>, fillcolor="#fae4d5"] ;
0 -> 74 [labeldistance=2.5, labelangle=-45, headlabel="False"] ;
75 [label=<Age &le; 30.5<br/>gini = 0.492<br/>samples = 95<br/>value = [67, 86]<br/>class = 0>, fillcolor="#d3e9f9"] ;
74 -> 75 ;
76 [label=<BloodPressure &le; 65.0<br/>gini = 0.359<br/>samples = 41<br/>value = [15, 49]<br/>class = 0>, fillcolor="#76bbed"] ;
75 -> 76 ;
77 [label=<Glucose &le; 126.5<br/>gini = 0.497<br/>samples = 8<br/>value = [7, 6]<br/>class = 1>, fillcolor="#fbede3"] ;
76 -> 77 ;
78 [label=<gini = 0.0<br/>samples = 2<br/>value = [0, 4]<br/>class = 0>, fillcolor="#399de5"] ;
77 -> 78 ;
79 [label=<Age &le; 23.0<br/>gini = 0.346<br/>samples = 6<br/>value = [7, 2]<br/>class = 1>, fillcolor="#eca572"] ;
77 -> 79 ;
80 [label=<Pregnancies &le; 0.5<br/>gini = 0.5<br/>samples = 3<br/>value = [2, 2]<br/>class = 1>, fillcolor="#ffffff"] ;
79 -> 80 ;
81 [label=<gini = 0.0<br/>samples = 1<br/>value = [2, 0]<br/>class = 1>, fillcolor="#e58139"] ;
80 -> 81 ;
82 [label=<gini = 0.0<br/>samples = 2<br/>value = [0, 2]<br/>class = 0>, fillcolor="#399de5"] ;
80 -> 82 ;
83 [label=<gini = 0.0<br/>samples = 3<br/>value = [5, 0]<br/>class = 1>, fillcolor="#e58139"] ;
79 -> 83 ;
84 [label=<Glucose &le; 156.0<br/>gini = 0.265<br/>samples = 33<br/>value = [8, 43]<br/>class = 0>, fillcolor="#5eafea"] ;
76 -> 84 ;
85 [label=<DiabetesPedigreeFunction &le; 0.309<br/>gini = 0.215<br/>samples = 31<br/>value = [6, 43]<br/>class = 0>, fillcolor="#55abe9"] ;
84 -> 85 ;
86 [label=<gini = 0.0<br/>samples = 12<br/>value = [0, 22]<br/>class = 0>, fillcolor="#399de5"] ;
85 -> 86 ;
87 [label=<Pregnancies &le; 4.5<br/>gini = 0.346<br/>samples = 19<br/>value = [6, 21]<br/>class = 0>, fillcolor="#72b9ec"] ;
85 -> 87 ;
88 [label=<Insulin &le; 197.5<br/>gini = 0.287<br/>samples = 16<br/>value = [4, 19]<br/>class = 0>, fillcolor="#63b2ea"] ;
87 -> 88 ;
89 [label=<DiabetesPedigreeFunction &le; 0.373<br/>gini = 0.391<br/>samples = 12<br/>value = [4, 11]<br/>class = 0>, fillcolor="#81c1ee"] ;
88 -> 89 ;
90 [label=<gini = 0.0<br/>samples = 2<br/>value = [2, 0]<br/>class = 1>, fillcolor="#e58139"] ;
89 -> 90 ;
91 [label=<DiabetesPedigreeFunction &le; 0.528<br/>gini = 0.26<br/>samples = 10<br/>value = [2, 11]<br/>class = 0>, fillcolor="#5dafea"] ;
89 -> 91 ;
92 [label=<gini = 0.0<br/>samples = 5<br/>value = [0, 8]<br/>class = 0>, fillcolor="#399de5"] ;
91 -> 92 ;
93 [label=<BloodPressure &le; 76.0<br/>gini = 0.48<br/>samples = 5<br/>value = [2, 3]<br/>class = 0>, fillcolor="#bddef6"] ;
91 -> 93 ;
94 [label=<gini = 0.0<br/>samples = 2<br/>value = [2, 0]<br/>class = 1>, fillcolor="#e58139"] ;
93 -> 94 ;
95 [label=<gini = 0.0<br/>samples = 3<br/>value = [0, 3]<br/>class = 0>, fillcolor="#399de5"] ;
93 -> 95 ;
96 [label=<gini = 0.0<br/>samples = 4<br/>value = [0, 8]<br/>class = 0>, fillcolor="#399de5"] ;
88 -> 96 ;
97 [label=<Age &le; 26.0<br/>gini = 0.5<br/>samples = 3<br/>value = [2, 2]<br/>class = 1>, fillcolor="#ffffff"] ;
87 -> 97 ;
98 [label=<gini = 0.0<br/>samples = 1<br/>value = [1, 0]<br/>class = 1>, fillcolor="#e58139"] ;
97 -> 98 ;
99 [label=<BMI &le; 40.75<br/>gini = 0.444<br/>samples = 2<br/>value = [1, 2]<br/>class = 0>, fillcolor="#9ccef2"] ;
97 -> 99 ;
100 [label=<gini = 0.0<br/>samples = 1<br/>value = [1, 0]<br/>class = 1>, fillcolor="#e58139"] ;
99 -> 100 ;
101 [label=<gini = 0.0<br/>samples = 1<br/>value = [0, 2]<br/>class = 0>, fillcolor="#399de5"] ;
99 -> 101 ;
102 [label=<gini = 0.0<br/>samples = 2<br/>value = [2, 0]<br/>class = 1>, fillcolor="#e58139"] ;
84 -> 102 ;
103 [label=<DiabetesPedigreeFunction &le; 0.222<br/>gini = 0.486<br/>samples = 54<br/>value = [52, 37]<br/>class = 1>, fillcolor="#f8dbc6"] ;
75 -> 103 ;
104 [label=<Pregnancies &le; 9.0<br/>gini = 0.375<br/>samples = 10<br/>value = [5, 15]<br/>class = 0>, fillcolor="#7bbeee"] ;
103 -> 104 ;
105 [label=<Pregnancies &le; 5.5<br/>gini = 0.208<br/>samples = 9<br/>value = [2, 15]<br/>class = 0>, fillcolor="#53aae8"] ;
104 -> 105 ;
106 [label=<gini = 0.0<br/>samples = 5<br/>value = [0, 12]<br/>class = 0>, fillcolor="#399de5"] ;
105 -> 106 ;
107 [label=<Glucose &le; 141.5<br/>gini = 0.48<br/>samples = 4<br/>value = [2, 3]<br/>class = 0>, fillcolor="#bddef6"] ;
105 -> 107 ;
108 [label=<gini = 0.0<br/>samples = 3<br/>value = [0, 3]<br/>class = 0>, fillcolor="#399de5"] ;
107 -> 108 ;
109 [label=<gini = 0.0<br/>samples = 1<br/>value = [2, 0]<br/>class = 1>, fillcolor="#e58139"] ;
107 -> 109 ;
110 [label=<gini = 0.0<br/>samples = 1<br/>value = [3, 0]<br/>class = 1>, fillcolor="#e58139"] ;
104 -> 110 ;
111 [label=<Insulin &le; 177.5<br/>gini = 0.434<br/>samples = 44<br/>value = [47.0, 22.0]<br/>class = 1>, fillcolor="#f1bc96"] ;
103 -> 111 ;
112 [label=<Age &le; 55.5<br/>gini = 0.388<br/>samples = 36<br/>value = [42, 15]<br/>class = 1>, fillcolor="#eeae80"] ;
111 -> 112 ;
113 [label=<BloodPressure &le; 84.0<br/>gini = 0.343<br/>samples = 31<br/>value = [39, 11]<br/>class = 1>, fillcolor="#eca571"] ;
112 -> 113 ;
114 [label=<DiabetesPedigreeFunction &le; 0.509<br/>gini = 0.193<br/>samples = 23<br/>value = [33, 4]<br/>class = 1>, fillcolor="#e89051"] ;
113 -> 114 ;
115 [label=<BMI &le; 27.2<br/>gini = 0.287<br/>samples = 13<br/>value = [19, 4]<br/>class = 1>, fillcolor="#ea9c63"] ;
114 -> 115 ;
116 [label=<gini = 0.0<br/>samples = 1<br/>value = [0, 1]<br/>class = 0>, fillcolor="#399de5"] ;
115 -> 116 ;
117 [label=<Glucose &le; 135.5<br/>gini = 0.236<br/>samples = 12<br/>value = [19, 3]<br/>class = 1>, fillcolor="#e99558"] ;
115 -> 117 ;
118 [label=<Insulin &le; 99.5<br/>gini = 0.105<br/>samples = 8<br/>value = [17, 1]<br/>class = 1>, fillcolor="#e78845"] ;
117 -> 118 ;
119 [label=<gini = 0.0<br/>samples = 7<br/>value = [17, 0]<br/>class = 1>, fillcolor="#e58139"] ;
118 -> 119 ;
120 [label=<gini = 0.0<br/>samples = 1<br/>value = [0, 1]<br/>class = 0>, fillcolor="#399de5"] ;
118 -> 120 ;
121 [label=<BMI &le; 36.3<br/>gini = 0.5<br/>samples = 4<br/>value = [2, 2]<br/>class = 1>, fillcolor="#ffffff"] ;
117 -> 121 ;
122 [label=<gini = 0.0<br/>samples = 2<br/>value = [0, 2]<br/>class = 0>, fillcolor="#399de5"] ;
121 -> 122 ;
123 [label=<gini = 0.0<br/>samples = 2<br/>value = [2, 0]<br/>class = 1>, fillcolor="#e58139"] ;
121 -> 123 ;
124 [label=<gini = 0.0<br/>samples = 10<br/>value = [14, 0]<br/>class = 1>, fillcolor="#e58139"] ;
114 -> 124 ;
125 [label=<Insulin &le; 124.0<br/>gini = 0.497<br/>samples = 8<br/>value = [6, 7]<br/>class = 0>, fillcolor="#e3f1fb"] ;
113 -> 125 ;
126 [label=<gini = 0.0<br/>samples = 5<br/>value = [0, 7]<br/>class = 0>, fillcolor="#399de5"] ;
125 -> 126 ;
127 [label=<gini = 0.0<br/>samples = 3<br/>value = [6, 0]<br/>class = 1>, fillcolor="#e58139"] ;
125 -> 127 ;
128 [label=<DiabetesPedigreeFunction &le; 0.261<br/>gini = 0.49<br/>samples = 5<br/>value = [3, 4]<br/>class = 0>, fillcolor="#cee6f8"] ;
112 -> 128 ;
129 [label=<gini = 0.0<br/>samples = 2<br/>value = [0, 3]<br/>class = 0>, fillcolor="#399de5"] ;
128 -> 129 ;
130 [label=<Age &le; 62.0<br/>gini = 0.375<br/>samples = 3<br/>value = [3, 1]<br/>class = 1>, fillcolor="#eeab7b"] ;
128 -> 130 ;
131 [label=<gini = 0.0<br/>samples = 2<br/>value = [3, 0]<br/>class = 1>, fillcolor="#e58139"] ;
130 -> 131 ;
132 [label=<gini = 0.0<br/>samples = 1<br/>value = [0, 1]<br/>class = 0>, fillcolor="#399de5"] ;
130 -> 132 ;
133 [label=<Pregnancies &le; 7.5<br/>gini = 0.486<br/>samples = 8<br/>value = [5, 7]<br/>class = 0>, fillcolor="#c6e3f8"] ;
111 -> 133 ;
134 [label=<Pregnancies &le; 5.5<br/>gini = 0.219<br/>samples = 5<br/>value = [1, 7]<br/>class = 0>, fillcolor="#55abe9"] ;
133 -> 134 ;
135 [label=<gini = 0.0<br/>samples = 1<br/>value = [1, 0]<br/>class = 1>, fillcolor="#e58139"] ;
134 -> 135 ;
136 [label=<gini = 0.0<br/>samples = 4<br/>value = [0, 7]<br/>class = 0>, fillcolor="#399de5"] ;
134 -> 136 ;
137 [label=<gini = 0.0<br/>samples = 3<br/>value = [4, 0]<br/>class = 1>, fillcolor="#e58139"] ;
133 -> 137 ;
138 [label=<BMI &le; 35.3<br/>gini = 0.145<br/>samples = 32<br/>value = [47, 4]<br/>class = 1>, fillcolor="#e78c4a"] ;
74 -> 138 ;
139 [label=<Glucose &le; 189.5<br/>gini = 0.231<br/>samples = 19<br/>value = [26, 4]<br/>class = 1>, fillcolor="#e99457"] ;
138 -> 139 ;
140 [label=<DiabetesPedigreeFunction &le; 0.234<br/>gini = 0.077<br/>samples = 16<br/>value = [24, 1]<br/>class = 1>, fillcolor="#e68641"] ;
139 -> 140 ;
141 [label=<Pregnancies &le; 9.5<br/>gini = 0.278<br/>samples = 4<br/>value = [5, 1]<br/>class = 1>, fillcolor="#ea9a61"] ;
140 -> 141 ;
142 [label=<gini = 0.0<br/>samples = 3<br/>value = [5, 0]<br/>class = 1>, fillcolor="#e58139"] ;
141 -> 142 ;
143 [label=<gini = 0.0<br/>samples = 1<br/>value = [0, 1]<br/>class = 0>, fillcolor="#399de5"] ;
141 -> 143 ;
144 [label=<gini = 0.0<br/>samples = 12<br/>value = [19, 0]<br/>class = 1>, fillcolor="#e58139"] ;
140 -> 144 ;
145 [label=<Pregnancies &le; 4.5<br/>gini = 0.48<br/>samples = 3<br/>value = [2, 3]<br/>class = 0>, fillcolor="#bddef6"] ;
139 -> 145 ;
146 [label=<gini = 0.0<br/>samples = 1<br/>value = [0, 3]<br/>class = 0>, fillcolor="#399de5"] ;
145 -> 146 ;
147 [label=<gini = 0.0<br/>samples = 2<br/>value = [2, 0]<br/>class = 1>, fillcolor="#e58139"] ;
145 -> 147 ;
148 [label=<gini = 0.0<br/>samples = 13<br/>value = [21, 0]<br/>class = 1>, fillcolor="#e58139"] ;
138 -> 148 ;
}