digraph Tree {
node [shape=box, style="filled, rounded", color="black", fontname="helvetica"] ;
edge [fontname="helvetica"] ;
0 [label=<Glucose &le; 138.5<br/>squared_error = 0.221<br/>samples = 321<br/>value = 0.669>, fillcolor="#eeab7a"] ;
1 [label=<DiabetesPedigreeFunction &le; 0.524<br/>squared_error = 0.153<br/>samples = 241<br/>value = 0.811>, fillcolor="#ea995e"] ;
0 -> 1 [labeldistance=2.5, labelangle=45, headlabel="True"] ;
2 [label=<Age &le; 33.5<br/>squared_error = 0.091<br/>samples = 162<br/>value = 0.899>, fillcolor="#e88e4d"] ;
1 -> 2 ;
3 [label=<Pregnancies &le; 6.5<br/>squared_error = 0.048<br/>samples = 118<br/>value = 0.949>, fillcolor="#e68743"] ;
2 -> 3 ;
4 [label=<BMI &le; 45.4<br/>squared_error = 0.031<br/>samples = 114<br/>value = 0.968>, fillcolor="#e6853f"] ;
3 -> 4 ;
5 [label=<Glucose &le; 112.5<br/>squared_error = 0.021<br/>samples = 113<br/>value = 0.979>, fillcolor="#e6843d"] ;
4 -> 5 ;
6 [label=<squared_error = 0.0<br/>samples = 71<br/>value = 1.0>, fillcolor="#e58139"] ;
5 -> 6 ;
7 [label=<Glucose &le; 113.5<br/>squared_error = 0.061<br/>samples = 42<br/>value = 0.934>, fillcolor="#e78946"] ;
5 -> 7 ;
8 [label=<squared_error = 0.0<br/>samples = 1<br/>value = 0.0>, fillcolor="#ffffff"] ;
7 -> 8 ;
9 [label=<BloodPressure &le; 53.0<br/>squared_error = 0.033<br/>samples = 41<br/>value = 0.966>, fillcolor="#e68540"] ;
7 -> 9 ;
10 [label=<BloodPressure &le; 50.0<br/>squared_error = 0.16<br/>samples = 3<br/>value = 0.8>, fillcolor="#ea9a61"] ;
9 -> 10 ;
11 [label=<squared_error = 0.0<br/>samples = 2<br/>value = 1.0>, fillcolor="#e58139"] ;
10 -> 11 ;
12 [label=<squared_error = 0.0<br/>samples = 1<br/>value = 0.0>, fillcolor="#ffffff"] ;
10 -> 12 ;
13 [label=<Age &le; 27.5<br/>squared_error = 0.018<br/>samples = 38<br/>value = 0.981>, fillcolor="#e5833d"] ;
9 -> 13 ;
14 [label=<squared_error = 0.0<br/>samples = 27<br/>value = 1.0>, fillcolor="#e58139"] ;
13 -> 14 ;
15 [label=<BloodPressure &le; 66.0<br/>squared_error = 0.062<br/>samples = 11<br/>value = 0.933>, fillcolor="#e78946"] ;
13 -> 15 ;
16 [label=<BMI &le; 30.1<br/>squared_error = 0.25<br/>samples = 2<br/>value = 0.5>, fillcolor="#f2c09c"] ;
15 -> 16 ;
17 [label=<squared_error = 0.0<br/>samples = 1<br/>value = 0.0>, fillcolor="#ffffff"] ;
16 -> 17 ;
18 [label=<squared_error = 0.0<br/>samples = 1<br/>value = 1.0>, fillcolor="#e58139"] ;
16 -> 18 ;
19 [label=<squared_error = 0.0<br/>samples = 9<br/>value = 1.0>, fillcolor="#e58139"] ;
15 -> 19 ;
20 [label=<squared_error = 0.0<br/>samples = 1<br/>value = 0.0>, fillcolor="#ffffff"] ;
4 -> 20 ;
21 [label=<DiabetesPedigreeFunction &le; 0.201<br/>squared_error = 0.245<br/>samples = 4<br/>value = 0.429>, fillcolor="#f4c9aa"] ;
3 -> 21 ;
22 [label=<squared_error = 0.0<br/>samples = 1<br/>value = 1.0>, fillcolor="#e58139"] ;
21 -> 22 ;
23 [label=<squared_error = 0.0<br/>samples = 3<br/>value = 0.0>, fillcolor="#ffffff"] ;
21 -> 23 ;
24 [label=<Glucose &le; 123.5<br/>squared_error = 0.191<br/>samples = 44<br/>value = 0.742>, fillcolor="#eca26c"] ;
2 -> 24 ;
25 [label=<BloodPressure &le; 97.0<br/>squared_error = 0.09<br/>samples = 27<br/>value = 0.9>, fillcolor="#e88e4d"] ;
24 -> 25 ;
26 [label=<DiabetesPedigreeFunction &le; 0.297<br/>squared_error = 0.071<br/>samples = 26<br/>value = 0.923>, fillcolor="#e78b48"] ;
25 -> 26 ;
27 [label=<DiabetesPedigreeFunction &le; 0.279<br/>squared_error = 0.145<br/>samples = 12<br/>value = 0.824>, fillcolor="#ea975c"] ;
26 -> 27 ;
28 [label=<Insulin &le; 87.5<br/>squared_error = 0.109<br/>samples = 11<br/>value = 0.875>, fillcolor="#e89152"] ;
27 -> 28 ;
29 [label=<BMI &le; 27.55<br/>squared_error = 0.062<br/>samples = 10<br/>value = 0.933>, fillcolor="#e78946"] ;
28 -> 29 ;
30 [label=<BloodPressure &le; 74.0<br/>squared_error = 0.25<br/>samples = 2<br/>value = 0.5>, fillcolor="#f2c09c"] ;
29 -> 30 ;
31 [label=<squared_error = 0.0<br/>samples = 1<br/>value = 0.0>, fillcolor="#ffffff"] ;
30 -> 31 ;
32 [label=<squared_error = 0.0<br/>samples = 1<br/>value = 1.0>, fillcolor="#e58139"] ;
30 -> 32 ;
33 [label=<squared_error = 0.0<br/>samples = 8<br/>value = 1.0>, fillcolor="#e58139"] ;
29 -> 33 ;
34 [label=<squared_error = 0.0<br/>samples = 1<br/>value = 0.0>, fillcolor="#ffffff"] ;
28 -> 34 ;
35 [label=<squared_error = 0.0<br/>samples = 1<br/>value = 0.0>, fillcolor="#ffffff"] ;
27 -> 35 ;
36 [label=<squared_error = 0.0<br/>samples = 14<br/>value = 1.0>, fillcolor="#e58139"] ;
26 -> 36 ;
37 [label=<squared_error = 0.0<br/>samples = 1<br/>value = 0.0>, fillcolor="#ffffff"] ;
25 -> 37 ;
38 [label=<BloodPressure &le; 85.0<br/>squared_error = 0.248<br/>samples = 17<br/>value = 0.455>, fillcolor="#f3c6a5"] ;
24 -> 38 ;
39 [label=<BMI &le; 27.35<br/>squared_error = 0.208<br/>samples = 13<br/>value = 0.294>, fillcolor="#f7dac5"] ;
38 -> 39 ;
40 [label=<BMI &le; 24.0<br/>squared_error = 0.16<br/>samples = 5<br/>value = 0.8>, fillcolor="#ea9a61"] ;
39 -> 40 ;
41 [label=<squared_error = 0.0<br/>samples = 1<br/>value = 0.0>, fillcolor="#ffffff"] ;
40 -> 41 ;
42 [label=<squared_error = 0.0<br/>samples = 4<br/>value = 1.0>, fillcolor="#e58139"] ;
40 -> 42 ;
43 [label=<BMI &le; 34.95<br/>squared_error = 0.076<br/>samples = 8<br/>value = 0.083>, fillcolor="#fdf4ee"] ;
39 -> 43 ;
44 [label=<squared_error = 0.0<br/>samples = 6<br/>value = 0.0>, fillcolor="#ffffff"] ;
43 -> 44 ;
45 [label=<Insulin &le; 123.5<br/>squared_error = 0.25<br/>samples = 2<br/>value = 0.5>, fillcolor="#f2c09c"] ;
43 -> 45 ;
46 [label=<squared_error = 0.0<br/>samples = 1<br/>value = 1.0>, fillcolor="#e58139"] ;
45 -> 46 ;
47 [label=<squared_error = 0.0<br/>samples = 1<br/>value = 0.0>, fillcolor="#ffffff"] ;
45 -> 47 ;
48 [label=<squared_error = 0.0<br/>samples = 4<br/>value = 1.0>, fillcolor="#e58139"] ;
38 -> 48 ;
49 [label=<BMI &le; 26.8<br/>squared_error = 0.236<br/>samples = 79<br/>value = 0.619>, fillcolor="#efb185"] ;
1 -> 49 ;
50 [label=<squared_error = 0.0<br/>samples = 19<br/>value = 1.0>, fillcolor="#e58139"] ;
49 -> 50 ;
51 [label=<Age &le; 28.5<br/>squared_error = 0.25<br/>samples = 60<br/>value = 0.505>, fillcolor="#f2bf9b"] ;
49 -> 51 ;
52 [label=<DiabetesPedigreeFunction &le; 0.544<br/>squared_error = 0.181<br/>samples = 28<br/>value = 0.763>, fillcolor="#eb9f68"] ;
51 -> 52 ;
53 [label=<squared_error = 0.0<br/>samples = 3<br/>value = 0.0>, fillcolor="#ffffff"] ;
52 -> 53 ;
54 [label=<Insulin &le; 156.0<br/>squared_error = 0.107<br/>samples = 25<br/>value = 0.879>, fillcolor="#e89051"] ;
52 -> 54 ;
55 [label=<DiabetesPedigreeFunction &le; 0.904<br/>squared_error = 0.037<br/>samples = 20<br/>value = 0.962>, fillcolor="#e68641"] ;
54 -> 55 ;
56 [label=<squared_error = 0.0<br/>samples = 17<br/>value = 1.0>, fillcolor="#e58139"] ;
55 -> 56 ;
57 [label=<Insulin &le; 90.0<br/>squared_error = 0.222<br/>samples = 3<br/>value = 0.667>, fillcolor="#eeab7b"] ;
55 -> 57 ;
58 [label=<squared_error = 0.0<br/>samples = 2<br/>value = 1.0>, fillcolor="#e58139"] ;
57 -> 58 ;
59 [label=<squared_error = 0.0<br/>samples = 1<br/>value = 0.0>, fillcolor="#ffffff"] ;
57 -> 59 ;
60 [label=<BloodPressure &le; 69.0<br/>squared_error = 0.245<br/>samples = 5<br/>value = 0.571>, fillcolor="#f0b78e"] ;
54 -> 60 ;
61 [label=<DiabetesPedigreeFunction &le; 0.683<br/>squared_error = 0.188<br/>samples = 3<br/>value = 0.25>, fillcolor="#f8e0ce"] ;
60 -> 61 ;
62 [label=<squared_error = 0.0<br/>samples = 2<br/>value = 0.0>, fillcolor="#ffffff"] ;
61 -> 62 ;
63 [label=<squared_error = 0.0<br/>samples = 1<br/>value = 1.0>, fillcolor="#e58139"] ;
61 -> 63 ;
64 [label=<squared_error = 0.0<br/>samples = 2<br/>value = 1.0>, fillcolor="#e58139"] ;
60 -> 64 ;
65 [label=<Glucose &le; 89.5<br/>squared_error = 0.218<br/>samples = 32<br/>value = 0.321>, fillcolor="#f7d7bf"] ;
51 -> 65 ;
66 [label=<squared_error = 0.0<br/>samples = 6<br/>value = 1.0>, fillcolor="#e58139"] ;
65 -> 66 ;
67 [label=<BloodPressure &le; 91.0<br/>squared_error = 0.17<br/>samples = 26<br/>value = 0.217>, fillcolor="#f9e4d4"] ;
65 -> 67 ;
68 [label=<Age &le; 34.5<br/>squared_error = 0.122<br/>samples = 24<br/>value = 0.143>, fillcolor="#fbede3"] ;
67 -> 68 ;
69 [label=<Age &le; 33.5<br/>squared_error = 0.204<br/>samples = 13<br/>value = 0.286>, fillcolor="#f8dbc6"] ;
68 -> 69 ;
70 [label=<BMI &le; 30.3<br/>squared_error = 0.104<br/>samples = 11<br/>value = 0.118>, fillcolor="#fcf0e8"] ;
69 -> 70 ;
71 [label=<squared_error = 0.0<br/>samples = 1<br/>value = 1.0>, fillcolor="#e58139"] ;
70 -> 71 ;
72 [label=<BloodPressure &le; 87.0<br/>squared_error = 0.059<br/>samples = 10<br/>value = 0.062>, fillcolor="#fdf7f3"] ;
70 -> 72 ;
73 [label=<squared_error = 0.0<br/>samples = 9<br/>value = 0.0>, fillcolor="#ffffff"] ;
72 -> 73 ;
74 [label=<squared_error = 0.0<br/>samples = 1<br/>value = 1.0>, fillcolor="#e58139"] ;
72 -> 74 ;
75 [label=<squared_error = 0.0<br/>samples = 2<br/>value = 1.0>, fillcolor="#e58139"] ;
69 -> 75 ;
76 [label=<squared_error = 0.0<br/>samples = 11<br/>value = 0.0>, fillcolor="#ffffff"] ;
68 -> 76 ;
77 [label=<squared_error = 0.0<br/>samples = 2<br/>value = 1.0>, fillcolor="#e58139"] ;
67 -> 77 ;
78 [label=<DiabetesPedigreeFunction &le; 0.339<br/>squared_error = 0.195<br/>samples = 80<br/>value = 0.265>, fillcolor="#f8deca"] ;
0 -> 78 [labeldistance=2.5, labelangle=-45, headlabel="False"] ;
79 [label=<Glucose &le; 160.0<br/>squared_error = 0.248<br/>samples = 39<br/>value = 0.46>, fillcolor="#f3c5a4"] ;
78 -> 79 ;
80 [label=<BMI &le; 35.25<br/>squared_error = 0.219<br/>samples = 23<br/>value = 0.676>, fillcolor="#edaa79"] ;
79 -> 80 ;
81 [label=<DiabetesPedigreeFunction &le; 0.157<br/>squared_error = 0.042<br/>samples = 15<br/>value = 0.957>, fillcolor="#e68642"] ;
80 -> 81 ;
82 [label=<squared_error = 0.0<br/>samples = 1<br/>value = 0.0>, fillcolor="#ffffff"] ;
81 -> 82 ;
83 [label=<squared_error = 0.0<br/>samples = 14<br/>value = 1.0>, fillcolor="#e58139"] ;
81 -> 83 ;
84 [label=<DiabetesPedigreeFunction &le; 0.249<br/>squared_error = 0.168<br/>samples = 8<br/>value = 0.214>, fillcolor="#f9e4d5"] ;
80 -> 84 ;
85 [label=<Glucose &le; 149.5<br/>squared_error = 0.222<br/>samples = 3<br/>value = 0.667>, fillcolor="#eeab7b"] ;
84 -> 85 ;
86 [label=<squared_error = 0.0<br/>samples = 2<br/>value = 1.0>, fillcolor="#e58139"] ;
85 -> 86 ;
87 [label=<squared_error = 0.0<br/>samples = 1<br/>value = 0.0>, fillcolor="#ffffff"] ;
85 -> 87 ;
88 [label=<Insulin &le; 187.0<br/>squared_error = 0.083<br/>samples = 5<br/>value = 0.091>, fillcolor="#fdf4ed"] ;
84 -> 88 ;
89 [label=<squared_error = 0.0<br/>samples = 4<br/>value = 0.0>, fillcolor="#ffffff"] ;
88 -> 89 ;
90 [label=<squared_error = 0.0<br/>samples = 1<br/>value = 1.0>, fillcolor="#e58139"] ;
88 -> 90 ;
91 [label=<Pregnancies &le; 9.5<br/>squared_error = 0.13<br/>samples = 16<br/>value = 0.154>, fillcolor="#fbece1"] ;
79 -> 91 ;
92 [label=<Age &le; 28.5<br/>squared_error = 0.076<br/>samples = 15<br/>value = 0.083>, fillcolor="#fdf4ee"] ;
91 -> 92 ;
93 [label=<squared_error = 0.0<br/>samples = 1<br/>value = 1.0>, fillcolor="#e58139"] ;
92 -> 93 ;
94 [label=<Age &le; 59.5<br/>squared_error = 0.042<br/>samples = 14<br/>value = 0.043>, fillcolor="#fefaf6"] ;
92 -> 94 ;
95 [label=<squared_error = 0.0<br/>samples = 13<br/>value = 0.0>, fillcolor="#ffffff"] ;
94 -> 95 ;
96 [label=<squared_error = 0.0<br/>samples = 1<br/>value = 1.0>, fillcolor="#e58139"] ;
94 -> 96 ;
97 [label=<squared_error = 0.0<br/>samples = 1<br/>value = 1.0>, fillcolor="#e58139"] ;
91 -> 97 ;
98 [label=<Age &le; 30.0<br/>squared_error = 0.079<br/>samples = 41<br/>value = 0.087>, fillcolor="#fdf4ee"] ;
78 -> 98 ;
99 [label=<BMI &le; 30.65<br/>squared_error = 0.193<br/>samples = 17<br/>value = 0.261>, fillcolor="#f8decb"] ;
98 -> 99 ;
100 [label=<squared_error = 0.0<br/>samples = 3<br/>value = 1.0>, fillcolor="#e58139"] ;
99 -> 100 ;
101 [label=<Pregnancies &le; 5.5<br/>squared_error = 0.128<br/>samples = 14<br/>value = 0.15>, fillcolor="#fbece1"] ;
99 -> 101 ;
102 [label=<DiabetesPedigreeFunction &le; 0.881<br/>squared_error = 0.094<br/>samples = 13<br/>value = 0.105>, fillcolor="#fcf2ea"] ;
101 -> 102 ;
103 [label=<Age &le; 27.5<br/>squared_error = 0.052<br/>samples = 12<br/>value = 0.056>, fillcolor="#fef8f4"] ;
102 -> 103 ;
104 [label=<squared_error = 0.0<br/>samples = 10<br/>value = 0.0>, fillcolor="#ffffff"] ;
103 -> 104 ;
105 [label=<BloodPressure &le; 74.0<br/>squared_error = 0.222<br/>samples = 2<br/>value = 0.333>, fillcolor="#f6d5bd"] ;
103 -> 105 ;
106 [label=<squared_error = 0.0<br/>samples = 1<br/>value = 0.0>, fillcolor="#ffffff"] ;
105 -> 106 ;
107 [label=<squared_error = 0.0<br/>samples = 1<br/>value = 1.0>, fillcolor="#e58139"] ;
105 -> 107 ;
108 [label=<squared_error = 0.0<br/>samples = 1<br/>value = 1.0>, fillcolor="#e58139"] ;
102 -> 108 ;
109 [label=<squared_error = 0.0<br/>samples = 1<br/>value = 1.0>, fillcolor="#e58139"] ;
101 -> 109 ;
110 [label=<squared_error = 0.0<br/>samples = 24<br/>value = 0.0>, fillcolor="#ffffff"] ;
98 -> 110 ;
}