digraph Tree {
node [shape=box, style="filled, rounded", color="black", fontname="helvetica"] ;
edge [fontname="helvetica"] ;
0 [label=<Glucose &le; 154.5<br/>gini = 0.452<br/>samples = 325<br/>value = [175, 333]<br/>class = 0>, fillcolor="#a1d1f3"] ;
1 [label=<Glucose &le; 121.5<br/>gini = 0.381<br/>samples = 282<br/>value = [113.0, 329.0]<br/>class = 0>, fillcolor="#7dbfee"] ;
0 -> 1 [labeldistance=2.5, labelangle=45, headlabel="True"] ;
2 [label=<Pregnancies &le; 6.5<br/>gini = 0.263<br/>samples = 189<br/>value = [46, 249]<br/>class = 0>, fillcolor="#5eafea"] ;
1 -> 2 ;
3 [label=<Age &le; 30.5<br/>gini = 0.191<br/>samples = 160<br/>value = [27, 225]<br/>class = 0>, fillcolor="#51a9e8"] ;
2 -> 3 ;
4 [label=<BMI &le; 45.4<br/>gini = 0.095<br/>samples = 126<br/>value = [10, 189]<br/>class = 0>, fillcolor="#43a2e6"] ;
3 -> 4 ;
5 [label=<DiabetesPedigreeFunction &le; 0.69<br/>gini = 0.078<br/>samples = 125<br/>value = [8.0, 189.0]<br/>class = 0>, fillcolor="#41a1e6"] ;
4 -> 5 ;
6 [label=<BloodPressure &le; 64.5<br/>gini = 0.045<br/>samples = 113<br/>value = [4, 169]<br/>class = 0>, fillcolor="#3e9fe6"] ;
5 -> 6 ;
7 [label=<Age &le; 29.0<br/>gini = 0.097<br/>samples = 50<br/>value = [4, 74]<br/>class = 0>, fillcolor="#44a2e6"] ;
6 -> 7 ;
8 [label=<BMI &le; 33.45<br/>gini = 0.078<br/>samples = 47<br/>value = [3, 71]<br/>class = 0>, fillcolor="#41a1e6"] ;
7 -> 8 ;
9 [label=<gini = 0.0<br/>samples = 34<br/>value = [0, 51]<br/>class = 0>, fillcolor="#399de5"] ;
8 -> 9 ;
10 [label=<Glucose &le; 112.0<br/>gini = 0.227<br/>samples = 13<br/>value = [3, 20]<br/>class = 0>, fillcolor="#57ace9"] ;
8 -> 10 ;
11 [label=<gini = 0.0<br/>samples = 10<br/>value = [0, 19]<br/>class = 0>, fillcolor="#399de5"] ;
10 -> 11 ;
12 [label=<DiabetesPedigreeFunction &le; 0.504<br/>gini = 0.375<br/>samples = 3<br/>value = [3, 1]<br/>class = 1>, fillcolor="#eeab7b"] ;
10 -> 12 ;
13 [label=<Glucose &le; 119.0<br/>gini = 0.5<br/>samples = 2<br/>value = [1, 1]<br/>class = 1>, fillcolor="#ffffff"] ;
12 -> 13 ;
14 [label=<gini = 0.0<br/>samples = 1<br/>value = [0, 1]<br/>class = 0>, fillcolor="#399de5"] ;
13 -> 14 ;
15 [label=<gini = 0.0<br/>samples = 1<br/>value = [1, 0]<br/>class = 1>, fillcolor="#e58139"] ;
13 -> 15 ;
16 [label=<gini = 0.0<br/>samples = 1<br/>value = [2, 0]<br/>class = 1>, fillcolor="#e58139"] ;
12 -> 16 ;
17 [label=<BloodPressure &le; 59.0<br/>gini = 0.375<br/>samples = 3<br/>value = [1, 3]<br/>class = 0>, fillcolor="#7bbeee"] ;
7 -> 17 ;
18 [label=<gini = 0.0<br/>samples = 2<br/>value = [0, 3]<br/>class = 0>, fillcolor="#399de5"] ;
17 -> 18 ;
19 [label=<gini = 0.0<br/>samples = 1<br/>value = [1, 0]<br/>class = 1>, fillcolor="#e58139"] ;
17 -> 19 ;
20 [label=<gini = 0.0<br/>samples = 63<br/>value = [0, 95]<br/>class = 0>, fillcolor="#399de5"] ;
6 -> 20 ;
21 [label=<Age &le; 28.0<br/>gini = 0.278<br/>samples = 12<br/>value = [4, 20]<br/>class = 0>, fillcolor="#61b1ea"] ;
5 -> 21 ;
22 [label=<BloodPressure &le; 77.0<br/>gini = 0.165<br/>samples = 11<br/>value = [2, 20]<br/>class = 0>, fillcolor="#4da7e8"] ;
21 -> 22 ;
23 [label=<gini = 0.0<br/>samples = 8<br/>value = [0, 18]<br/>class = 0>, fillcolor="#399de5"] ;
22 -> 23 ;
24 [label=<Pregnancies &le; 1.0<br/>gini = 0.5<br/>samples = 3<br/>value = [2, 2]<br/>class = 1>, fillcolor="#ffffff"] ;
22 -> 24 ;
25 [label=<gini = 0.0<br/>samples = 2<br/>value = [0, 2]<br/>class = 0>, fillcolor="#399de5"] ;
24 -> 25 ;
26 [label=<gini = 0.0<br/>samples = 1<br/>value = [2, 0]<br/>class = 1>, fillcolor="#e58139"] ;
24 -> 26 ;
27 [label=<gini = 0.0<br/>samples = 1<br/>value = [2, 0]<br/>class = 1>, fillcolor="#e58139"] ;
21 -> 27 ;
28 [label=<gini = 0.0<br/>samples = 1<br/>value = [2, 0]<br/>class = 1>, fillcolor="#e58139"] ;
4 -> 28 ;
29 [label=<Insulin &le; 21.0<br/>gini = 0.436<br/>samples = 34<br/>value = [17, 36]<br/>class = 0>, fillcolor="#96cbf1"] ;
3 -> 29 ;
30 [label=<BMI &le; 27.75<br/>gini = 0.494<br/>samples = 22<br/>value = [16, 20]<br/>class = 0>, fillcolor="#d7ebfa"] ;
29 -> 30 ;
31 [label=<gini = 0.0<br/>samples = 6<br/>value = [0, 9]<br/>class = 0>, fillcolor="#399de5"] ;
30 -> 31 ;
32 [label=<Glucose &le; 89.0<br/>gini = 0.483<br/>samples = 16<br/>value = [16, 11]<br/>class = 1>, fillcolor="#f7d8c1"] ;
30 -> 32 ;
33 [label=<gini = 0.0<br/>samples = 3<br/>value = [0, 3]<br/>class = 0>, fillcolor="#399de5"] ;
32 -> 33 ;
34 [label=<BloodPressure &le; 91.0<br/>gini = 0.444<br/>samples = 13<br/>value = [16, 8]<br/>class = 1>, fillcolor="#f2c09c"] ;
32 -> 34 ;
35 [label=<Glucose &le; 118.0<br/>gini = 0.397<br/>samples = 12<br/>value = [16, 6]<br/>class = 1>, fillcolor="#efb083"] ;
34 -> 35 ;
36 [label=<BloodPressure &le; 69.0<br/>gini = 0.363<br/>samples = 11<br/>value = [16, 5]<br/>class = 1>, fillcolor="#eda877"] ;
35 -> 36 ;
37 [label=<gini = 0.0<br/>samples = 1<br/>value = [5, 0]<br/>class = 1>, fillcolor="#e58139"] ;
36 -> 37 ;
38 [label=<Pregnancies &le; 1.5<br/>gini = 0.43<br/>samples = 10<br/>value = [11, 5]<br/>class = 1>, fillcolor="#f1ba93"] ;
36 -> 38 ;
39 [label=<gini = 0.0<br/>samples = 2<br/>value = [4, 0]<br/>class = 1>, fillcolor="#e58139"] ;
38 -> 39 ;
40 [label=<Pregnancies &le; 4.0<br/>gini = 0.486<br/>samples = 8<br/>value = [7, 5]<br/>class = 1>, fillcolor="#f8dbc6"] ;
38 -> 40 ;
41 [label=<gini = 0.0<br/>samples = 2<br/>value = [0, 3]<br/>class = 0>, fillcolor="#399de5"] ;
40 -> 41 ;
42 [label=<Glucose &le; 104.5<br/>gini = 0.346<br/>samples = 6<br/>value = [7, 2]<br/>class = 1>, fillcolor="#eca572"] ;
40 -> 42 ;
43 [label=<gini = 0.0<br/>samples = 2<br/>value = [4, 0]<br/>class = 1>, fillcolor="#e58139"] ;
42 -> 43 ;
44 [label=<Age &le; 33.0<br/>gini = 0.48<br/>samples = 4<br/>value = [3, 2]<br/>class = 1>, fillcolor="#f6d5bd"] ;
42 -> 44 ;
45 [label=<gini = 0.0<br/>samples = 1<br/>value = [0, 1]<br/>class = 0>, fillcolor="#399de5"] ;
44 -> 45 ;
46 [label=<Age &le; 52.0<br/>gini = 0.375<br/>samples = 3<br/>value = [3, 1]<br/>class = 1>, fillcolor="#eeab7b"] ;
44 -> 46 ;
47 [label=<gini = 0.0<br/>samples = 2<br/>value = [3, 0]<br/>class = 1>, fillcolor="#e58139"] ;
46 -> 47 ;
48 [label=<gini = 0.0<br/>samples = 1<br/>value = [0, 1]<br/>class = 0>, fillcolor="#399de5"] ;
46 -> 48 ;
49 [label=<gini = 0.0<br/>samples = 1<br/>value = [0, 1]<br/>class = 0>, fillcolor="#399de5"] ;
35 -> 49 ;
50 [label=<gini = 0.0<br/>samples = 1<br/>value = [0, 2]<br/>class = 0>, fillcolor="#399de5"] ;
34 -> 50 ;
51 [label=<Insulin &le; 155.0<br/>gini = 0.111<br/>samples = 12<br/>value = [1, 16]<br/>class = 0>, fillcolor="#45a3e7"] ;
29 -> 51 ;
52 [label=<gini = 0.0<br/>samples = 8<br/>value = [0, 10]<br/>class = 0>, fillcolor="#399de5"] ;
51 -> 52 ;
53 [label=<DiabetesPedigreeFunction &le; 0.332<br/>gini = 0.245<br/>samples = 4<br/>value = [1, 6]<br/>class = 0>, fillcolor="#5aade9"] ;
51 -> 53 ;
54 [label=<gini = 0.0<br/>samples = 1<br/>value = [1, 0]<br/>class = 1>, fillcolor="#e58139"] ;
53 -> 54 ;
55 [label=<gini = 0.0<br/>samples = 3<br/>value = [0, 6]<br/>class = 0>, fillcolor="#399de5"] ;
53 -> 55 ;
56 [label=<BloodPressure &le; 73.0<br/>gini = 0.493<br/>samples = 29<br/>value = [19, 24]<br/>class = 0>, fillcolor="#d6ebfa"] ;
2 -> 56 ;
57 [label=<BloodPressure &le; 64.0<br/>gini = 0.375<br/>samples = 6<br/>value = [6, 2]<br/>class = 1>, fillcolor="#eeab7b"] ;
56 -> 57 ;
58 [label=<Age &le; 43.0<br/>gini = 0.444<br/>samples = 3<br/>value = [1, 2]<br/>class = 0>, fillcolor="#9ccef2"] ;
57 -> 58 ;
59 [label=<gini = 0.0<br/>samples = 2<br/>value = [0, 2]<br/>class = 0>, fillcolor="#399de5"] ;
58 -> 59 ;
60 [label=<gini = 0.0<br/>samples = 1<br/>value = [1, 0]<br/>class = 1>, fillcolor="#e58139"] ;
58 -> 60 ;
61 [label=<gini = 0.0<br/>samples = 3<br/>value = [5, 0]<br/>class = 1>, fillcolor="#e58139"] ;
57 -> 61 ;
62 [label=<Glucose &le; 91.0<br/>gini = 0.467<br/>samples = 23<br/>value = [13, 22]<br/>class = 0>, fillcolor="#aed7f4"] ;
56 -> 62 ;
63 [label=<gini = 0.0<br/>samples = 5<br/>value = [0, 9]<br/>class = 0>, fillcolor="#399de5"] ;
62 -> 63 ;
64 [label=<Age &le; 43.5<br/>gini = 0.5<br/>samples = 18<br/>value = [13, 13]<br/>class = 1>, fillcolor="#ffffff"] ;
62 -> 64 ;
65 [label=<BloodPressure &le; 92.0<br/>gini = 0.355<br/>samples = 10<br/>value = [10, 3]<br/>class = 1>, fillcolor="#eda774"] ;
64 -> 65 ;
66 [label=<Age &le; 30.0<br/>gini = 0.278<br/>samples = 9<br/>value = [10, 2]<br/>class = 1>, fillcolor="#ea9a61"] ;
65 -> 66 ;
67 [label=<gini = 0.0<br/>samples = 2<br/>value = [4, 0]<br/>class = 1>, fillcolor="#e58139"] ;
66 -> 67 ;
68 [label=<Glucose &le; 111.5<br/>gini = 0.375<br/>samples = 7<br/>value = [6, 2]<br/>class = 1>, fillcolor="#eeab7b"] ;
66 -> 68 ;
69 [label=<Age &le; 36.0<br/>gini = 0.245<br/>samples = 6<br/>value = [6, 1]<br/>class = 1>, fillcolor="#e9965a"] ;
68 -> 69 ;
70 [label=<BloodPressure &le; 78.0<br/>gini = 0.444<br/>samples = 3<br/>value = [2, 1]<br/>class = 1>, fillcolor="#f2c09c"] ;
69 -> 70 ;
71 [label=<gini = 0.0<br/>samples = 2<br/>value = [2, 0]<br/>class = 1>, fillcolor="#e58139"] ;
70 -> 71 ;
72 [label=<gini = 0.0<br/>samples = 1<br/>value = [0, 1]<br/>class = 0>, fillcolor="#399de5"] ;
70 -> 72 ;
73 [label=<gini = 0.0<br/>samples = 3<br/>value = [4, 0]<br/>class = 1>, fillcolor="#e58139"] ;
69 -> 73 ;
74 [label=<gini = 0.0<br/>samples = 1<br/>value = [0, 1]<br/>class = 0>, fillcolor="#399de5"] ;
68 -> 74 ;
75 [label=<gini = 0.0<br/>samples = 1<br/>value = [0, 1]<br/>class = 0>, fillcolor="#399de5"] ;
65 -> 75 ;
76 [label=<BloodPressure &le; 96.0<br/>gini = 0.355<br/>samples = 8<br/>value = [3, 10]<br/>class = 0>, fillcolor="#74baed"] ;
64 -> 76 ;
77 [label=<BMI &le; 39.75<br/>gini = 0.165<br/>samples = 7<br/>value = [1, 10]<br/>class = 0>, fillcolor="#4da7e8"] ;
76 -> 77 ;
78 [label=<gini = 0.0<br/>samples = 6<br/>value = [0, 10]<br/>class = 0>, fillcolor="#399de5"] ;
77 -> 78 ;
79 [label=<gini = 0.0<br/>samples = 1<br/>value = [1, 0]<br/>class = 1>, fillcolor="#e58139"] ;
77 -> 79 ;
80 [label=<gini = 0.0<br/>samples = 1<br/>value = [2, 0]<br/>class = 1>, fillcolor="#e58139"] ;
76 -> 80 ;
81 [label=<BMI &le; 28.85<br/>gini = 0.496<br/>samples = 93<br/>value = [67.0, 80.0]<br/>class = 0>, fillcolor="#dfeffb"] ;
1 -> 81 ;
82 [label=<Insulin &le; 14.5<br/>gini = 0.291<br/>samples = 23<br/>value = [6, 28]<br/>class = 0>, fillcolor="#63b2eb"] ;
81 -> 82 ;
83 [label=<BloodPressure &le; 57.0<br/>gini = 0.172<br/>samples = 13<br/>value = [2, 19]<br/>class = 0>, fillcolor="#4ea7e8"] ;
82 -> 83 ;
84 [label=<Pregnancies &le; 2.0<br/>gini = 0.5<br/>samples = 2<br/>value = [1, 1]<br/>class = 1>, fillcolor="#ffffff"] ;
83 -> 84 ;
85 [label=<gini = 0.0<br/>samples = 1<br/>value = [0, 1]<br/>class = 0>, fillcolor="#399de5"] ;
84 -> 85 ;
86 [label=<gini = 0.0<br/>samples = 1<br/>value = [1, 0]<br/>class = 1>, fillcolor="#e58139"] ;
84 -> 86 ;
87 [label=<BMI &le; 24.0<br/>gini = 0.1<br/>samples = 11<br/>value = [1, 18]<br/>class = 0>, fillcolor="#44a2e6"] ;
83 -> 87 ;
88 [label=<BMI &le; 23.45<br/>gini = 0.198<br/>samples = 5<br/>value = [1, 8]<br/>class = 0>, fillcolor="#52a9e8"] ;
87 -> 88 ;
89 [label=<gini = 0.0<br/>samples = 4<br/>value = [0, 8]<br/>class = 0>, fillcolor="#399de5"] ;
88 -> 89 ;
90 [label=<gini = 0.0<br/>samples = 1<br/>value = [1, 0]<br/>class = 1>, fillcolor="#e58139"] ;
88 -> 90 ;
91 [label=<gini = 0.0<br/>samples = 6<br/>value = [0, 10]<br/>class = 0>, fillcolor="#399de5"] ;
87 -> 91 ;
92 [label=<Age &le; 26.0<br/>gini = 0.426<br/>samples = 10<br/>value = [4, 9]<br/>class = 0>, fillcolor="#91c9f1"] ;
82 -> 92 ;
93 [label=<gini = 0.0<br/>samples = 6<br/>value = [0, 6]<br/>class = 0>, fillcolor="#399de5"] ;
92 -> 93 ;
94 [label=<Age &le; 52.0<br/>gini = 0.49<br/>samples = 4<br/>value = [4, 3]<br/>class = 1>, fillcolor="#f8e0ce"] ;
92 -> 94 ;
95 [label=<gini = 0.0<br/>samples = 3<br/>value = [4, 0]<br/>class = 1>, fillcolor="#e58139"] ;
94 -> 95 ;
96 [label=<gini = 0.0<br/>samples = 1<br/>value = [0, 3]<br/>class = 0>, fillcolor="#399de5"] ;
94 -> 96 ;
97 [label=<Pregnancies &le; 7.5<br/>gini = 0.497<br/>samples = 70<br/>value = [61.0, 52.0]<br/>class = 1>, fillcolor="#fbece2"] ;
81 -> 97 ;
98 [label=<DiabetesPedigreeFunction &le; 0.344<br/>gini = 0.499<br/>samples = 57<br/>value = [45, 48]<br/>class = 0>, fillcolor="#f3f9fd"] ;
97 -> 98 ;
99 [label=<Insulin &le; 301.0<br/>gini = 0.381<br/>samples = 26<br/>value = [10, 29]<br/>class = 0>, fillcolor="#7dbfee"] ;
98 -> 99 ;
100 [label=<Age &le; 41.5<br/>gini = 0.313<br/>samples = 25<br/>value = [7, 29]<br/>class = 0>, fillcolor="#69b5eb"] ;
99 -> 100 ;
101 [label=<Insulin &le; 50.0<br/>gini = 0.077<br/>samples = 16<br/>value = [1, 24]<br/>class = 0>, fillcolor="#41a1e6"] ;
100 -> 101 ;
102 [label=<BMI &le; 32.25<br/>gini = 0.219<br/>samples = 7<br/>value = [1, 7]<br/>class = 0>, fillcolor="#55abe9"] ;
101 -> 102 ;
103 [label=<Age &le; 29.5<br/>gini = 0.5<br/>samples = 2<br/>value = [1, 1]<br/>class = 1>, fillcolor="#ffffff"] ;
102 -> 103 ;
104 [label=<gini = 0.0<br/>samples = 1<br/>value = [0, 1]<br/>class = 0>, fillcolor="#399de5"] ;
103 -> 104 ;
105 [label=<gini = 0.0<br/>samples = 1<br/>value = [1, 0]<br/>class = 1>, fillcolor="#e58139"] ;
103 -> 105 ;
106 [label=<gini = 0.0<br/>samples = 5<br/>value = [0, 6]<br/>class = 0>, fillcolor="#399de5"] ;
102 -> 106 ;
107 [label=<gini = 0.0<br/>samples = 9<br/>value = [0, 17]<br/>class = 0>, fillcolor="#399de5"] ;
101 -> 107 ;
108 [label=<BMI &le; 38.5<br/>gini = 0.496<br/>samples = 9<br/>value = [6, 5]<br/>class = 1>, fillcolor="#fbeade"] ;
100 -> 108 ;
109 [label=<BloodPressure &le; 96.0<br/>gini = 0.444<br/>samples = 6<br/>value = [2, 4]<br/>class = 0>, fillcolor="#9ccef2"] ;
108 -> 109 ;
110 [label=<DiabetesPedigreeFunction &le; 0.194<br/>gini = 0.32<br/>samples = 5<br/>value = [1, 4]<br/>class = 0>, fillcolor="#6ab6ec"] ;
109 -> 110 ;
111 [label=<BMI &le; 32.05<br/>gini = 0.5<br/>samples = 2<br/>value = [1, 1]<br/>class = 1>, fillcolor="#ffffff"] ;
110 -> 111 ;
112 [label=<gini = 0.0<br/>samples = 1<br/>value = [1, 0]<br/>class = 1>, fillcolor="#e58139"] ;
111 -> 112 ;
113 [label=<gini = 0.0<br/>samples = 1<br/>value = [0, 1]<br/>class = 0>, fillcolor="#399de5"] ;
111 -> 113 ;
114 [label=<gini = 0.0<br/>samples = 3<br/>value = [0, 3]<br/>class = 0>, fillcolor="#399de5"] ;
110 -> 114 ;
115 [label=<gini = 0.0<br/>samples = 1<br/>value = [1, 0]<br/>class = 1>, fillcolor="#e58139"] ;
109 -> 115 ;
116 [label=<BloodPressure &le; 77.0<br/>gini = 0.32<br/>samples = 3<br/>value = [4, 1]<br/>class = 1>, fillcolor="#eca06a"] ;
108 -> 116 ;
117 [label=<gini = 0.0<br/>samples = 1<br/>value = [2, 0]<br/>class = 1>, fillcolor="#e58139"] ;
116 -> 117 ;
118 [label=<Insulin &le; 90.0<br/>gini = 0.444<br/>samples = 2<br/>value = [2, 1]<br/>class = 1>, fillcolor="#f2c09c"] ;
116 -> 118 ;
119 [label=<gini = 0.0<br/>samples = 1<br/>value = [0, 1]<br/>class = 0>, fillcolor="#399de5"] ;
118 -> 119 ;
120 [label=<gini = 0.0<br/>samples = 1<br/>value = [2, 0]<br/>class = 1>, fillcolor="#e58139"] ;
118 -> 120 ;
121 [label=<gini = 0.0<br/>samples = 1<br/>value = [3, 0]<br/>class = 1>, fillcolor="#e58139"] ;
99 -> 121 ;
122 [label=<Age &le; 41.0<br/>gini = 0.456<br/>samples = 31<br/>value = [35, 19]<br/>class = 1>, fillcolor="#f3c5a4"] ;
98 -> 122 ;
123 [label=<BloodPressure &le; 71.0<br/>gini = 0.488<br/>samples = 27<br/>value = [26.0, 19.0]<br/>class = 1>, fillcolor="#f8ddca"] ;
122 -> 123 ;
124 [label=<Insulin &le; 118.0<br/>gini = 0.365<br/>samples = 12<br/>value = [19, 6]<br/>class = 1>, fillcolor="#eda978"] ;
123 -> 124 ;
125 [label=<Glucose &le; 131.0<br/>gini = 0.5<br/>samples = 4<br/>value = [4, 4]<br/>class = 1>, fillcolor="#ffffff"] ;
124 -> 125 ;
126 [label=<gini = 0.0<br/>samples = 3<br/>value = [0, 4]<br/>class = 0>, fillcolor="#399de5"] ;
125 -> 126 ;
127 [label=<gini = 0.0<br/>samples = 1<br/>value = [4, 0]<br/>class = 1>, fillcolor="#e58139"] ;
125 -> 127 ;
128 [label=<Pregnancies &le; 1.5<br/>gini = 0.208<br/>samples = 8<br/>value = [15, 2]<br/>class = 1>, fillcolor="#e89253"] ;
124 -> 128 ;
129 [label=<gini = 0.0<br/>samples = 5<br/>value = [12, 0]<br/>class = 1>, fillcolor="#e58139"] ;
128 -> 129 ;
130 [label=<BloodPressure &le; 53.0<br/>gini = 0.48<br/>samples = 3<br/>value = [3, 2]<br/>class = 1>, fillcolor="#f6d5bd"] ;
128 -> 130 ;
131 [label=<gini = 0.0<br/>samples = 1<br/>value = [0, 2]<br/>class = 0>, fillcolor="#399de5"] ;
130 -> 131 ;
132 [label=<gini = 0.0<br/>samples = 2<br/>value = [3, 0]<br/>class = 1>, fillcolor="#e58139"] ;
130 -> 132 ;
133 [label=<BMI &le; 46.05<br/>gini = 0.455<br/>samples = 15<br/>value = [7, 13]<br/>class = 0>, fillcolor="#a4d2f3"] ;
123 -> 133 ;
134 [label=<Age &le; 35.5<br/>gini = 0.36<br/>samples = 14<br/>value = [4, 13]<br/>class = 0>, fillcolor="#76bbed"] ;
133 -> 134 ;
135 [label=<DiabetesPedigreeFunction &le; 0.564<br/>gini = 0.245<br/>samples = 11<br/>value = [2, 12]<br/>class = 0>, fillcolor="#5aade9"] ;
134 -> 135 ;
136 [label=<Pregnancies &le; 2.0<br/>gini = 0.5<br/>samples = 3<br/>value = [2, 2]<br/>class = 1>, fillcolor="#ffffff"] ;
135 -> 136 ;
137 [label=<gini = 0.0<br/>samples = 1<br/>value = [0, 1]<br/>class = 0>, fillcolor="#399de5"] ;
136 -> 137 ;
138 [label=<Glucose &le; 136.0<br/>gini = 0.444<br/>samples = 2<br/>value = [2, 1]<br/>class = 1>, fillcolor="#f2c09c"] ;
136 -> 138 ;
139 [label=<gini = 0.0<br/>samples = 1<br/>value = [2, 0]<br/>class = 1>, fillcolor="#e58139"] ;
138 -> 139 ;
140 [label=<gini = 0.0<br/>samples = 1<br/>value = [0, 1]<br/>class = 0>, fillcolor="#399de5"] ;
138 -> 140 ;
141 [label=<gini = 0.0<br/>samples = 8<br/>value = [0, 10]<br/>class = 0>, fillcolor="#399de5"] ;
135 -> 141 ;
142 [label=<Age &le; 38.0<br/>gini = 0.444<br/>samples = 3<br/>value = [2, 1]<br/>class = 1>, fillcolor="#f2c09c"] ;
134 -> 142 ;
143 [label=<gini = 0.0<br/>samples = 2<br/>value = [2, 0]<br/>class = 1>, fillcolor="#e58139"] ;
142 -> 143 ;
144 [label=<gini = 0.0<br/>samples = 1<br/>value = [0, 1]<br/>class = 0>, fillcolor="#399de5"] ;
142 -> 144 ;
145 [label=<gini = 0.0<br/>samples = 1<br/>value = [3, 0]<br/>class = 1>, fillcolor="#e58139"] ;
133 -> 145 ;
146 [label=<gini = 0.0<br/>samples = 4<br/>value = [9, 0]<br/>class = 1>, fillcolor="#e58139"] ;
122 -> 146 ;
147 [label=<BloodPressure &le; 75.0<br/>gini = 0.32<br/>samples = 13<br/>value = [16, 4]<br/>class = 1>, fillcolor="#eca06a"] ;
97 -> 147 ;
148 [label=<gini = 0.0<br/>samples = 7<br/>value = [11, 0]<br/>class = 1>, fillcolor="#e58139"] ;
147 -> 148 ;
149 [label=<BMI &le; 36.9<br/>gini = 0.494<br/>samples = 6<br/>value = [5, 4]<br/>class = 1>, fillcolor="#fae6d7"] ;
147 -> 149 ;
150 [label=<gini = 0.0<br/>samples = 3<br/>value = [0, 4]<br/>class = 0>, fillcolor="#399de5"] ;
149 -> 150 ;
151 [label=<gini = 0.0<br/>samples = 3<br/>value = [5, 0]<br/>class = 1>, fillcolor="#e58139"] ;
149 -> 151 ;
152 [label=<Glucose &le; 160.0<br/>gini = 0.114<br/>samples = 43<br/>value = [62, 4]<br/>class = 1>, fillcolor="#e78946"] ;
0 -> 152 [labeldistance=2.5, labelangle=-45, headlabel="False"] ;
153 [label=<Insulin &le; 48.0<br/>gini = 0.346<br/>samples = 7<br/>value = [7, 2]<br/>class = 1>, fillcolor="#eca572"] ;
152 -> 153 ;
154 [label=<BloodPressure &le; 74.0<br/>gini = 0.444<br/>samples = 5<br/>value = [4, 2]<br/>class = 1>, fillcolor="#f2c09c"] ;
153 -> 154 ;
155 [label=<Age &le; 38.0<br/>gini = 0.444<br/>samples = 3<br/>value = [1, 2]<br/>class = 0>, fillcolor="#9ccef2"] ;
154 -> 155 ;
156 [label=<gini = 0.0<br/>samples = 1<br/>value = [1, 0]<br/>class = 1>, fillcolor="#e58139"] ;
155 -> 156 ;
157 [label=<gini = 0.0<br/>samples = 2<br/>value = [0, 2]<br/>class = 0>, fillcolor="#399de5"] ;
155 -> 157 ;
158 [label=<gini = 0.0<br/>samples = 2<br/>value = [3, 0]<br/>class = 1>, fillcolor="#e58139"] ;
154 -> 158 ;
159 [label=<gini = 0.0<br/>samples = 2<br/>value = [3, 0]<br/>class = 1>, fillcolor="#e58139"] ;
153 -> 159 ;
160 [label=<DiabetesPedigreeFunction &le; 0.28<br/>gini = 0.068<br/>samples = 36<br/>value = [55, 2]<br/>class = 1>, fillcolor="#e68640"] ;
152 -> 160 ;
161 [label=<BMI &le; 42.8<br/>gini = 0.208<br/>samples = 12<br/>value = [15, 2]<br/>class = 1>, fillcolor="#e89253"] ;
160 -> 161 ;
162 [label=<DiabetesPedigreeFunction &le; 0.189<br/>gini = 0.124<br/>samples = 10<br/>value = [14, 1]<br/>class = 1>, fillcolor="#e78a47"] ;
161 -> 162 ;
163 [label=<gini = 0.0<br/>samples = 7<br/>value = [10, 0]<br/>class = 1>, fillcolor="#e58139"] ;
162 -> 163 ;
164 [label=<Pregnancies &le; 8.5<br/>gini = 0.32<br/>samples = 3<br/>value = [4, 1]<br/>class = 1>, fillcolor="#eca06a"] ;
162 -> 164 ;
165 [label=<gini = 0.0<br/>samples = 2<br/>value = [4, 0]<br/>class = 1>, fillcolor="#e58139"] ;
164 -> 165 ;
166 [label=<gini = 0.0<br/>samples = 1<br/>value = [0, 1]<br/>class = 0>, fillcolor="#399de5"] ;
164 -> 166 ;
167 [label=<DiabetesPedigreeFunction &le; 0.198<br/>gini = 0.5<br/>samples = 2<br/>value = [1, 1]<br/>class = 1>, fillcolor="#ffffff"] ;
161 -> 167 ;
168 [label=<gini = 0.0<br/>samples = 1<br/>value = [1, 0]<br/>class = 1>, fillcolor="#e58139"] ;
167 -> 168 ;
169 [label=<gini = 0.0<br/>samples = 1<br/>value = [0, 1]<br/>class = 0>, fillcolor="#399de5"] ;
167 -> 169 ;
170 [label=<gini = 0.0<br/>samples = 24<br/>value = [40, 0]<br/>class = 1>, fillcolor="#e58139"] ;
160 -> 170 ;
}