digraph Tree {
node [shape=box, style="filled, rounded", color="black", fontname="helvetica"] ;
edge [fontname="helvetica"] ;
0 [label=<Glucose &le; 156.0<br/>squared_error = 0.21<br/>samples = 324<br/>value = 0.699>, fillcolor="#eda775"] ;
1 [label=<Age &le; 40.5<br/>squared_error = 0.174<br/>samples = 287<br/>value = 0.775>, fillcolor="#eb9d66"] ;
0 -> 1 [labeldistance=2.5, labelangle=45, headlabel="True"] ;
2 [label=<BMI &le; 45.4<br/>squared_error = 0.137<br/>samples = 230<br/>value = 0.836>, fillcolor="#e99659"] ;
1 -> 2 ;
3 [label=<Glucose &le; 102.5<br/>squared_error = 0.121<br/>samples = 224<br/>value = 0.859>, fillcolor="#e99355"] ;
2 -> 3 ;
4 [label=<Insulin &le; 150.0<br/>squared_error = 0.022<br/>samples = 86<br/>value = 0.978>, fillcolor="#e6843d"] ;
3 -> 4 ;
5 [label=<Age &le; 30.5<br/>squared_error = 0.015<br/>samples = 84<br/>value = 0.985>, fillcolor="#e5833c"] ;
4 -> 5 ;
6 [label=<squared_error = 0.0<br/>samples = 67<br/>value = 1.0>, fillcolor="#e58139"] ;
5 -> 6 ;
7 [label=<Glucose &le; 96.5<br/>squared_error = 0.074<br/>samples = 17<br/>value = 0.92>, fillcolor="#e78b49"] ;
5 -> 7 ;
8 [label=<DiabetesPedigreeFunction &le; 0.164<br/>squared_error = 0.04<br/>samples = 16<br/>value = 0.958>, fillcolor="#e68641"] ;
7 -> 8 ;
9 [label=<BMI &le; 27.25<br/>squared_error = 0.222<br/>samples = 2<br/>value = 0.667>, fillcolor="#eeab7b"] ;
8 -> 9 ;
10 [label=<squared_error = 0.0<br/>samples = 1<br/>value = 1.0>, fillcolor="#e58139"] ;
9 -> 10 ;
11 [label=<squared_error = 0.0<br/>samples = 1<br/>value = 0.0>, fillcolor="#ffffff"] ;
9 -> 11 ;
12 [label=<squared_error = 0.0<br/>samples = 14<br/>value = 1.0>, fillcolor="#e58139"] ;
8 -> 12 ;
13 [label=<squared_error = 0.0<br/>samples = 1<br/>value = 0.0>, fillcolor="#ffffff"] ;
7 -> 13 ;
14 [label=<Insulin &le; 212.5<br/>squared_error = 0.25<br/>samples = 2<br/>value = 0.5>, fillcolor="#f2c09c"] ;
4 -> 14 ;
15 [label=<squared_error = 0.0<br/>samples = 1<br/>value = 0.0>, fillcolor="#ffffff"] ;
14 -> 15 ;
16 [label=<squared_error = 0.0<br/>samples = 1<br/>value = 1.0>, fillcolor="#e58139"] ;
14 -> 16 ;
17 [label=<DiabetesPedigreeFunction &le; 0.294<br/>squared_error = 0.168<br/>samples = 138<br/>value = 0.786>, fillcolor="#eb9c63"] ;
3 -> 17 ;
18 [label=<Age &le; 34.5<br/>squared_error = 0.061<br/>samples = 51<br/>value = 0.935>, fillcolor="#e78946"] ;
17 -> 18 ;
19 [label=<DiabetesPedigreeFunction &le; 0.273<br/>squared_error = 0.018<br/>samples = 39<br/>value = 0.982>, fillcolor="#e5833d"] ;
18 -> 19 ;
20 [label=<squared_error = 0.0<br/>samples = 33<br/>value = 1.0>, fillcolor="#e58139"] ;
19 -> 20 ;
21 [label=<Age &le; 23.5<br/>squared_error = 0.099<br/>samples = 6<br/>value = 0.889>, fillcolor="#e88f4f"] ;
19 -> 21 ;
22 [label=<squared_error = 0.0<br/>samples = 1<br/>value = 0.0>, fillcolor="#ffffff"] ;
21 -> 22 ;
23 [label=<squared_error = 0.0<br/>samples = 5<br/>value = 1.0>, fillcolor="#e58139"] ;
21 -> 23 ;
24 [label=<Pregnancies &le; 1.5<br/>squared_error = 0.154<br/>samples = 12<br/>value = 0.81>, fillcolor="#ea995f"] ;
18 -> 24 ;
25 [label=<squared_error = 0.0<br/>samples = 1<br/>value = 0.0>, fillcolor="#ffffff"] ;
24 -> 25 ;
26 [label=<DiabetesPedigreeFunction &le; 0.151<br/>squared_error = 0.094<br/>samples = 11<br/>value = 0.895>, fillcolor="#e88e4e"] ;
24 -> 26 ;
27 [label=<squared_error = 0.0<br/>samples = 1<br/>value = 0.0>, fillcolor="#ffffff"] ;
26 -> 27 ;
28 [label=<Age &le; 38.5<br/>squared_error = 0.052<br/>samples = 10<br/>value = 0.944>, fillcolor="#e68844"] ;
26 -> 28 ;
29 [label=<squared_error = 0.0<br/>samples = 6<br/>value = 1.0>, fillcolor="#e58139"] ;
28 -> 29 ;
30 [label=<Insulin &le; 37.5<br/>squared_error = 0.122<br/>samples = 4<br/>value = 0.857>, fillcolor="#e99355"] ;
28 -> 30 ;
31 [label=<squared_error = 0.0<br/>samples = 1<br/>value = 0.0>, fillcolor="#ffffff"] ;
30 -> 31 ;
32 [label=<squared_error = 0.0<br/>samples = 3<br/>value = 1.0>, fillcolor="#e58139"] ;
30 -> 32 ;
33 [label=<BMI &le; 25.5<br/>squared_error = 0.207<br/>samples = 87<br/>value = 0.706>, fillcolor="#eda673"] ;
17 -> 33 ;
34 [label=<squared_error = 0.0<br/>samples = 14<br/>value = 1.0>, fillcolor="#e58139"] ;
33 -> 34 ;
35 [label=<DiabetesPedigreeFunction &le; 0.373<br/>squared_error = 0.229<br/>samples = 73<br/>value = 0.644>, fillcolor="#eeae7f"] ;
33 -> 35 ;
36 [label=<Insulin &le; 86.5<br/>squared_error = 0.227<br/>samples = 13<br/>value = 0.348>, fillcolor="#f6d3ba"] ;
35 -> 36 ;
37 [label=<BMI &le; 26.35<br/>squared_error = 0.122<br/>samples = 7<br/>value = 0.143>, fillcolor="#fbede3"] ;
36 -> 37 ;
38 [label=<squared_error = 0.0<br/>samples = 1<br/>value = 1.0>, fillcolor="#e58139"] ;
37 -> 38 ;
39 [label=<Age &le; 26.0<br/>squared_error = 0.071<br/>samples = 6<br/>value = 0.077>, fillcolor="#fdf5f0"] ;
37 -> 39 ;
40 [label=<DiabetesPedigreeFunction &le; 0.337<br/>squared_error = 0.188<br/>samples = 2<br/>value = 0.25>, fillcolor="#f8e0ce"] ;
39 -> 40 ;
41 [label=<squared_error = 0.0<br/>samples = 1<br/>value = 1.0>, fillcolor="#e58139"] ;
40 -> 41 ;
42 [label=<squared_error = 0.0<br/>samples = 1<br/>value = 0.0>, fillcolor="#ffffff"] ;
40 -> 42 ;
43 [label=<squared_error = 0.0<br/>samples = 4<br/>value = 0.0>, fillcolor="#ffffff"] ;
39 -> 43 ;
44 [label=<DiabetesPedigreeFunction &le; 0.356<br/>squared_error = 0.222<br/>samples = 6<br/>value = 0.667>, fillcolor="#eeab7b"] ;
36 -> 44 ;
45 [label=<squared_error = 0.0<br/>samples = 5<br/>value = 1.0>, fillcolor="#e58139"] ;
44 -> 45 ;
46 [label=<squared_error = 0.0<br/>samples = 1<br/>value = 0.0>, fillcolor="#ffffff"] ;
44 -> 46 ;
47 [label=<DiabetesPedigreeFunction &le; 0.838<br/>squared_error = 0.203<br/>samples = 60<br/>value = 0.716>, fillcolor="#eca571"] ;
35 -> 47 ;
48 [label=<BloodPressure &le; 73.0<br/>squared_error = 0.171<br/>samples = 52<br/>value = 0.78>, fillcolor="#eb9d64"] ;
47 -> 48 ;
49 [label=<Glucose &le; 126.5<br/>squared_error = 0.225<br/>samples = 33<br/>value = 0.66>, fillcolor="#eeac7c"] ;
48 -> 49 ;
50 [label=<Insulin &le; 22.0<br/>squared_error = 0.132<br/>samples = 22<br/>value = 0.844>, fillcolor="#e99558"] ;
49 -> 50 ;
51 [label=<DiabetesPedigreeFunction &le; 0.55<br/>squared_error = 0.23<br/>samples = 8<br/>value = 0.643>, fillcolor="#eeae80"] ;
50 -> 51 ;
52 [label=<Glucose &le; 118.5<br/>squared_error = 0.234<br/>samples = 6<br/>value = 0.375>, fillcolor="#f5d0b5"] ;
51 -> 52 ;
53 [label=<Age &le; 25.5<br/>squared_error = 0.139<br/>samples = 4<br/>value = 0.167>, fillcolor="#fbeade"] ;
52 -> 53 ;
54 [label=<Pregnancies &le; 1.5<br/>squared_error = 0.222<br/>samples = 2<br/>value = 0.333>, fillcolor="#f6d5bd"] ;
53 -> 54 ;
55 [label=<squared_error = 0.0<br/>samples = 1<br/>value = 0.0>, fillcolor="#ffffff"] ;
54 -> 55 ;
56 [label=<squared_error = 0.0<br/>samples = 1<br/>value = 1.0>, fillcolor="#e58139"] ;
54 -> 56 ;
57 [label=<squared_error = 0.0<br/>samples = 2<br/>value = 0.0>, fillcolor="#ffffff"] ;
53 -> 57 ;
58 [label=<squared_error = 0.0<br/>samples = 2<br/>value = 1.0>, fillcolor="#e58139"] ;
52 -> 58 ;
59 [label=<squared_error = 0.0<br/>samples = 2<br/>value = 1.0>, fillcolor="#e58139"] ;
51 -> 59 ;
60 [label=<squared_error = 0.0<br/>samples = 14<br/>value = 1.0>, fillcolor="#e58139"] ;
50 -> 60 ;
61 [label=<DiabetesPedigreeFunction &le; 0.557<br/>squared_error = 0.196<br/>samples = 11<br/>value = 0.267>, fillcolor="#f8ddca"] ;
49 -> 61 ;
62 [label=<squared_error = 0.0<br/>samples = 7<br/>value = 0.0>, fillcolor="#ffffff"] ;
61 -> 62 ;
63 [label=<Glucose &le; 129.0<br/>squared_error = 0.16<br/>samples = 4<br/>value = 0.8>, fillcolor="#ea9a61"] ;
61 -> 63 ;
64 [label=<squared_error = 0.0<br/>samples = 1<br/>value = 0.0>, fillcolor="#ffffff"] ;
63 -> 64 ;
65 [label=<squared_error = 0.0<br/>samples = 3<br/>value = 1.0>, fillcolor="#e58139"] ;
63 -> 65 ;
66 [label=<DiabetesPedigreeFunction &le; 0.528<br/>squared_error = 0.054<br/>samples = 19<br/>value = 0.943>, fillcolor="#e68844"] ;
48 -> 66 ;
67 [label=<squared_error = 0.0<br/>samples = 10<br/>value = 1.0>, fillcolor="#e58139"] ;
66 -> 67 ;
68 [label=<DiabetesPedigreeFunction &le; 0.576<br/>squared_error = 0.139<br/>samples = 9<br/>value = 0.833>, fillcolor="#e9965a"] ;
66 -> 68 ;
69 [label=<squared_error = 0.0<br/>samples = 2<br/>value = 0.0>, fillcolor="#ffffff"] ;
68 -> 69 ;
70 [label=<squared_error = 0.0<br/>samples = 7<br/>value = 1.0>, fillcolor="#e58139"] ;
68 -> 70 ;
71 [label=<Age &le; 26.0<br/>squared_error = 0.213<br/>samples = 8<br/>value = 0.308>, fillcolor="#f7d8c2"] ;
47 -> 71 ;
72 [label=<squared_error = 0.0<br/>samples = 3<br/>value = 1.0>, fillcolor="#e58139"] ;
71 -> 72 ;
73 [label=<squared_error = 0.0<br/>samples = 5<br/>value = 0.0>, fillcolor="#ffffff"] ;
71 -> 73 ;
74 [label=<Glucose &le; 91.0<br/>squared_error = 0.083<br/>samples = 6<br/>value = 0.091>, fillcolor="#fdf4ed"] ;
2 -> 74 ;
75 [label=<squared_error = 0.0<br/>samples = 1<br/>value = 1.0>, fillcolor="#e58139"] ;
74 -> 75 ;
76 [label=<squared_error = 0.0<br/>samples = 5<br/>value = 0.0>, fillcolor="#ffffff"] ;
74 -> 76 ;
77 [label=<Insulin &le; 112.5<br/>squared_error = 0.25<br/>samples = 57<br/>value = 0.506>, fillcolor="#f2bf9b"] ;
1 -> 77 ;
78 [label=<DiabetesPedigreeFunction &le; 0.556<br/>squared_error = 0.231<br/>samples = 42<br/>value = 0.639>, fillcolor="#eeae80"] ;
77 -> 78 ;
79 [label=<Pregnancies &le; 6.5<br/>squared_error = 0.176<br/>samples = 32<br/>value = 0.773>, fillcolor="#eb9e66"] ;
78 -> 79 ;
80 [label=<Age &le; 49.0<br/>squared_error = 0.242<br/>samples = 16<br/>value = 0.591>, fillcolor="#f0b58a"] ;
79 -> 80 ;
81 [label=<BMI &le; 36.2<br/>squared_error = 0.149<br/>samples = 9<br/>value = 0.818>, fillcolor="#ea985d"] ;
80 -> 81 ;
82 [label=<squared_error = 0.0<br/>samples = 5<br/>value = 1.0>, fillcolor="#e58139"] ;
81 -> 82 ;
83 [label=<BMI &le; 42.25<br/>squared_error = 0.25<br/>samples = 4<br/>value = 0.5>, fillcolor="#f2c09c"] ;
81 -> 83 ;
84 [label=<squared_error = 0.0<br/>samples = 2<br/>value = 0.0>, fillcolor="#ffffff"] ;
83 -> 84 ;
85 [label=<squared_error = 0.0<br/>samples = 2<br/>value = 1.0>, fillcolor="#e58139"] ;
83 -> 85 ;
86 [label=<Age &le; 53.5<br/>squared_error = 0.231<br/>samples = 7<br/>value = 0.364>, fillcolor="#f6d1b7"] ;
80 -> 86 ;
87 [label=<squared_error = 0.0<br/>samples = 3<br/>value = 0.0>, fillcolor="#ffffff"] ;
86 -> 87 ;
88 [label=<Glucose &le; 133.0<br/>squared_error = 0.16<br/>samples = 4<br/>value = 0.8>, fillcolor="#ea9a61"] ;
86 -> 88 ;
89 [label=<squared_error = 0.0<br/>samples = 3<br/>value = 1.0>, fillcolor="#e58139"] ;
88 -> 89 ;
90 [label=<squared_error = 0.0<br/>samples = 1<br/>value = 0.0>, fillcolor="#ffffff"] ;
88 -> 90 ;
91 [label=<Age &le; 41.5<br/>squared_error = 0.043<br/>samples = 16<br/>value = 0.955>, fillcolor="#e68742"] ;
79 -> 91 ;
92 [label=<squared_error = 0.0<br/>samples = 1<br/>value = 0.0>, fillcolor="#ffffff"] ;
91 -> 92 ;
93 [label=<squared_error = 0.0<br/>samples = 15<br/>value = 1.0>, fillcolor="#e58139"] ;
91 -> 93 ;
94 [label=<BMI &le; 26.75<br/>squared_error = 0.208<br/>samples = 10<br/>value = 0.294>, fillcolor="#f7dac5"] ;
78 -> 94 ;
95 [label=<squared_error = 0.0<br/>samples = 2<br/>value = 1.0>, fillcolor="#e58139"] ;
94 -> 95 ;
96 [label=<Glucose &le; 85.0<br/>squared_error = 0.122<br/>samples = 8<br/>value = 0.143>, fillcolor="#fbede3"] ;
94 -> 96 ;
97 [label=<squared_error = 0.0<br/>samples = 1<br/>value = 1.0>, fillcolor="#e58139"] ;
96 -> 97 ;
98 [label=<DiabetesPedigreeFunction &le; 0.793<br/>squared_error = 0.071<br/>samples = 7<br/>value = 0.077>, fillcolor="#fdf5f0"] ;
96 -> 98 ;
99 [label=<squared_error = 0.0<br/>samples = 6<br/>value = 0.0>, fillcolor="#ffffff"] ;
98 -> 99 ;
100 [label=<squared_error = 0.0<br/>samples = 1<br/>value = 1.0>, fillcolor="#e58139"] ;
98 -> 100 ;
101 [label=<BloodPressure &le; 67.0<br/>squared_error = 0.118<br/>samples = 15<br/>value = 0.136>, fillcolor="#fbeee4"] ;
77 -> 101 ;
102 [label=<squared_error = 0.0<br/>samples = 3<br/>value = 1.0>, fillcolor="#e58139"] ;
101 -> 102 ;
103 [label=<squared_error = 0.0<br/>samples = 12<br/>value = 0.0>, fillcolor="#ffffff"] ;
101 -> 103 ;
104 [label=<DiabetesPedigreeFunction &le; 0.3<br/>squared_error = 0.105<br/>samples = 37<br/>value = 0.119>, fillcolor="#fcf0e8"] ;
0 -> 104 [labeldistance=2.5, labelangle=-45, headlabel="False"] ;
105 [label=<DiabetesPedigreeFunction &le; 0.274<br/>squared_error = 0.21<br/>samples = 12<br/>value = 0.3>, fillcolor="#f7d9c4"] ;
104 -> 105 ;
106 [label=<Age &le; 59.5<br/>squared_error = 0.062<br/>samples = 10<br/>value = 0.067>, fillcolor="#fdf7f2"] ;
105 -> 106 ;
107 [label=<squared_error = 0.0<br/>samples = 9<br/>value = 0.0>, fillcolor="#ffffff"] ;
106 -> 107 ;
108 [label=<squared_error = 0.0<br/>samples = 1<br/>value = 1.0>, fillcolor="#e58139"] ;
106 -> 108 ;
109 [label=<squared_error = 0.0<br/>samples = 2<br/>value = 1.0>, fillcolor="#e58139"] ;
105 -> 109 ;
110 [label=<BMI &le; 46.1<br/>squared_error = 0.025<br/>samples = 25<br/>value = 0.026>, fillcolor="#fefcfa"] ;
104 -> 110 ;
111 [label=<squared_error = 0.0<br/>samples = 24<br/>value = 0.0>, fillcolor="#ffffff"] ;
110 -> 111 ;
112 [label=<squared_error = 0.0<br/>samples = 1<br/>value = 1.0>, fillcolor="#e58139"] ;
110 -> 112 ;
}