digraph Tree {
node [shape=box, style="filled, rounded", color="black", fontname="helvetica"] ;
edge [fontname="helvetica"] ;
0 [label=<Glucose &le; 155.0<br/>squared_error = 0.218<br/>samples = 307<br/>value = 0.679>, fillcolor="#eda979"] ;
1 [label=<Age &le; 27.5<br/>squared_error = 0.18<br/>samples = 266<br/>value = 0.765>, fillcolor="#eb9f68"] ;
0 -> 1 [labeldistance=2.5, labelangle=45, headlabel="True"] ;
2 [label=<Glucose &le; 137.5<br/>squared_error = 0.08<br/>samples = 127<br/>value = 0.912>, fillcolor="#e78c4a"] ;
1 -> 2 ;
3 [label=<Pregnancies &le; 6.5<br/>squared_error = 0.051<br/>samples = 113<br/>value = 0.946>, fillcolor="#e68844"] ;
2 -> 3 ;
4 [label=<BMI &le; 30.95<br/>squared_error = 0.047<br/>samples = 112<br/>value = 0.951>, fillcolor="#e68743"] ;
3 -> 4 ;
5 [label=<squared_error = 0.0<br/>samples = 64<br/>value = 1.0>, fillcolor="#e58139"] ;
4 -> 5 ;
6 [label=<BMI &le; 31.1<br/>squared_error = 0.101<br/>samples = 48<br/>value = 0.886>, fillcolor="#e88f50"] ;
4 -> 6 ;
7 [label=<squared_error = 0.0<br/>samples = 1<br/>value = 0.0>, fillcolor="#ffffff"] ;
6 -> 7 ;
8 [label=<DiabetesPedigreeFunction &le; 0.504<br/>squared_error = 0.083<br/>samples = 47<br/>value = 0.909>, fillcolor="#e78c4b"] ;
6 -> 8 ;
9 [label=<DiabetesPedigreeFunction &le; 0.138<br/>squared_error = 0.021<br/>samples = 29<br/>value = 0.978>, fillcolor="#e6843d"] ;
8 -> 9 ;
10 [label=<Age &le; 24.5<br/>squared_error = 0.222<br/>samples = 2<br/>value = 0.667>, fillcolor="#eeab7b"] ;
9 -> 10 ;
11 [label=<squared_error = 0.0<br/>samples = 1<br/>value = 1.0>, fillcolor="#e58139"] ;
10 -> 11 ;
12 [label=<squared_error = 0.0<br/>samples = 1<br/>value = 0.0>, fillcolor="#ffffff"] ;
10 -> 12 ;
13 [label=<squared_error = 0.0<br/>samples = 27<br/>value = 1.0>, fillcolor="#e58139"] ;
9 -> 13 ;
14 [label=<Insulin &le; 65.0<br/>squared_error = 0.156<br/>samples = 18<br/>value = 0.806>, fillcolor="#ea995f"] ;
8 -> 14 ;
15 [label=<BloodPressure &le; 79.0<br/>squared_error = 0.247<br/>samples = 7<br/>value = 0.556>, fillcolor="#f1b991"] ;
14 -> 15 ;
16 [label=<BMI &le; 33.65<br/>squared_error = 0.139<br/>samples = 5<br/>value = 0.833>, fillcolor="#e9965a"] ;
15 -> 16 ;
17 [label=<squared_error = 0.0<br/>samples = 1<br/>value = 0.0>, fillcolor="#ffffff"] ;
16 -> 17 ;
18 [label=<squared_error = 0.0<br/>samples = 4<br/>value = 1.0>, fillcolor="#e58139"] ;
16 -> 18 ;
19 [label=<squared_error = 0.0<br/>samples = 2<br/>value = 0.0>, fillcolor="#ffffff"] ;
15 -> 19 ;
20 [label=<BMI &le; 32.8<br/>squared_error = 0.083<br/>samples = 11<br/>value = 0.909>, fillcolor="#e78c4b"] ;
14 -> 20 ;
21 [label=<Insulin &le; 128.0<br/>squared_error = 0.25<br/>samples = 2<br/>value = 0.5>, fillcolor="#f2c09c"] ;
20 -> 21 ;
22 [label=<squared_error = 0.0<br/>samples = 1<br/>value = 1.0>, fillcolor="#e58139"] ;
21 -> 22 ;
23 [label=<squared_error = 0.0<br/>samples = 1<br/>value = 0.0>, fillcolor="#ffffff"] ;
21 -> 23 ;
24 [label=<Glucose &le; 99.5<br/>squared_error = 0.047<br/>samples = 9<br/>value = 0.95>, fillcolor="#e68743"] ;
20 -> 24 ;
25 [label=<Insulin &le; 113.0<br/>squared_error = 0.16<br/>samples = 3<br/>value = 0.8>, fillcolor="#ea9a61"] ;
24 -> 25 ;
26 [label=<squared_error = 0.0<br/>samples = 2<br/>value = 1.0>, fillcolor="#e58139"] ;
25 -> 26 ;
27 [label=<squared_error = 0.0<br/>samples = 1<br/>value = 0.0>, fillcolor="#ffffff"] ;
25 -> 27 ;
28 [label=<squared_error = 0.0<br/>samples = 6<br/>value = 1.0>, fillcolor="#e58139"] ;
24 -> 28 ;
29 [label=<squared_error = 0.0<br/>samples = 1<br/>value = 0.0>, fillcolor="#ffffff"] ;
3 -> 29 ;
30 [label=<Glucose &le; 140.5<br/>squared_error = 0.24<br/>samples = 14<br/>value = 0.6>, fillcolor="#efb388"] ;
2 -> 30 ;
31 [label=<squared_error = 0.0<br/>samples = 3<br/>value = 0.0>, fillcolor="#ffffff"] ;
30 -> 31 ;
32 [label=<BloodPressure &le; 88.0<br/>squared_error = 0.16<br/>samples = 11<br/>value = 0.8>, fillcolor="#ea9a61"] ;
30 -> 32 ;
33 [label=<BloodPressure &le; 59.0<br/>squared_error = 0.071<br/>samples = 9<br/>value = 0.923>, fillcolor="#e78b48"] ;
32 -> 33 ;
34 [label=<Insulin &le; 131.5<br/>squared_error = 0.25<br/>samples = 2<br/>value = 0.5>, fillcolor="#f2c09c"] ;
33 -> 34 ;
35 [label=<squared_error = 0.0<br/>samples = 1<br/>value = 1.0>, fillcolor="#e58139"] ;
34 -> 35 ;
36 [label=<squared_error = 0.0<br/>samples = 1<br/>value = 0.0>, fillcolor="#ffffff"] ;
34 -> 36 ;
37 [label=<squared_error = 0.0<br/>samples = 7<br/>value = 1.0>, fillcolor="#e58139"] ;
33 -> 37 ;
38 [label=<squared_error = 0.0<br/>samples = 2<br/>value = 0.0>, fillcolor="#ffffff"] ;
32 -> 38 ;
39 [label=<DiabetesPedigreeFunction &le; 0.464<br/>squared_error = 0.231<br/>samples = 139<br/>value = 0.637>, fillcolor="#eeaf81"] ;
1 -> 39 ;
40 [label=<BloodPressure &le; 64.5<br/>squared_error = 0.198<br/>samples = 96<br/>value = 0.727>, fillcolor="#eca36f"] ;
39 -> 40 ;
41 [label=<Age &le; 30.5<br/>squared_error = 0.238<br/>samples = 11<br/>value = 0.391>, fillcolor="#f5ceb2"] ;
40 -> 41 ;
42 [label=<BMI &le; 32.55<br/>squared_error = 0.083<br/>samples = 4<br/>value = 0.091>, fillcolor="#fdf4ed"] ;
41 -> 42 ;
43 [label=<squared_error = 0.0<br/>samples = 3<br/>value = 0.0>, fillcolor="#ffffff"] ;
42 -> 43 ;
44 [label=<squared_error = 0.0<br/>samples = 1<br/>value = 1.0>, fillcolor="#e58139"] ;
42 -> 44 ;
45 [label=<BMI &le; 31.6<br/>squared_error = 0.222<br/>samples = 7<br/>value = 0.667>, fillcolor="#eeab7b"] ;
41 -> 45 ;
46 [label=<squared_error = 0.0<br/>samples = 5<br/>value = 1.0>, fillcolor="#e58139"] ;
45 -> 46 ;
47 [label=<squared_error = 0.0<br/>samples = 2<br/>value = 0.0>, fillcolor="#ffffff"] ;
45 -> 47 ;
48 [label=<BloodPressure &le; 83.0<br/>squared_error = 0.171<br/>samples = 85<br/>value = 0.782>, fillcolor="#eb9d64"] ;
40 -> 48 ;
49 [label=<Pregnancies &le; 1.5<br/>squared_error = 0.203<br/>samples = 64<br/>value = 0.717>, fillcolor="#eca571"] ;
48 -> 49 ;
50 [label=<Age &le; 33.0<br/>squared_error = 0.16<br/>samples = 8<br/>value = 0.2>, fillcolor="#fae6d7"] ;
49 -> 50 ;
51 [label=<Glucose &le; 121.5<br/>squared_error = 0.188<br/>samples = 3<br/>value = 0.75>, fillcolor="#eca06a"] ;
50 -> 51 ;
52 [label=<squared_error = 0.0<br/>samples = 2<br/>value = 1.0>, fillcolor="#e58139"] ;
51 -> 52 ;
53 [label=<squared_error = 0.0<br/>samples = 1<br/>value = 0.0>, fillcolor="#ffffff"] ;
51 -> 53 ;
54 [label=<squared_error = 0.0<br/>samples = 5<br/>value = 0.0>, fillcolor="#ffffff"] ;
50 -> 54 ;
55 [label=<DiabetesPedigreeFunction &le; 0.257<br/>squared_error = 0.159<br/>samples = 56<br/>value = 0.802>, fillcolor="#ea9a60"] ;
49 -> 55 ;
56 [label=<DiabetesPedigreeFunction &le; 0.146<br/>squared_error = 0.065<br/>samples = 26<br/>value = 0.93>, fillcolor="#e78a47"] ;
55 -> 56 ;
57 [label=<Glucose &le; 108.5<br/>squared_error = 0.204<br/>samples = 5<br/>value = 0.714>, fillcolor="#eca572"] ;
56 -> 57 ;
58 [label=<squared_error = 0.0<br/>samples = 3<br/>value = 1.0>, fillcolor="#e58139"] ;
57 -> 58 ;
59 [label=<squared_error = 0.0<br/>samples = 2<br/>value = 0.0>, fillcolor="#ffffff"] ;
57 -> 59 ;
60 [label=<Pregnancies &le; 9.5<br/>squared_error = 0.027<br/>samples = 21<br/>value = 0.972>, fillcolor="#e6843e"] ;
56 -> 60 ;
61 [label=<squared_error = 0.0<br/>samples = 17<br/>value = 1.0>, fillcolor="#e58139"] ;
60 -> 61 ;
62 [label=<Insulin &le; 112.5<br/>squared_error = 0.139<br/>samples = 4<br/>value = 0.833>, fillcolor="#e9965a"] ;
60 -> 62 ;
63 [label=<squared_error = 0.0<br/>samples = 3<br/>value = 1.0>, fillcolor="#e58139"] ;
62 -> 63 ;
64 [label=<squared_error = 0.0<br/>samples = 1<br/>value = 0.0>, fillcolor="#ffffff"] ;
62 -> 64 ;
65 [label=<Age &le; 42.5<br/>squared_error = 0.215<br/>samples = 30<br/>value = 0.688>, fillcolor="#eda877"] ;
55 -> 65 ;
66 [label=<DiabetesPedigreeFunction &le; 0.326<br/>squared_error = 0.15<br/>samples = 22<br/>value = 0.816>, fillcolor="#ea985d"] ;
65 -> 66 ;
67 [label=<Glucose &le; 107.0<br/>squared_error = 0.246<br/>samples = 12<br/>value = 0.562>, fillcolor="#f0b890"] ;
66 -> 67 ;
68 [label=<squared_error = 0.0<br/>samples = 5<br/>value = 1.0>, fillcolor="#e58139"] ;
67 -> 68 ;
69 [label=<BMI &le; 35.05<br/>squared_error = 0.173<br/>samples = 7<br/>value = 0.222>, fillcolor="#f9e3d3"] ;
67 -> 69 ;
70 [label=<squared_error = 0.0<br/>samples = 5<br/>value = 0.0>, fillcolor="#ffffff"] ;
69 -> 70 ;
71 [label=<squared_error = 0.0<br/>samples = 2<br/>value = 1.0>, fillcolor="#e58139"] ;
69 -> 71 ;
72 [label=<squared_error = 0.0<br/>samples = 10<br/>value = 1.0>, fillcolor="#e58139"] ;
66 -> 72 ;
73 [label=<DiabetesPedigreeFunction &le; 0.273<br/>squared_error = 0.16<br/>samples = 8<br/>value = 0.2>, fillcolor="#fae6d7"] ;
65 -> 73 ;
74 [label=<Pregnancies &le; 2.5<br/>squared_error = 0.222<br/>samples = 3<br/>value = 0.667>, fillcolor="#eeab7b"] ;
73 -> 74 ;
75 [label=<squared_error = 0.0<br/>samples = 1<br/>value = 0.0>, fillcolor="#ffffff"] ;
74 -> 75 ;
76 [label=<squared_error = 0.0<br/>samples = 2<br/>value = 1.0>, fillcolor="#e58139"] ;
74 -> 76 ;
77 [label=<squared_error = 0.0<br/>samples = 5<br/>value = 0.0>, fillcolor="#ffffff"] ;
73 -> 77 ;
78 [label=<BMI &le; 40.9<br/>squared_error = 0.027<br/>samples = 21<br/>value = 0.972>, fillcolor="#e6843e"] ;
48 -> 78 ;
79 [label=<squared_error = 0.0<br/>samples = 20<br/>value = 1.0>, fillcolor="#e58139"] ;
78 -> 79 ;
80 [label=<squared_error = 0.0<br/>samples = 1<br/>value = 0.0>, fillcolor="#ffffff"] ;
78 -> 80 ;
81 [label=<BMI &le; 28.85<br/>squared_error = 0.245<br/>samples = 43<br/>value = 0.431>, fillcolor="#f4c9aa"] ;
39 -> 81 ;
82 [label=<DiabetesPedigreeFunction &le; 0.649<br/>squared_error = 0.094<br/>samples = 10<br/>value = 0.895>, fillcolor="#e88e4e"] ;
81 -> 82 ;
83 [label=<DiabetesPedigreeFunction &le; 0.539<br/>squared_error = 0.222<br/>samples = 3<br/>value = 0.333>, fillcolor="#f6d5bd"] ;
82 -> 83 ;
84 [label=<squared_error = 0.0<br/>samples = 1<br/>value = 1.0>, fillcolor="#e58139"] ;
83 -> 84 ;
85 [label=<squared_error = 0.0<br/>samples = 2<br/>value = 0.0>, fillcolor="#ffffff"] ;
83 -> 85 ;
86 [label=<squared_error = 0.0<br/>samples = 7<br/>value = 1.0>, fillcolor="#e58139"] ;
82 -> 86 ;
87 [label=<Pregnancies &le; 6.5<br/>squared_error = 0.194<br/>samples = 33<br/>value = 0.264>, fillcolor="#f8decb"] ;
81 -> 87 ;
88 [label=<Glucose &le; 108.0<br/>squared_error = 0.249<br/>samples = 22<br/>value = 0.467>, fillcolor="#f3c4a3"] ;
87 -> 88 ;
89 [label=<squared_error = 0.0<br/>samples = 6<br/>value = 1.0>, fillcolor="#e58139"] ;
88 -> 89 ;
90 [label=<Insulin &le; 225.0<br/>squared_error = 0.198<br/>samples = 16<br/>value = 0.273>, fillcolor="#f8ddc9"] ;
88 -> 90 ;
91 [label=<BloodPressure &le; 87.0<br/>squared_error = 0.16<br/>samples = 15<br/>value = 0.2>, fillcolor="#fae6d7"] ;
90 -> 91 ;
92 [label=<BMI &le; 32.25<br/>squared_error = 0.109<br/>samples = 11<br/>value = 0.125>, fillcolor="#fcefe6"] ;
91 -> 92 ;
93 [label=<DiabetesPedigreeFunction &le; 0.927<br/>squared_error = 0.222<br/>samples = 3<br/>value = 0.667>, fillcolor="#eeab7b"] ;
92 -> 93 ;
94 [label=<squared_error = 0.0<br/>samples = 2<br/>value = 1.0>, fillcolor="#e58139"] ;
93 -> 94 ;
95 [label=<squared_error = 0.0<br/>samples = 1<br/>value = 0.0>, fillcolor="#ffffff"] ;
93 -> 95 ;
96 [label=<squared_error = 0.0<br/>samples = 8<br/>value = 0.0>, fillcolor="#ffffff"] ;
92 -> 96 ;
97 [label=<BMI &le; 33.5<br/>squared_error = 0.25<br/>samples = 4<br/>value = 0.5>, fillcolor="#f2c09c"] ;
91 -> 97 ;
98 [label=<squared_error = 0.0<br/>samples = 2<br/>value = 0.0>, fillcolor="#ffffff"] ;
97 -> 98 ;
99 [label=<squared_error = 0.0<br/>samples = 2<br/>value = 1.0>, fillcolor="#e58139"] ;
97 -> 99 ;
100 [label=<squared_error = 0.0<br/>samples = 1<br/>value = 1.0>, fillcolor="#e58139"] ;
90 -> 100 ;
101 [label=<squared_error = 0.0<br/>samples = 11<br/>value = 0.0>, fillcolor="#ffffff"] ;
87 -> 101 ;
102 [label=<Age &le; 57.5<br/>squared_error = 0.095<br/>samples = 41<br/>value = 0.106>, fillcolor="#fcf2ea"] ;
0 -> 102 [labeldistance=2.5, labelangle=-45, headlabel="False"] ;
103 [label=<Pregnancies &le; 9.5<br/>squared_error = 0.047<br/>samples = 37<br/>value = 0.049>, fillcolor="#fef9f5"] ;
102 -> 103 ;
104 [label=<BloodPressure &le; 65.0<br/>squared_error = 0.033<br/>samples = 34<br/>value = 0.034>, fillcolor="#fefbf8"] ;
103 -> 104 ;
105 [label=<Pregnancies &le; 6.5<br/>squared_error = 0.188<br/>samples = 3<br/>value = 0.25>, fillcolor="#f8e0ce"] ;
104 -> 105 ;
106 [label=<squared_error = 0.0<br/>samples = 2<br/>value = 0.0>, fillcolor="#ffffff"] ;
105 -> 106 ;
107 [label=<squared_error = 0.0<br/>samples = 1<br/>value = 1.0>, fillcolor="#e58139"] ;
105 -> 107 ;
108 [label=<BMI &le; 46.8<br/>squared_error = 0.018<br/>samples = 31<br/>value = 0.019>, fillcolor="#fffdfb"] ;
104 -> 108 ;
109 [label=<squared_error = 0.0<br/>samples = 28<br/>value = 0.0>, fillcolor="#ffffff"] ;
108 -> 109 ;
110 [label=<BMI &le; 48.1<br/>squared_error = 0.139<br/>samples = 3<br/>value = 0.167>, fillcolor="#fbeade"] ;
108 -> 110 ;
111 [label=<squared_error = 0.0<br/>samples = 1<br/>value = 1.0>, fillcolor="#e58139"] ;
110 -> 111 ;
112 [label=<squared_error = 0.0<br/>samples = 2<br/>value = 0.0>, fillcolor="#ffffff"] ;
110 -> 112 ;
113 [label=<DiabetesPedigreeFunction &le; 0.263<br/>squared_error = 0.222<br/>samples = 3<br/>value = 0.333>, fillcolor="#f6d5bd"] ;
103 -> 113 ;
114 [label=<squared_error = 0.0<br/>samples = 1<br/>value = 1.0>, fillcolor="#e58139"] ;
113 -> 114 ;
115 [label=<squared_error = 0.0<br/>samples = 2<br/>value = 0.0>, fillcolor="#ffffff"] ;
113 -> 115 ;
116 [label=<DiabetesPedigreeFunction &le; 0.146<br/>squared_error = 0.16<br/>samples = 4<br/>value = 0.8>, fillcolor="#ea9a61"] ;
102 -> 116 ;
117 [label=<squared_error = 0.0<br/>samples = 1<br/>value = 0.0>, fillcolor="#ffffff"] ;
116 -> 117 ;
118 [label=<squared_error = 0.0<br/>samples = 3<br/>value = 1.0>, fillcolor="#e58139"] ;
116 -> 118 ;
}