digraph Tree {
node [shape=box, style="filled, rounded", color="black", fontname="helvetica"] ;
edge [fontname="helvetica"] ;
0 [label=<Age &le; 25.5<br/>gini = 0.44<br/>samples = 316<br/>value = [166, 342]<br/>class = 0>, fillcolor="#99cdf2"] ;
1 [label=<BloodPressure &le; 87.0<br/>gini = 0.232<br/>samples = 110<br/>value = [25, 162]<br/>class = 0>, fillcolor="#58ace9"] ;
0 -> 1 [labeldistance=2.5, labelangle=45, headlabel="True"] ;
2 [label=<Glucose &le; 158.0<br/>gini = 0.201<br/>samples = 101<br/>value = [20, 156]<br/>class = 0>, fillcolor="#52aae8"] ;
1 -> 2 ;
3 [label=<Glucose &le; 137.5<br/>gini = 0.113<br/>samples = 97<br/>value = [10, 156]<br/>class = 0>, fillcolor="#46a3e7"] ;
2 -> 3 ;
4 [label=<Glucose &le; 92.5<br/>gini = 0.064<br/>samples = 87<br/>value = [5, 145]<br/>class = 0>, fillcolor="#40a0e6"] ;
3 -> 4 ;
5 [label=<gini = 0.0<br/>samples = 30<br/>value = [0, 53]<br/>class = 0>, fillcolor="#399de5"] ;
4 -> 5 ;
6 [label=<BMI &le; 33.25<br/>gini = 0.098<br/>samples = 57<br/>value = [5, 92]<br/>class = 0>, fillcolor="#44a2e6"] ;
4 -> 6 ;
7 [label=<gini = 0.0<br/>samples = 38<br/>value = [0, 71]<br/>class = 0>, fillcolor="#399de5"] ;
6 -> 7 ;
8 [label=<Glucose &le; 96.5<br/>gini = 0.311<br/>samples = 19<br/>value = [5, 21]<br/>class = 0>, fillcolor="#68b4eb"] ;
6 -> 8 ;
9 [label=<gini = 0.0<br/>samples = 1<br/>value = [1, 0]<br/>class = 1>, fillcolor="#e58139"] ;
8 -> 9 ;
10 [label=<BMI &le; 33.9<br/>gini = 0.269<br/>samples = 18<br/>value = [4, 21]<br/>class = 0>, fillcolor="#5fb0ea"] ;
8 -> 10 ;
11 [label=<gini = 0.0<br/>samples = 2<br/>value = [2, 0]<br/>class = 1>, fillcolor="#e58139"] ;
10 -> 11 ;
12 [label=<Age &le; 24.5<br/>gini = 0.159<br/>samples = 16<br/>value = [2, 21]<br/>class = 0>, fillcolor="#4ca6e7"] ;
10 -> 12 ;
13 [label=<Age &le; 21.5<br/>gini = 0.091<br/>samples = 14<br/>value = [1, 20]<br/>class = 0>, fillcolor="#43a2e6"] ;
12 -> 13 ;
14 [label=<BloodPressure &le; 77.5<br/>gini = 0.278<br/>samples = 3<br/>value = [1, 5]<br/>class = 0>, fillcolor="#61b1ea"] ;
13 -> 14 ;
15 [label=<gini = 0.0<br/>samples = 2<br/>value = [0, 5]<br/>class = 0>, fillcolor="#399de5"] ;
14 -> 15 ;
16 [label=<gini = 0.0<br/>samples = 1<br/>value = [1, 0]<br/>class = 1>, fillcolor="#e58139"] ;
14 -> 16 ;
17 [label=<gini = 0.0<br/>samples = 11<br/>value = [0, 15]<br/>class = 0>, fillcolor="#399de5"] ;
13 -> 17 ;
18 [label=<BMI &le; 35.2<br/>gini = 0.5<br/>samples = 2<br/>value = [1, 1]<br/>class = 1>, fillcolor="#ffffff"] ;
12 -> 18 ;
19 [label=<gini = 0.0<br/>samples = 1<br/>value = [0, 1]<br/>class = 0>, fillcolor="#399de5"] ;
18 -> 19 ;
20 [label=<gini = 0.0<br/>samples = 1<br/>value = [1, 0]<br/>class = 1>, fillcolor="#e58139"] ;
18 -> 20 ;
21 [label=<Pregnancies &le; 0.5<br/>gini = 0.43<br/>samples = 10<br/>value = [5, 11]<br/>class = 0>, fillcolor="#93caf1"] ;
3 -> 21 ;
22 [label=<DiabetesPedigreeFunction &le; 0.403<br/>gini = 0.375<br/>samples = 3<br/>value = [3, 1]<br/>class = 1>, fillcolor="#eeab7b"] ;
21 -> 22 ;
23 [label=<gini = 0.0<br/>samples = 1<br/>value = [0, 1]<br/>class = 0>, fillcolor="#399de5"] ;
22 -> 23 ;
24 [label=<gini = 0.0<br/>samples = 2<br/>value = [3, 0]<br/>class = 1>, fillcolor="#e58139"] ;
22 -> 24 ;
25 [label=<BMI &le; 32.05<br/>gini = 0.278<br/>samples = 7<br/>value = [2, 10]<br/>class = 0>, fillcolor="#61b1ea"] ;
21 -> 25 ;
26 [label=<DiabetesPedigreeFunction &le; 0.591<br/>gini = 0.444<br/>samples = 5<br/>value = [2, 4]<br/>class = 0>, fillcolor="#9ccef2"] ;
25 -> 26 ;
27 [label=<DiabetesPedigreeFunction &le; 0.291<br/>gini = 0.444<br/>samples = 3<br/>value = [2, 1]<br/>class = 1>, fillcolor="#f2c09c"] ;
26 -> 27 ;
28 [label=<gini = 0.0<br/>samples = 1<br/>value = [0, 1]<br/>class = 0>, fillcolor="#399de5"] ;
27 -> 28 ;
29 [label=<gini = 0.0<br/>samples = 2<br/>value = [2, 0]<br/>class = 1>, fillcolor="#e58139"] ;
27 -> 29 ;
30 [label=<gini = 0.0<br/>samples = 2<br/>value = [0, 3]<br/>class = 0>, fillcolor="#399de5"] ;
26 -> 30 ;
31 [label=<gini = 0.0<br/>samples = 2<br/>value = [0, 6]<br/>class = 0>, fillcolor="#399de5"] ;
25 -> 31 ;
32 [label=<gini = 0.0<br/>samples = 4<br/>value = [10, 0]<br/>class = 1>, fillcolor="#e58139"] ;
2 -> 32 ;
33 [label=<DiabetesPedigreeFunction &le; 0.342<br/>gini = 0.496<br/>samples = 9<br/>value = [5, 6]<br/>class = 0>, fillcolor="#deeffb"] ;
1 -> 33 ;
34 [label=<gini = 0.0<br/>samples = 4<br/>value = [0, 4]<br/>class = 0>, fillcolor="#399de5"] ;
33 -> 34 ;
35 [label=<Glucose &le; 129.5<br/>gini = 0.408<br/>samples = 5<br/>value = [5, 2]<br/>class = 1>, fillcolor="#efb388"] ;
33 -> 35 ;
36 [label=<gini = 0.0<br/>samples = 2<br/>value = [0, 2]<br/>class = 0>, fillcolor="#399de5"] ;
35 -> 36 ;
37 [label=<gini = 0.0<br/>samples = 3<br/>value = [5, 0]<br/>class = 1>, fillcolor="#e58139"] ;
35 -> 37 ;
38 [label=<Insulin &le; 142.0<br/>gini = 0.493<br/>samples = 206<br/>value = [141.0, 180.0]<br/>class = 0>, fillcolor="#d4eaf9"] ;
0 -> 38 [labeldistance=2.5, labelangle=-45, headlabel="False"] ;
39 [label=<Insulin &le; 11.5<br/>gini = 0.465<br/>samples = 161<br/>value = [94, 162]<br/>class = 0>, fillcolor="#acd6f4"] ;
38 -> 39 ;
40 [label=<DiabetesPedigreeFunction &le; 1.068<br/>gini = 0.488<br/>samples = 104<br/>value = [74, 101]<br/>class = 0>, fillcolor="#cae5f8"] ;
39 -> 40 ;
41 [label=<BloodPressure &le; 101.0<br/>gini = 0.48<br/>samples = 101<br/>value = [67, 101]<br/>class = 0>, fillcolor="#bcdef6"] ;
40 -> 41 ;
42 [label=<Glucose &le; 143.0<br/>gini = 0.473<br/>samples = 99<br/>value = [63, 101]<br/>class = 0>, fillcolor="#b5daf5"] ;
41 -> 42 ;
43 [label=<Age &le; 30.5<br/>gini = 0.379<br/>samples = 75<br/>value = [32, 94]<br/>class = 0>, fillcolor="#7cbeee"] ;
42 -> 43 ;
44 [label=<Glucose &le; 116.5<br/>gini = 0.224<br/>samples = 22<br/>value = [5, 34]<br/>class = 0>, fillcolor="#56abe9"] ;
43 -> 44 ;
45 [label=<gini = 0.0<br/>samples = 12<br/>value = [0, 18]<br/>class = 0>, fillcolor="#399de5"] ;
44 -> 45 ;
46 [label=<BloodPressure &le; 77.5<br/>gini = 0.363<br/>samples = 10<br/>value = [5, 16]<br/>class = 0>, fillcolor="#77bced"] ;
44 -> 46 ;
47 [label=<Glucose &le; 118.5<br/>gini = 0.18<br/>samples = 5<br/>value = [1, 9]<br/>class = 0>, fillcolor="#4fa8e8"] ;
46 -> 47 ;
48 [label=<gini = 0.0<br/>samples = 1<br/>value = [1, 0]<br/>class = 1>, fillcolor="#e58139"] ;
47 -> 48 ;
49 [label=<gini = 0.0<br/>samples = 4<br/>value = [0, 9]<br/>class = 0>, fillcolor="#399de5"] ;
47 -> 49 ;
50 [label=<DiabetesPedigreeFunction &le; 0.62<br/>gini = 0.463<br/>samples = 5<br/>value = [4, 7]<br/>class = 0>, fillcolor="#aad5f4"] ;
46 -> 50 ;
51 [label=<DiabetesPedigreeFunction &le; 0.41<br/>gini = 0.49<br/>samples = 4<br/>value = [4, 3]<br/>class = 1>, fillcolor="#f8e0ce"] ;
50 -> 51 ;
52 [label=<BloodPressure &le; 81.0<br/>gini = 0.375<br/>samples = 3<br/>value = [1, 3]<br/>class = 0>, fillcolor="#7bbeee"] ;
51 -> 52 ;
53 [label=<gini = 0.0<br/>samples = 1<br/>value = [1, 0]<br/>class = 1>, fillcolor="#e58139"] ;
52 -> 53 ;
54 [label=<gini = 0.0<br/>samples = 2<br/>value = [0, 3]<br/>class = 0>, fillcolor="#399de5"] ;
52 -> 54 ;
55 [label=<gini = 0.0<br/>samples = 1<br/>value = [3, 0]<br/>class = 1>, fillcolor="#e58139"] ;
51 -> 55 ;
56 [label=<gini = 0.0<br/>samples = 1<br/>value = [0, 4]<br/>class = 0>, fillcolor="#399de5"] ;
50 -> 56 ;
57 [label=<DiabetesPedigreeFunction &le; 0.215<br/>gini = 0.428<br/>samples = 53<br/>value = [27.0, 60.0]<br/>class = 0>, fillcolor="#92c9f1"] ;
43 -> 57 ;
58 [label=<DiabetesPedigreeFunction &le; 0.142<br/>gini = 0.124<br/>samples = 9<br/>value = [1, 14]<br/>class = 0>, fillcolor="#47a4e7"] ;
57 -> 58 ;
59 [label=<Pregnancies &le; 11.0<br/>gini = 0.444<br/>samples = 2<br/>value = [1, 2]<br/>class = 0>, fillcolor="#9ccef2"] ;
58 -> 59 ;
60 [label=<gini = 0.0<br/>samples = 1<br/>value = [1, 0]<br/>class = 1>, fillcolor="#e58139"] ;
59 -> 60 ;
61 [label=<gini = 0.0<br/>samples = 1<br/>value = [0, 2]<br/>class = 0>, fillcolor="#399de5"] ;
59 -> 61 ;
62 [label=<gini = 0.0<br/>samples = 7<br/>value = [0, 12]<br/>class = 0>, fillcolor="#399de5"] ;
58 -> 62 ;
63 [label=<BloodPressure &le; 85.5<br/>gini = 0.461<br/>samples = 44<br/>value = [26, 46]<br/>class = 0>, fillcolor="#a9d4f4"] ;
57 -> 63 ;
64 [label=<BMI &le; 27.35<br/>gini = 0.488<br/>samples = 36<br/>value = [25, 34]<br/>class = 0>, fillcolor="#cbe5f8"] ;
63 -> 64 ;
65 [label=<Pregnancies &le; 4.5<br/>gini = 0.255<br/>samples = 10<br/>value = [3, 17]<br/>class = 0>, fillcolor="#5caeea"] ;
64 -> 65 ;
66 [label=<DiabetesPedigreeFunction &le; 0.355<br/>gini = 0.469<br/>samples = 4<br/>value = [3, 5]<br/>class = 0>, fillcolor="#b0d8f5"] ;
65 -> 66 ;
67 [label=<Age &le; 59.5<br/>gini = 0.375<br/>samples = 2<br/>value = [3, 1]<br/>class = 1>, fillcolor="#eeab7b"] ;
66 -> 67 ;
68 [label=<gini = 0.0<br/>samples = 1<br/>value = [0, 1]<br/>class = 0>, fillcolor="#399de5"] ;
67 -> 68 ;
69 [label=<gini = 0.0<br/>samples = 1<br/>value = [3, 0]<br/>class = 1>, fillcolor="#e58139"] ;
67 -> 69 ;
70 [label=<gini = 0.0<br/>samples = 2<br/>value = [0, 4]<br/>class = 0>, fillcolor="#399de5"] ;
66 -> 70 ;
71 [label=<gini = 0.0<br/>samples = 6<br/>value = [0, 12]<br/>class = 0>, fillcolor="#399de5"] ;
65 -> 71 ;
72 [label=<Pregnancies &le; 2.0<br/>gini = 0.492<br/>samples = 26<br/>value = [22, 17]<br/>class = 1>, fillcolor="#f9e2d2"] ;
64 -> 72 ;
73 [label=<gini = 0.0<br/>samples = 4<br/>value = [7, 0]<br/>class = 1>, fillcolor="#e58139"] ;
72 -> 73 ;
74 [label=<BMI &le; 32.0<br/>gini = 0.498<br/>samples = 22<br/>value = [15, 17]<br/>class = 0>, fillcolor="#e8f3fc"] ;
72 -> 74 ;
75 [label=<Pregnancies &le; 5.5<br/>gini = 0.219<br/>samples = 6<br/>value = [1, 7]<br/>class = 0>, fillcolor="#55abe9"] ;
74 -> 75 ;
76 [label=<BloodPressure &le; 72.0<br/>gini = 0.444<br/>samples = 3<br/>value = [1, 2]<br/>class = 0>, fillcolor="#9ccef2"] ;
75 -> 76 ;
77 [label=<gini = 0.0<br/>samples = 1<br/>value = [0, 1]<br/>class = 0>, fillcolor="#399de5"] ;
76 -> 77 ;
78 [label=<Age &le; 40.5<br/>gini = 0.5<br/>samples = 2<br/>value = [1, 1]<br/>class = 1>, fillcolor="#ffffff"] ;
76 -> 78 ;
79 [label=<gini = 0.0<br/>samples = 1<br/>value = [0, 1]<br/>class = 0>, fillcolor="#399de5"] ;
78 -> 79 ;
80 [label=<gini = 0.0<br/>samples = 1<br/>value = [1, 0]<br/>class = 1>, fillcolor="#e58139"] ;
78 -> 80 ;
81 [label=<gini = 0.0<br/>samples = 3<br/>value = [0, 5]<br/>class = 0>, fillcolor="#399de5"] ;
75 -> 81 ;
82 [label=<BloodPressure &le; 68.0<br/>gini = 0.486<br/>samples = 16<br/>value = [14, 10]<br/>class = 1>, fillcolor="#f8dbc6"] ;
74 -> 82 ;
83 [label=<gini = 0.0<br/>samples = 3<br/>value = [4, 0]<br/>class = 1>, fillcolor="#e58139"] ;
82 -> 83 ;
84 [label=<BMI &le; 35.8<br/>gini = 0.5<br/>samples = 13<br/>value = [10, 10]<br/>class = 1>, fillcolor="#ffffff"] ;
82 -> 84 ;
85 [label=<Glucose &le; 84.0<br/>gini = 0.198<br/>samples = 6<br/>value = [8, 1]<br/>class = 1>, fillcolor="#e89152"] ;
84 -> 85 ;
86 [label=<gini = 0.0<br/>samples = 1<br/>value = [0, 1]<br/>class = 0>, fillcolor="#399de5"] ;
85 -> 86 ;
87 [label=<gini = 0.0<br/>samples = 5<br/>value = [8, 0]<br/>class = 1>, fillcolor="#e58139"] ;
85 -> 87 ;
88 [label=<BMI &le; 38.7<br/>gini = 0.298<br/>samples = 7<br/>value = [2, 9]<br/>class = 0>, fillcolor="#65b3eb"] ;
84 -> 88 ;
89 [label=<gini = 0.0<br/>samples = 4<br/>value = [0, 7]<br/>class = 0>, fillcolor="#399de5"] ;
88 -> 89 ;
90 [label=<BMI &le; 39.25<br/>gini = 0.5<br/>samples = 3<br/>value = [2, 2]<br/>class = 1>, fillcolor="#ffffff"] ;
88 -> 90 ;
91 [label=<gini = 0.0<br/>samples = 1<br/>value = [2, 0]<br/>class = 1>, fillcolor="#e58139"] ;
90 -> 91 ;
92 [label=<gini = 0.0<br/>samples = 2<br/>value = [0, 2]<br/>class = 0>, fillcolor="#399de5"] ;
90 -> 92 ;
93 [label=<BMI &le; 32.25<br/>gini = 0.142<br/>samples = 8<br/>value = [1, 12]<br/>class = 0>, fillcolor="#49a5e7"] ;
63 -> 93 ;
94 [label=<gini = 0.0<br/>samples = 3<br/>value = [0, 7]<br/>class = 0>, fillcolor="#399de5"] ;
93 -> 94 ;
95 [label=<DiabetesPedigreeFunction &le; 0.85<br/>gini = 0.278<br/>samples = 5<br/>value = [1, 5]<br/>class = 0>, fillcolor="#61b1ea"] ;
93 -> 95 ;
96 [label=<gini = 0.0<br/>samples = 4<br/>value = [0, 5]<br/>class = 0>, fillcolor="#399de5"] ;
95 -> 96 ;
97 [label=<gini = 0.0<br/>samples = 1<br/>value = [1, 0]<br/>class = 1>, fillcolor="#e58139"] ;
95 -> 97 ;
98 [label=<Pregnancies &le; 9.5<br/>gini = 0.301<br/>samples = 24<br/>value = [31, 7]<br/>class = 1>, fillcolor="#eb9d66"] ;
42 -> 98 ;
99 [label=<BMI &le; 30.1<br/>gini = 0.239<br/>samples = 23<br/>value = [31, 5]<br/>class = 1>, fillcolor="#e99559"] ;
98 -> 99 ;
100 [label=<BMI &le; 26.1<br/>gini = 0.494<br/>samples = 7<br/>value = [5, 4]<br/>class = 1>, fillcolor="#fae6d7"] ;
99 -> 100 ;
101 [label=<Pregnancies &le; 4.5<br/>gini = 0.278<br/>samples = 4<br/>value = [5, 1]<br/>class = 1>, fillcolor="#ea9a61"] ;
100 -> 101 ;
102 [label=<gini = 0.0<br/>samples = 1<br/>value = [0, 1]<br/>class = 0>, fillcolor="#399de5"] ;
101 -> 102 ;
103 [label=<gini = 0.0<br/>samples = 3<br/>value = [5, 0]<br/>class = 1>, fillcolor="#e58139"] ;
101 -> 103 ;
104 [label=<gini = 0.0<br/>samples = 3<br/>value = [0, 3]<br/>class = 0>, fillcolor="#399de5"] ;
100 -> 104 ;
105 [label=<Pregnancies &le; 6.5<br/>gini = 0.071<br/>samples = 16<br/>value = [26, 1]<br/>class = 1>, fillcolor="#e68641"] ;
99 -> 105 ;
106 [label=<gini = 0.0<br/>samples = 8<br/>value = [14, 0]<br/>class = 1>, fillcolor="#e58139"] ;
105 -> 106 ;
107 [label=<Age &le; 53.5<br/>gini = 0.142<br/>samples = 8<br/>value = [12, 1]<br/>class = 1>, fillcolor="#e78c49"] ;
105 -> 107 ;
108 [label=<gini = 0.0<br/>samples = 7<br/>value = [12, 0]<br/>class = 1>, fillcolor="#e58139"] ;
107 -> 108 ;
109 [label=<gini = 0.0<br/>samples = 1<br/>value = [0, 1]<br/>class = 0>, fillcolor="#399de5"] ;
107 -> 109 ;
110 [label=<gini = 0.0<br/>samples = 1<br/>value = [0, 2]<br/>class = 0>, fillcolor="#399de5"] ;
98 -> 110 ;
111 [label=<gini = 0.0<br/>samples = 2<br/>value = [4, 0]<br/>class = 1>, fillcolor="#e58139"] ;
41 -> 111 ;
112 [label=<gini = 0.0<br/>samples = 3<br/>value = [7, 0]<br/>class = 1>, fillcolor="#e58139"] ;
40 -> 112 ;
113 [label=<BloodPressure &le; 79.0<br/>gini = 0.372<br/>samples = 57<br/>value = [20, 61]<br/>class = 0>, fillcolor="#7abdee"] ;
39 -> 113 ;
114 [label=<BMI &le; 26.3<br/>gini = 0.41<br/>samples = 44<br/>value = [17, 42]<br/>class = 0>, fillcolor="#89c5f0"] ;
113 -> 114 ;
115 [label=<gini = 0.0<br/>samples = 12<br/>value = [0, 16]<br/>class = 0>, fillcolor="#399de5"] ;
114 -> 115 ;
116 [label=<BMI &le; 29.2<br/>gini = 0.478<br/>samples = 32<br/>value = [17, 26]<br/>class = 0>, fillcolor="#baddf6"] ;
114 -> 116 ;
117 [label=<Pregnancies &le; 3.5<br/>gini = 0.278<br/>samples = 6<br/>value = [10, 2]<br/>class = 1>, fillcolor="#ea9a61"] ;
116 -> 117 ;
118 [label=<gini = 0.0<br/>samples = 3<br/>value = [7, 0]<br/>class = 1>, fillcolor="#e58139"] ;
117 -> 118 ;
119 [label=<Age &le; 29.0<br/>gini = 0.48<br/>samples = 3<br/>value = [3, 2]<br/>class = 1>, fillcolor="#f6d5bd"] ;
117 -> 119 ;
120 [label=<gini = 0.0<br/>samples = 1<br/>value = [0, 2]<br/>class = 0>, fillcolor="#399de5"] ;
119 -> 120 ;
121 [label=<gini = 0.0<br/>samples = 2<br/>value = [3, 0]<br/>class = 1>, fillcolor="#e58139"] ;
119 -> 121 ;
122 [label=<Insulin &le; 86.5<br/>gini = 0.35<br/>samples = 26<br/>value = [7, 24]<br/>class = 0>, fillcolor="#73baed"] ;
116 -> 122 ;
123 [label=<gini = 0.0<br/>samples = 7<br/>value = [0, 7]<br/>class = 0>, fillcolor="#399de5"] ;
122 -> 123 ;
124 [label=<DiabetesPedigreeFunction &le; 0.705<br/>gini = 0.413<br/>samples = 19<br/>value = [7, 17]<br/>class = 0>, fillcolor="#8bc5f0"] ;
122 -> 124 ;
125 [label=<BMI &le; 30.95<br/>gini = 0.255<br/>samples = 16<br/>value = [3, 17]<br/>class = 0>, fillcolor="#5caeea"] ;
124 -> 125 ;
126 [label=<gini = 0.0<br/>samples = 4<br/>value = [0, 6]<br/>class = 0>, fillcolor="#399de5"] ;
125 -> 126 ;
127 [label=<Insulin &le; 91.0<br/>gini = 0.337<br/>samples = 12<br/>value = [3, 11]<br/>class = 0>, fillcolor="#6fb8ec"] ;
125 -> 127 ;
128 [label=<gini = 0.0<br/>samples = 1<br/>value = [1, 0]<br/>class = 1>, fillcolor="#e58139"] ;
127 -> 128 ;
129 [label=<Glucose &le; 124.0<br/>gini = 0.26<br/>samples = 11<br/>value = [2, 11]<br/>class = 0>, fillcolor="#5dafea"] ;
127 -> 129 ;
130 [label=<gini = 0.0<br/>samples = 5<br/>value = [0, 5]<br/>class = 0>, fillcolor="#399de5"] ;
129 -> 130 ;
131 [label=<Age &le; 40.0<br/>gini = 0.375<br/>samples = 6<br/>value = [2, 6]<br/>class = 0>, fillcolor="#7bbeee"] ;
129 -> 131 ;
132 [label=<Age &le; 30.0<br/>gini = 0.245<br/>samples = 5<br/>value = [1, 6]<br/>class = 0>, fillcolor="#5aade9"] ;
131 -> 132 ;
133 [label=<BloodPressure &le; 66.0<br/>gini = 0.5<br/>samples = 2<br/>value = [1, 1]<br/>class = 1>, fillcolor="#ffffff"] ;
132 -> 133 ;
134 [label=<gini = 0.0<br/>samples = 1<br/>value = [0, 1]<br/>class = 0>, fillcolor="#399de5"] ;
133 -> 134 ;
135 [label=<gini = 0.0<br/>samples = 1<br/>value = [1, 0]<br/>class = 1>, fillcolor="#e58139"] ;
133 -> 135 ;
136 [label=<gini = 0.0<br/>samples = 3<br/>value = [0, 5]<br/>class = 0>, fillcolor="#399de5"] ;
132 -> 136 ;
137 [label=<gini = 0.0<br/>samples = 1<br/>value = [1, 0]<br/>class = 1>, fillcolor="#e58139"] ;
131 -> 137 ;
138 [label=<gini = 0.0<br/>samples = 3<br/>value = [4, 0]<br/>class = 1>, fillcolor="#e58139"] ;
124 -> 138 ;
139 [label=<Glucose &le; 126.0<br/>gini = 0.236<br/>samples = 13<br/>value = [3, 19]<br/>class = 0>, fillcolor="#58ace9"] ;
113 -> 139 ;
140 [label=<gini = 0.0<br/>samples = 8<br/>value = [0, 15]<br/>class = 0>, fillcolor="#399de5"] ;
139 -> 140 ;
141 [label=<Age &le; 32.0<br/>gini = 0.49<br/>samples = 5<br/>value = [3, 4]<br/>class = 0>, fillcolor="#cee6f8"] ;
139 -> 141 ;
142 [label=<gini = 0.0<br/>samples = 1<br/>value = [0, 3]<br/>class = 0>, fillcolor="#399de5"] ;
141 -> 142 ;
143 [label=<DiabetesPedigreeFunction &le; 0.441<br/>gini = 0.375<br/>samples = 4<br/>value = [3, 1]<br/>class = 1>, fillcolor="#eeab7b"] ;
141 -> 143 ;
144 [label=<BMI &le; 27.5<br/>gini = 0.5<br/>samples = 2<br/>value = [1, 1]<br/>class = 1>, fillcolor="#ffffff"] ;
143 -> 144 ;
145 [label=<gini = 0.0<br/>samples = 1<br/>value = [0, 1]<br/>class = 0>, fillcolor="#399de5"] ;
144 -> 145 ;
146 [label=<gini = 0.0<br/>samples = 1<br/>value = [1, 0]<br/>class = 1>, fillcolor="#e58139"] ;
144 -> 146 ;
147 [label=<gini = 0.0<br/>samples = 2<br/>value = [2, 0]<br/>class = 1>, fillcolor="#e58139"] ;
143 -> 147 ;
148 [label=<Insulin &le; 151.0<br/>gini = 0.4<br/>samples = 45<br/>value = [47, 18]<br/>class = 1>, fillcolor="#efb185"] ;
38 -> 148 ;
149 [label=<gini = 0.0<br/>samples = 5<br/>value = [14, 0]<br/>class = 1>, fillcolor="#e58139"] ;
148 -> 149 ;
150 [label=<Pregnancies &le; 7.5<br/>gini = 0.457<br/>samples = 40<br/>value = [33, 18]<br/>class = 1>, fillcolor="#f3c6a5"] ;
148 -> 150 ;
151 [label=<Age &le; 55.0<br/>gini = 0.495<br/>samples = 32<br/>value = [22, 18]<br/>class = 1>, fillcolor="#fae8db"] ;
150 -> 151 ;
152 [label=<BMI &le; 28.65<br/>gini = 0.467<br/>samples = 29<br/>value = [22, 13]<br/>class = 1>, fillcolor="#f4cbae"] ;
151 -> 152 ;
153 [label=<gini = 0.0<br/>samples = 3<br/>value = [0, 3]<br/>class = 0>, fillcolor="#399de5"] ;
152 -> 153 ;
154 [label=<DiabetesPedigreeFunction &le; 0.332<br/>gini = 0.43<br/>samples = 26<br/>value = [22, 10]<br/>class = 1>, fillcolor="#f1ba93"] ;
152 -> 154 ;
155 [label=<BMI &le; 37.95<br/>gini = 0.48<br/>samples = 10<br/>value = [4, 6]<br/>class = 0>, fillcolor="#bddef6"] ;
154 -> 155 ;
156 [label=<BloodPressure &le; 66.0<br/>gini = 0.49<br/>samples = 7<br/>value = [4, 3]<br/>class = 1>, fillcolor="#f8e0ce"] ;
155 -> 156 ;
157 [label=<gini = 0.0<br/>samples = 2<br/>value = [2, 0]<br/>class = 1>, fillcolor="#e58139"] ;
156 -> 157 ;
158 [label=<BMI &le; 34.45<br/>gini = 0.48<br/>samples = 5<br/>value = [2, 3]<br/>class = 0>, fillcolor="#bddef6"] ;
156 -> 158 ;
159 [label=<gini = 0.0<br/>samples = 2<br/>value = [0, 2]<br/>class = 0>, fillcolor="#399de5"] ;
158 -> 159 ;
160 [label=<BloodPressure &le; 70.0<br/>gini = 0.444<br/>samples = 3<br/>value = [2, 1]<br/>class = 1>, fillcolor="#f2c09c"] ;
158 -> 160 ;
161 [label=<gini = 0.0<br/>samples = 1<br/>value = [1, 0]<br/>class = 1>, fillcolor="#e58139"] ;
160 -> 161 ;
162 [label=<BloodPressure &le; 77.0<br/>gini = 0.5<br/>samples = 2<br/>value = [1, 1]<br/>class = 1>, fillcolor="#ffffff"] ;
160 -> 162 ;
163 [label=<gini = 0.0<br/>samples = 1<br/>value = [0, 1]<br/>class = 0>, fillcolor="#399de5"] ;
162 -> 163 ;
164 [label=<gini = 0.0<br/>samples = 1<br/>value = [1, 0]<br/>class = 1>, fillcolor="#e58139"] ;
162 -> 164 ;
165 [label=<gini = 0.0<br/>samples = 3<br/>value = [0, 3]<br/>class = 0>, fillcolor="#399de5"] ;
155 -> 165 ;
166 [label=<Pregnancies &le; 2.5<br/>gini = 0.298<br/>samples = 16<br/>value = [18, 4]<br/>class = 1>, fillcolor="#eb9d65"] ;
154 -> 166 ;
167 [label=<BMI &le; 32.65<br/>gini = 0.375<br/>samples = 9<br/>value = [9, 3]<br/>class = 1>, fillcolor="#eeab7b"] ;
166 -> 167 ;
168 [label=<gini = 0.0<br/>samples = 1<br/>value = [0, 1]<br/>class = 0>, fillcolor="#399de5"] ;
167 -> 168 ;
169 [label=<BloodPressure &le; 49.0<br/>gini = 0.298<br/>samples = 8<br/>value = [9, 2]<br/>class = 1>, fillcolor="#eb9d65"] ;
167 -> 169 ;
170 [label=<gini = 0.0<br/>samples = 1<br/>value = [0, 1]<br/>class = 0>, fillcolor="#399de5"] ;
169 -> 170 ;
171 [label=<Insulin &le; 175.0<br/>gini = 0.18<br/>samples = 7<br/>value = [9, 1]<br/>class = 1>, fillcolor="#e88f4f"] ;
169 -> 171 ;
172 [label=<Glucose &le; 122.0<br/>gini = 0.444<br/>samples = 2<br/>value = [2, 1]<br/>class = 1>, fillcolor="#f2c09c"] ;
171 -> 172 ;
173 [label=<gini = 0.0<br/>samples = 1<br/>value = [0, 1]<br/>class = 0>, fillcolor="#399de5"] ;
172 -> 173 ;
174 [label=<gini = 0.0<br/>samples = 1<br/>value = [2, 0]<br/>class = 1>, fillcolor="#e58139"] ;
172 -> 174 ;
175 [label=<gini = 0.0<br/>samples = 5<br/>value = [7, 0]<br/>class = 1>, fillcolor="#e58139"] ;
171 -> 175 ;
176 [label=<Insulin &le; 230.0<br/>gini = 0.18<br/>samples = 7<br/>value = [9, 1]<br/>class = 1>, fillcolor="#e88f4f"] ;
166 -> 176 ;
177 [label=<gini = 0.0<br/>samples = 6<br/>value = [9, 0]<br/>class = 1>, fillcolor="#e58139"] ;
176 -> 177 ;
178 [label=<gini = 0.0<br/>samples = 1<br/>value = [0, 1]<br/>class = 0>, fillcolor="#399de5"] ;
176 -> 178 ;
179 [label=<gini = 0.0<br/>samples = 3<br/>value = [0, 5]<br/>class = 0>, fillcolor="#399de5"] ;
151 -> 179 ;
180 [label=<gini = 0.0<br/>samples = 8<br/>value = [11, 0]<br/>class = 1>, fillcolor="#e58139"] ;
150 -> 180 ;
}