digraph Tree {
node [shape=box, style="filled, rounded", color="black", fontname="helvetica"] ;
edge [fontname="helvetica"] ;
0 [label=<Age &le; 30.5<br/>gini = 0.448<br/>samples = 315<br/>value = [172, 336]<br/>class = 0>, fillcolor="#9ecff2"] ;
1 [label=<Glucose &le; 156.0<br/>gini = 0.324<br/>samples = 179<br/>value = [58, 227]<br/>class = 0>, fillcolor="#6cb6ec"] ;
0 -> 1 [labeldistance=2.5, labelangle=45, headlabel="True"] ;
2 [label=<Glucose &le; 103.5<br/>gini = 0.259<br/>samples = 168<br/>value = [41, 227]<br/>class = 0>, fillcolor="#5dafea"] ;
1 -> 2 ;
3 [label=<BMI &le; 37.9<br/>gini = 0.051<br/>samples = 67<br/>value = [3, 111]<br/>class = 0>, fillcolor="#3ea0e6"] ;
2 -> 3 ;
4 [label=<BloodPressure &le; 51.0<br/>gini = 0.02<br/>samples = 57<br/>value = [1, 98]<br/>class = 0>, fillcolor="#3b9ee5"] ;
3 -> 4 ;
5 [label=<Age &le; 25.5<br/>gini = 0.165<br/>samples = 4<br/>value = [1, 10]<br/>class = 0>, fillcolor="#4da7e8"] ;
4 -> 5 ;
6 [label=<gini = 0.0<br/>samples = 2<br/>value = [0, 6]<br/>class = 0>, fillcolor="#399de5"] ;
5 -> 6 ;
7 [label=<BMI &le; 30.9<br/>gini = 0.32<br/>samples = 2<br/>value = [1, 4]<br/>class = 0>, fillcolor="#6ab6ec"] ;
5 -> 7 ;
8 [label=<gini = 0.0<br/>samples = 1<br/>value = [0, 4]<br/>class = 0>, fillcolor="#399de5"] ;
7 -> 8 ;
9 [label=<gini = 0.0<br/>samples = 1<br/>value = [1, 0]<br/>class = 1>, fillcolor="#e58139"] ;
7 -> 9 ;
10 [label=<gini = 0.0<br/>samples = 53<br/>value = [0, 88]<br/>class = 0>, fillcolor="#399de5"] ;
4 -> 10 ;
11 [label=<BloodPressure &le; 65.0<br/>gini = 0.231<br/>samples = 10<br/>value = [2, 13]<br/>class = 0>, fillcolor="#57ace9"] ;
3 -> 11 ;
12 [label=<Glucose &le; 86.0<br/>gini = 0.5<br/>samples = 2<br/>value = [2, 2]<br/>class = 1>, fillcolor="#ffffff"] ;
11 -> 12 ;
13 [label=<gini = 0.0<br/>samples = 1<br/>value = [0, 2]<br/>class = 0>, fillcolor="#399de5"] ;
12 -> 13 ;
14 [label=<gini = 0.0<br/>samples = 1<br/>value = [2, 0]<br/>class = 1>, fillcolor="#e58139"] ;
12 -> 14 ;
15 [label=<gini = 0.0<br/>samples = 8<br/>value = [0, 11]<br/>class = 0>, fillcolor="#399de5"] ;
11 -> 15 ;
16 [label=<Glucose &le; 133.0<br/>gini = 0.372<br/>samples = 101<br/>value = [38, 116]<br/>class = 0>, fillcolor="#7abdee"] ;
2 -> 16 ;
17 [label=<Age &le; 27.5<br/>gini = 0.32<br/>samples = 73<br/>value = [22, 88]<br/>class = 0>, fillcolor="#6ab6ec"] ;
16 -> 17 ;
18 [label=<BMI &le; 31.95<br/>gini = 0.263<br/>samples = 60<br/>value = [14, 76]<br/>class = 0>, fillcolor="#5dafea"] ;
17 -> 18 ;
19 [label=<Pregnancies &le; 6.5<br/>gini = 0.04<br/>samples = 32<br/>value = [1.0, 48.0]<br/>class = 0>, fillcolor="#3d9fe6"] ;
18 -> 19 ;
20 [label=<gini = 0.0<br/>samples = 31<br/>value = [0, 48]<br/>class = 0>, fillcolor="#399de5"] ;
19 -> 20 ;
21 [label=<gini = 0.0<br/>samples = 1<br/>value = [1, 0]<br/>class = 1>, fillcolor="#e58139"] ;
19 -> 21 ;
22 [label=<Insulin &le; 195.0<br/>gini = 0.433<br/>samples = 28<br/>value = [13.0, 28.0]<br/>class = 0>, fillcolor="#95caf1"] ;
18 -> 22 ;
23 [label=<Insulin &le; 177.5<br/>gini = 0.472<br/>samples = 23<br/>value = [13, 21]<br/>class = 0>, fillcolor="#b4daf5"] ;
22 -> 23 ;
24 [label=<Glucose &le; 104.5<br/>gini = 0.451<br/>samples = 22<br/>value = [11, 21]<br/>class = 0>, fillcolor="#a1d0f3"] ;
23 -> 24 ;
25 [label=<gini = 0.0<br/>samples = 1<br/>value = [3, 0]<br/>class = 1>, fillcolor="#e58139"] ;
24 -> 25 ;
26 [label=<Age &le; 21.5<br/>gini = 0.4<br/>samples = 21<br/>value = [8, 21]<br/>class = 0>, fillcolor="#84c2ef"] ;
24 -> 26 ;
27 [label=<Glucose &le; 121.0<br/>gini = 0.494<br/>samples = 5<br/>value = [4, 5]<br/>class = 0>, fillcolor="#d7ebfa"] ;
26 -> 27 ;
28 [label=<DiabetesPedigreeFunction &le; 0.345<br/>gini = 0.444<br/>samples = 3<br/>value = [4, 2]<br/>class = 1>, fillcolor="#f2c09c"] ;
27 -> 28 ;
29 [label=<gini = 0.0<br/>samples = 1<br/>value = [0, 2]<br/>class = 0>, fillcolor="#399de5"] ;
28 -> 29 ;
30 [label=<gini = 0.0<br/>samples = 2<br/>value = [4, 0]<br/>class = 1>, fillcolor="#e58139"] ;
28 -> 30 ;
31 [label=<gini = 0.0<br/>samples = 2<br/>value = [0, 3]<br/>class = 0>, fillcolor="#399de5"] ;
27 -> 31 ;
32 [label=<BMI &le; 33.55<br/>gini = 0.32<br/>samples = 16<br/>value = [4, 16]<br/>class = 0>, fillcolor="#6ab6ec"] ;
26 -> 32 ;
33 [label=<Glucose &le; 111.5<br/>gini = 0.48<br/>samples = 4<br/>value = [3, 2]<br/>class = 1>, fillcolor="#f6d5bd"] ;
32 -> 33 ;
34 [label=<gini = 0.0<br/>samples = 2<br/>value = [0, 2]<br/>class = 0>, fillcolor="#399de5"] ;
33 -> 34 ;
35 [label=<gini = 0.0<br/>samples = 2<br/>value = [3, 0]<br/>class = 1>, fillcolor="#e58139"] ;
33 -> 35 ;
36 [label=<Glucose &le; 110.0<br/>gini = 0.124<br/>samples = 12<br/>value = [1, 14]<br/>class = 0>, fillcolor="#47a4e7"] ;
32 -> 36 ;
37 [label=<Age &le; 25.5<br/>gini = 0.375<br/>samples = 4<br/>value = [1, 3]<br/>class = 0>, fillcolor="#7bbeee"] ;
36 -> 37 ;
38 [label=<gini = 0.0<br/>samples = 3<br/>value = [0, 3]<br/>class = 0>, fillcolor="#399de5"] ;
37 -> 38 ;
39 [label=<gini = 0.0<br/>samples = 1<br/>value = [1, 0]<br/>class = 1>, fillcolor="#e58139"] ;
37 -> 39 ;
40 [label=<gini = 0.0<br/>samples = 8<br/>value = [0, 11]<br/>class = 0>, fillcolor="#399de5"] ;
36 -> 40 ;
41 [label=<gini = 0.0<br/>samples = 1<br/>value = [2, 0]<br/>class = 1>, fillcolor="#e58139"] ;
23 -> 41 ;
42 [label=<gini = 0.0<br/>samples = 5<br/>value = [0, 7]<br/>class = 0>, fillcolor="#399de5"] ;
22 -> 42 ;
43 [label=<Insulin &le; 178.5<br/>gini = 0.48<br/>samples = 13<br/>value = [8, 12]<br/>class = 0>, fillcolor="#bddef6"] ;
17 -> 43 ;
44 [label=<BMI &le; 27.45<br/>gini = 0.32<br/>samples = 11<br/>value = [3, 12]<br/>class = 0>, fillcolor="#6ab6ec"] ;
43 -> 44 ;
45 [label=<BloodPressure &le; 69.0<br/>gini = 0.48<br/>samples = 3<br/>value = [3, 2]<br/>class = 1>, fillcolor="#f6d5bd"] ;
44 -> 45 ;
46 [label=<gini = 0.0<br/>samples = 2<br/>value = [3, 0]<br/>class = 1>, fillcolor="#e58139"] ;
45 -> 46 ;
47 [label=<gini = 0.0<br/>samples = 1<br/>value = [0, 2]<br/>class = 0>, fillcolor="#399de5"] ;
45 -> 47 ;
48 [label=<gini = 0.0<br/>samples = 8<br/>value = [0, 10]<br/>class = 0>, fillcolor="#399de5"] ;
44 -> 48 ;
49 [label=<gini = 0.0<br/>samples = 2<br/>value = [5, 0]<br/>class = 1>, fillcolor="#e58139"] ;
43 -> 49 ;
50 [label=<Glucose &le; 140.5<br/>gini = 0.463<br/>samples = 28<br/>value = [16, 28]<br/>class = 0>, fillcolor="#aad5f4"] ;
16 -> 50 ;
51 [label=<DiabetesPedigreeFunction &le; 0.356<br/>gini = 0.494<br/>samples = 11<br/>value = [10, 8]<br/>class = 1>, fillcolor="#fae6d7"] ;
50 -> 51 ;
52 [label=<gini = 0.0<br/>samples = 5<br/>value = [0, 7]<br/>class = 0>, fillcolor="#399de5"] ;
51 -> 52 ;
53 [label=<BloodPressure &le; 72.0<br/>gini = 0.165<br/>samples = 6<br/>value = [10, 1]<br/>class = 1>, fillcolor="#e88e4d"] ;
51 -> 53 ;
54 [label=<gini = 0.0<br/>samples = 4<br/>value = [7, 0]<br/>class = 1>, fillcolor="#e58139"] ;
53 -> 54 ;
55 [label=<BMI &le; 34.5<br/>gini = 0.375<br/>samples = 2<br/>value = [3, 1]<br/>class = 1>, fillcolor="#eeab7b"] ;
53 -> 55 ;
56 [label=<gini = 0.0<br/>samples = 1<br/>value = [3, 0]<br/>class = 1>, fillcolor="#e58139"] ;
55 -> 56 ;
57 [label=<gini = 0.0<br/>samples = 1<br/>value = [0, 1]<br/>class = 0>, fillcolor="#399de5"] ;
55 -> 57 ;
58 [label=<Pregnancies &le; 0.5<br/>gini = 0.355<br/>samples = 17<br/>value = [6, 20]<br/>class = 0>, fillcolor="#74baed"] ;
50 -> 58 ;
59 [label=<Age &le; 22.5<br/>gini = 0.408<br/>samples = 3<br/>value = [5, 2]<br/>class = 1>, fillcolor="#efb388"] ;
58 -> 59 ;
60 [label=<gini = 0.0<br/>samples = 1<br/>value = [4, 0]<br/>class = 1>, fillcolor="#e58139"] ;
59 -> 60 ;
61 [label=<BloodPressure &le; 77.5<br/>gini = 0.444<br/>samples = 2<br/>value = [1, 2]<br/>class = 0>, fillcolor="#9ccef2"] ;
59 -> 61 ;
62 [label=<gini = 0.0<br/>samples = 1<br/>value = [1, 0]<br/>class = 1>, fillcolor="#e58139"] ;
61 -> 62 ;
63 [label=<gini = 0.0<br/>samples = 1<br/>value = [0, 2]<br/>class = 0>, fillcolor="#399de5"] ;
61 -> 63 ;
64 [label=<BloodPressure &le; 59.0<br/>gini = 0.1<br/>samples = 14<br/>value = [1, 18]<br/>class = 0>, fillcolor="#44a2e6"] ;
58 -> 64 ;
65 [label=<BloodPressure &le; 57.0<br/>gini = 0.375<br/>samples = 3<br/>value = [1, 3]<br/>class = 0>, fillcolor="#7bbeee"] ;
64 -> 65 ;
66 [label=<gini = 0.0<br/>samples = 1<br/>value = [0, 2]<br/>class = 0>, fillcolor="#399de5"] ;
65 -> 66 ;
67 [label=<BMI &le; 28.5<br/>gini = 0.5<br/>samples = 2<br/>value = [1, 1]<br/>class = 1>, fillcolor="#ffffff"] ;
65 -> 67 ;
68 [label=<gini = 0.0<br/>samples = 1<br/>value = [0, 1]<br/>class = 0>, fillcolor="#399de5"] ;
67 -> 68 ;
69 [label=<gini = 0.0<br/>samples = 1<br/>value = [1, 0]<br/>class = 1>, fillcolor="#e58139"] ;
67 -> 69 ;
70 [label=<gini = 0.0<br/>samples = 11<br/>value = [0, 15]<br/>class = 0>, fillcolor="#399de5"] ;
64 -> 70 ;
71 [label=<gini = 0.0<br/>samples = 11<br/>value = [17, 0]<br/>class = 1>, fillcolor="#e58139"] ;
1 -> 71 ;
72 [label=<Glucose &le; 155.0<br/>gini = 0.5<br/>samples = 136<br/>value = [114.0, 109.0]<br/>class = 1>, fillcolor="#fef9f6"] ;
0 -> 72 [labeldistance=2.5, labelangle=-45, headlabel="False"] ;
73 [label=<Glucose &le; 89.5<br/>gini = 0.474<br/>samples = 103<br/>value = [66, 105]<br/>class = 0>, fillcolor="#b5dbf5"] ;
72 -> 73 ;
74 [label=<BloodPressure &le; 73.0<br/>gini = 0.08<br/>samples = 15<br/>value = [1, 23]<br/>class = 0>, fillcolor="#42a1e6"] ;
73 -> 74 ;
75 [label=<Age &le; 44.0<br/>gini = 0.219<br/>samples = 7<br/>value = [1, 7]<br/>class = 0>, fillcolor="#55abe9"] ;
74 -> 75 ;
76 [label=<gini = 0.0<br/>samples = 6<br/>value = [0, 7]<br/>class = 0>, fillcolor="#399de5"] ;
75 -> 76 ;
77 [label=<gini = 0.0<br/>samples = 1<br/>value = [1, 0]<br/>class = 1>, fillcolor="#e58139"] ;
75 -> 77 ;
78 [label=<gini = 0.0<br/>samples = 8<br/>value = [0, 16]<br/>class = 0>, fillcolor="#399de5"] ;
74 -> 78 ;
79 [label=<DiabetesPedigreeFunction &le; 0.464<br/>gini = 0.493<br/>samples = 88<br/>value = [65, 82]<br/>class = 0>, fillcolor="#d6ebfa"] ;
73 -> 79 ;
80 [label=<BMI &le; 30.35<br/>gini = 0.452<br/>samples = 53<br/>value = [30.0, 57.0]<br/>class = 0>, fillcolor="#a1d1f3"] ;
79 -> 80 ;
81 [label=<BloodPressure &le; 73.0<br/>gini = 0.219<br/>samples = 18<br/>value = [3, 21]<br/>class = 0>, fillcolor="#55abe9"] ;
80 -> 81 ;
82 [label=<BloodPressure &le; 65.5<br/>gini = 0.444<br/>samples = 5<br/>value = [2, 4]<br/>class = 0>, fillcolor="#9ccef2"] ;
81 -> 82 ;
83 [label=<gini = 0.0<br/>samples = 2<br/>value = [0, 3]<br/>class = 0>, fillcolor="#399de5"] ;
82 -> 83 ;
84 [label=<DiabetesPedigreeFunction &le; 0.37<br/>gini = 0.444<br/>samples = 3<br/>value = [2, 1]<br/>class = 1>, fillcolor="#f2c09c"] ;
82 -> 84 ;
85 [label=<gini = 0.0<br/>samples = 2<br/>value = [2, 0]<br/>class = 1>, fillcolor="#e58139"] ;
84 -> 85 ;
86 [label=<gini = 0.0<br/>samples = 1<br/>value = [0, 1]<br/>class = 0>, fillcolor="#399de5"] ;
84 -> 86 ;
87 [label=<BMI &le; 29.25<br/>gini = 0.105<br/>samples = 13<br/>value = [1, 17]<br/>class = 0>, fillcolor="#45a3e7"] ;
81 -> 87 ;
88 [label=<gini = 0.0<br/>samples = 8<br/>value = [0, 10]<br/>class = 0>, fillcolor="#399de5"] ;
87 -> 88 ;
89 [label=<BloodPressure &le; 77.0<br/>gini = 0.219<br/>samples = 5<br/>value = [1, 7]<br/>class = 0>, fillcolor="#55abe9"] ;
87 -> 89 ;
90 [label=<gini = 0.0<br/>samples = 1<br/>value = [0, 4]<br/>class = 0>, fillcolor="#399de5"] ;
89 -> 90 ;
91 [label=<DiabetesPedigreeFunction &le; 0.188<br/>gini = 0.375<br/>samples = 4<br/>value = [1, 3]<br/>class = 0>, fillcolor="#7bbeee"] ;
89 -> 91 ;
92 [label=<gini = 0.0<br/>samples = 1<br/>value = [1, 0]<br/>class = 1>, fillcolor="#e58139"] ;
91 -> 92 ;
93 [label=<gini = 0.0<br/>samples = 3<br/>value = [0, 3]<br/>class = 0>, fillcolor="#399de5"] ;
91 -> 93 ;
94 [label=<BloodPressure &le; 65.0<br/>gini = 0.49<br/>samples = 35<br/>value = [27, 36]<br/>class = 0>, fillcolor="#cee6f8"] ;
80 -> 94 ;
95 [label=<DiabetesPedigreeFunction &le; 0.124<br/>gini = 0.18<br/>samples = 5<br/>value = [9, 1]<br/>class = 1>, fillcolor="#e88f4f"] ;
94 -> 95 ;
96 [label=<gini = 0.0<br/>samples = 1<br/>value = [0, 1]<br/>class = 0>, fillcolor="#399de5"] ;
95 -> 96 ;
97 [label=<gini = 0.0<br/>samples = 4<br/>value = [9, 0]<br/>class = 1>, fillcolor="#e58139"] ;
95 -> 97 ;
98 [label=<Age &le; 42.5<br/>gini = 0.449<br/>samples = 30<br/>value = [18, 35]<br/>class = 0>, fillcolor="#9fcff2"] ;
94 -> 98 ;
99 [label=<DiabetesPedigreeFunction &le; 0.232<br/>gini = 0.285<br/>samples = 15<br/>value = [5, 24]<br/>class = 0>, fillcolor="#62b1ea"] ;
98 -> 99 ;
100 [label=<DiabetesPedigreeFunction &le; 0.127<br/>gini = 0.5<br/>samples = 4<br/>value = [3, 3]<br/>class = 1>, fillcolor="#ffffff"] ;
99 -> 100 ;
101 [label=<gini = 0.0<br/>samples = 1<br/>value = [0, 3]<br/>class = 0>, fillcolor="#399de5"] ;
100 -> 101 ;
102 [label=<gini = 0.0<br/>samples = 3<br/>value = [3, 0]<br/>class = 1>, fillcolor="#e58139"] ;
100 -> 102 ;
103 [label=<BloodPressure &le; 73.0<br/>gini = 0.159<br/>samples = 11<br/>value = [2, 21]<br/>class = 0>, fillcolor="#4ca6e7"] ;
99 -> 103 ;
104 [label=<gini = 0.0<br/>samples = 4<br/>value = [0, 8]<br/>class = 0>, fillcolor="#399de5"] ;
103 -> 104 ;
105 [label=<BloodPressure &le; 75.0<br/>gini = 0.231<br/>samples = 7<br/>value = [2, 13]<br/>class = 0>, fillcolor="#57ace9"] ;
103 -> 105 ;
106 [label=<gini = 0.0<br/>samples = 1<br/>value = [1, 0]<br/>class = 1>, fillcolor="#e58139"] ;
105 -> 106 ;
107 [label=<Insulin &le; 148.5<br/>gini = 0.133<br/>samples = 6<br/>value = [1, 13]<br/>class = 0>, fillcolor="#48a5e7"] ;
105 -> 107 ;
108 [label=<gini = 0.0<br/>samples = 4<br/>value = [0, 10]<br/>class = 0>, fillcolor="#399de5"] ;
107 -> 108 ;
109 [label=<BloodPressure &le; 81.0<br/>gini = 0.375<br/>samples = 2<br/>value = [1, 3]<br/>class = 0>, fillcolor="#7bbeee"] ;
107 -> 109 ;
110 [label=<gini = 0.0<br/>samples = 1<br/>value = [0, 3]<br/>class = 0>, fillcolor="#399de5"] ;
109 -> 110 ;
111 [label=<gini = 0.0<br/>samples = 1<br/>value = [1, 0]<br/>class = 1>, fillcolor="#e58139"] ;
109 -> 111 ;
112 [label=<Age &le; 44.5<br/>gini = 0.497<br/>samples = 15<br/>value = [13, 11]<br/>class = 1>, fillcolor="#fbece1"] ;
98 -> 112 ;
113 [label=<gini = 0.0<br/>samples = 2<br/>value = [3, 0]<br/>class = 1>, fillcolor="#e58139"] ;
112 -> 113 ;
114 [label=<Insulin &le; 124.0<br/>gini = 0.499<br/>samples = 13<br/>value = [10, 11]<br/>class = 0>, fillcolor="#edf6fd"] ;
112 -> 114 ;
115 [label=<Insulin &le; 50.0<br/>gini = 0.457<br/>samples = 11<br/>value = [6, 11]<br/>class = 0>, fillcolor="#a5d2f3"] ;
114 -> 115 ;
116 [label=<Age &le; 51.5<br/>gini = 0.496<br/>samples = 8<br/>value = [6, 5]<br/>class = 1>, fillcolor="#fbeade"] ;
115 -> 116 ;
117 [label=<Age &le; 46.0<br/>gini = 0.32<br/>samples = 4<br/>value = [1, 4]<br/>class = 0>, fillcolor="#6ab6ec"] ;
116 -> 117 ;
118 [label=<gini = 0.0<br/>samples = 1<br/>value = [1, 0]<br/>class = 1>, fillcolor="#e58139"] ;
117 -> 118 ;
119 [label=<gini = 0.0<br/>samples = 3<br/>value = [0, 4]<br/>class = 0>, fillcolor="#399de5"] ;
117 -> 119 ;
120 [label=<Glucose &le; 136.0<br/>gini = 0.278<br/>samples = 4<br/>value = [5, 1]<br/>class = 1>, fillcolor="#ea9a61"] ;
116 -> 120 ;
121 [label=<gini = 0.0<br/>samples = 3<br/>value = [5, 0]<br/>class = 1>, fillcolor="#e58139"] ;
120 -> 121 ;
122 [label=<gini = 0.0<br/>samples = 1<br/>value = [0, 1]<br/>class = 0>, fillcolor="#399de5"] ;
120 -> 122 ;
123 [label=<gini = 0.0<br/>samples = 3<br/>value = [0, 6]<br/>class = 0>, fillcolor="#399de5"] ;
115 -> 123 ;
124 [label=<gini = 0.0<br/>samples = 2<br/>value = [4, 0]<br/>class = 1>, fillcolor="#e58139"] ;
114 -> 124 ;
125 [label=<BMI &le; 27.15<br/>gini = 0.486<br/>samples = 35<br/>value = [35, 25]<br/>class = 1>, fillcolor="#f8dbc6"] ;
79 -> 125 ;
126 [label=<gini = 0.0<br/>samples = 9<br/>value = [0, 16]<br/>class = 0>, fillcolor="#399de5"] ;
125 -> 126 ;
127 [label=<Age &le; 58.0<br/>gini = 0.325<br/>samples = 26<br/>value = [35, 9]<br/>class = 1>, fillcolor="#eca16c"] ;
125 -> 127 ;
128 [label=<Pregnancies &le; 7.5<br/>gini = 0.255<br/>samples = 24<br/>value = [34, 6]<br/>class = 1>, fillcolor="#ea975c"] ;
127 -> 128 ;
129 [label=<Insulin &le; 192.5<br/>gini = 0.42<br/>samples = 14<br/>value = [14, 6]<br/>class = 1>, fillcolor="#f0b78e"] ;
128 -> 129 ;
130 [label=<BloodPressure &le; 83.0<br/>gini = 0.346<br/>samples = 13<br/>value = [14, 4]<br/>class = 1>, fillcolor="#eca572"] ;
129 -> 130 ;
131 [label=<BloodPressure &le; 69.0<br/>gini = 0.142<br/>samples = 9<br/>value = [12, 1]<br/>class = 1>, fillcolor="#e78c49"] ;
130 -> 131 ;
132 [label=<gini = 0.0<br/>samples = 1<br/>value = [0, 1]<br/>class = 0>, fillcolor="#399de5"] ;
131 -> 132 ;
133 [label=<gini = 0.0<br/>samples = 8<br/>value = [12, 0]<br/>class = 1>, fillcolor="#e58139"] ;
131 -> 133 ;
134 [label=<Insulin &le; 77.5<br/>gini = 0.48<br/>samples = 4<br/>value = [2, 3]<br/>class = 0>, fillcolor="#bddef6"] ;
130 -> 134 ;
135 [label=<gini = 0.0<br/>samples = 3<br/>value = [0, 3]<br/>class = 0>, fillcolor="#399de5"] ;
134 -> 135 ;
136 [label=<gini = 0.0<br/>samples = 1<br/>value = [2, 0]<br/>class = 1>, fillcolor="#e58139"] ;
134 -> 136 ;
137 [label=<gini = 0.0<br/>samples = 1<br/>value = [0, 2]<br/>class = 0>, fillcolor="#399de5"] ;
129 -> 137 ;
138 [label=<gini = 0.0<br/>samples = 10<br/>value = [20, 0]<br/>class = 1>, fillcolor="#e58139"] ;
128 -> 138 ;
139 [label=<BloodPressure &le; 79.5<br/>gini = 0.375<br/>samples = 2<br/>value = [1, 3]<br/>class = 0>, fillcolor="#7bbeee"] ;
127 -> 139 ;
140 [label=<gini = 0.0<br/>samples = 1<br/>value = [0, 3]<br/>class = 0>, fillcolor="#399de5"] ;
139 -> 140 ;
141 [label=<gini = 0.0<br/>samples = 1<br/>value = [1, 0]<br/>class = 1>, fillcolor="#e58139"] ;
139 -> 141 ;
142 [label=<DiabetesPedigreeFunction &le; 0.298<br/>gini = 0.142<br/>samples = 33<br/>value = [48, 4]<br/>class = 1>, fillcolor="#e78c49"] ;
72 -> 142 ;
143 [label=<Age &le; 40.5<br/>gini = 0.32<br/>samples = 14<br/>value = [16, 4]<br/>class = 1>, fillcolor="#eca06a"] ;
142 -> 143 ;
144 [label=<Pregnancies &le; 5.0<br/>gini = 0.444<br/>samples = 4<br/>value = [2, 4]<br/>class = 0>, fillcolor="#9ccef2"] ;
143 -> 144 ;
145 [label=<gini = 0.0<br/>samples = 2<br/>value = [2, 0]<br/>class = 1>, fillcolor="#e58139"] ;
144 -> 145 ;
146 [label=<gini = 0.0<br/>samples = 2<br/>value = [0, 4]<br/>class = 0>, fillcolor="#399de5"] ;
144 -> 146 ;
147 [label=<gini = 0.0<br/>samples = 10<br/>value = [14, 0]<br/>class = 1>, fillcolor="#e58139"] ;
143 -> 147 ;
148 [label=<gini = 0.0<br/>samples = 19<br/>value = [32, 0]<br/>class = 1>, fillcolor="#e58139"] ;
142 -> 148 ;
}