digraph Tree {
node [shape=box, style="filled, rounded", color="black", fontname="helvetica"] ;
edge [fontname="helvetica"] ;
0 [label=<Glucose &le; 143.5<br/>squared_error = 0.216<br/>samples = 318<br/>value = 0.683>, fillcolor="#eda978"] ;
1 [label=<Age &le; 30.5<br/>squared_error = 0.168<br/>samples = 257<br/>value = 0.787>, fillcolor="#eb9c63"] ;
0 -> 1 [labeldistance=2.5, labelangle=45, headlabel="True"] ;
2 [label=<BMI &le; 45.4<br/>squared_error = 0.102<br/>samples = 167<br/>value = 0.884>, fillcolor="#e89050"] ;
1 -> 2 ;
3 [label=<Glucose &le; 116.5<br/>squared_error = 0.094<br/>samples = 165<br/>value = 0.894>, fillcolor="#e88e4e"] ;
2 -> 3 ;
4 [label=<DiabetesPedigreeFunction &le; 0.893<br/>squared_error = 0.05<br/>samples = 114<br/>value = 0.947>, fillcolor="#e68843"] ;
3 -> 4 ;
5 [label=<BloodPressure &le; 51.0<br/>squared_error = 0.037<br/>samples = 110<br/>value = 0.962>, fillcolor="#e68641"] ;
4 -> 5 ;
6 [label=<Age &le; 25.5<br/>squared_error = 0.204<br/>samples = 4<br/>value = 0.714>, fillcolor="#eca572"] ;
5 -> 6 ;
7 [label=<squared_error = 0.0<br/>samples = 2<br/>value = 1.0>, fillcolor="#e58139"] ;
6 -> 7 ;
8 [label=<Glucose &le; 90.0<br/>squared_error = 0.222<br/>samples = 2<br/>value = 0.333>, fillcolor="#f6d5bd"] ;
6 -> 8 ;
9 [label=<squared_error = 0.0<br/>samples = 1<br/>value = 0.0>, fillcolor="#ffffff"] ;
8 -> 9 ;
10 [label=<squared_error = 0.0<br/>samples = 1<br/>value = 1.0>, fillcolor="#e58139"] ;
8 -> 10 ;
11 [label=<Insulin &le; 159.0<br/>squared_error = 0.028<br/>samples = 106<br/>value = 0.972>, fillcolor="#e6853f"] ;
5 -> 11 ;
12 [label=<Pregnancies &le; 0.5<br/>squared_error = 0.012<br/>samples = 97<br/>value = 0.988>, fillcolor="#e5833b"] ;
11 -> 12 ;
13 [label=<Glucose &le; 103.0<br/>squared_error = 0.076<br/>samples = 19<br/>value = 0.917>, fillcolor="#e78c4a"] ;
12 -> 13 ;
14 [label=<squared_error = 0.0<br/>samples = 13<br/>value = 1.0>, fillcolor="#e58139"] ;
13 -> 14 ;
15 [label=<DiabetesPedigreeFunction &le; 0.546<br/>squared_error = 0.188<br/>samples = 6<br/>value = 0.75>, fillcolor="#eca06a"] ;
13 -> 15 ;
16 [label=<DiabetesPedigreeFunction &le; 0.257<br/>squared_error = 0.222<br/>samples = 3<br/>value = 0.333>, fillcolor="#f6d5bd"] ;
15 -> 16 ;
17 [label=<squared_error = 0.0<br/>samples = 1<br/>value = 1.0>, fillcolor="#e58139"] ;
16 -> 17 ;
18 [label=<squared_error = 0.0<br/>samples = 2<br/>value = 0.0>, fillcolor="#ffffff"] ;
16 -> 18 ;
19 [label=<squared_error = 0.0<br/>samples = 3<br/>value = 1.0>, fillcolor="#e58139"] ;
15 -> 19 ;
20 [label=<squared_error = 0.0<br/>samples = 78<br/>value = 1.0>, fillcolor="#e58139"] ;
12 -> 20 ;
21 [label=<DiabetesPedigreeFunction &le; 0.601<br/>squared_error = 0.16<br/>samples = 9<br/>value = 0.8>, fillcolor="#ea9a61"] ;
11 -> 21 ;
22 [label=<squared_error = 0.0<br/>samples = 6<br/>value = 1.0>, fillcolor="#e58139"] ;
21 -> 22 ;
23 [label=<Glucose &le; 106.5<br/>squared_error = 0.188<br/>samples = 3<br/>value = 0.25>, fillcolor="#f8e0ce"] ;
21 -> 23 ;
24 [label=<squared_error = 0.0<br/>samples = 2<br/>value = 0.0>, fillcolor="#ffffff"] ;
23 -> 24 ;
25 [label=<squared_error = 0.0<br/>samples = 1<br/>value = 1.0>, fillcolor="#e58139"] ;
23 -> 25 ;
26 [label=<DiabetesPedigreeFunction &le; 0.911<br/>squared_error = 0.25<br/>samples = 4<br/>value = 0.5>, fillcolor="#f2c09c"] ;
4 -> 26 ;
27 [label=<squared_error = 0.0<br/>samples = 1<br/>value = 0.0>, fillcolor="#ffffff"] ;
26 -> 27 ;
28 [label=<squared_error = 0.0<br/>samples = 3<br/>value = 1.0>, fillcolor="#e58139"] ;
26 -> 28 ;
29 [label=<BloodPressure &le; 53.0<br/>squared_error = 0.181<br/>samples = 51<br/>value = 0.763>, fillcolor="#eb9f68"] ;
3 -> 29 ;
30 [label=<BMI &le; 41.3<br/>squared_error = 0.222<br/>samples = 4<br/>value = 0.333>, fillcolor="#f6d5bd"] ;
29 -> 30 ;
31 [label=<squared_error = 0.0<br/>samples = 3<br/>value = 0.0>, fillcolor="#ffffff"] ;
30 -> 31 ;
32 [label=<squared_error = 0.0<br/>samples = 1<br/>value = 1.0>, fillcolor="#e58139"] ;
30 -> 32 ;
33 [label=<Pregnancies &le; 6.5<br/>squared_error = 0.16<br/>samples = 47<br/>value = 0.8>, fillcolor="#ea9a61"] ;
29 -> 33 ;
34 [label=<BMI &le; 41.6<br/>squared_error = 0.145<br/>samples = 46<br/>value = 0.824>, fillcolor="#ea975c"] ;
33 -> 34 ;
35 [label=<Pregnancies &le; 2.5<br/>squared_error = 0.108<br/>samples = 40<br/>value = 0.877>, fillcolor="#e89051"] ;
34 -> 35 ;
36 [label=<Pregnancies &le; 1.5<br/>squared_error = 0.028<br/>samples = 24<br/>value = 0.971>, fillcolor="#e6853f"] ;
35 -> 36 ;
37 [label=<squared_error = 0.0<br/>samples = 18<br/>value = 1.0>, fillcolor="#e58139"] ;
36 -> 37 ;
38 [label=<Glucose &le; 132.0<br/>squared_error = 0.09<br/>samples = 6<br/>value = 0.9>, fillcolor="#e88e4d"] ;
36 -> 38 ;
39 [label=<squared_error = 0.0<br/>samples = 4<br/>value = 1.0>, fillcolor="#e58139"] ;
38 -> 39 ;
40 [label=<DiabetesPedigreeFunction &le; 0.62<br/>squared_error = 0.222<br/>samples = 2<br/>value = 0.667>, fillcolor="#eeab7b"] ;
38 -> 40 ;
41 [label=<squared_error = 0.0<br/>samples = 1<br/>value = 0.0>, fillcolor="#ffffff"] ;
40 -> 41 ;
42 [label=<squared_error = 0.0<br/>samples = 1<br/>value = 1.0>, fillcolor="#e58139"] ;
40 -> 42 ;
43 [label=<BMI &le; 32.75<br/>squared_error = 0.198<br/>samples = 16<br/>value = 0.727>, fillcolor="#eca36f"] ;
35 -> 43 ;
44 [label=<DiabetesPedigreeFunction &le; 0.347<br/>squared_error = 0.248<br/>samples = 7<br/>value = 0.455>, fillcolor="#f3c6a5"] ;
43 -> 44 ;
45 [label=<Insulin &le; 57.5<br/>squared_error = 0.204<br/>samples = 4<br/>value = 0.714>, fillcolor="#eca572"] ;
44 -> 45 ;
46 [label=<squared_error = 0.0<br/>samples = 3<br/>value = 1.0>, fillcolor="#e58139"] ;
45 -> 46 ;
47 [label=<squared_error = 0.0<br/>samples = 1<br/>value = 0.0>, fillcolor="#ffffff"] ;
45 -> 47 ;
48 [label=<squared_error = 0.0<br/>samples = 3<br/>value = 0.0>, fillcolor="#ffffff"] ;
44 -> 48 ;
49 [label=<squared_error = 0.0<br/>samples = 9<br/>value = 1.0>, fillcolor="#e58139"] ;
43 -> 49 ;
50 [label=<Age &le; 25.0<br/>squared_error = 0.248<br/>samples = 6<br/>value = 0.545>, fillcolor="#f1ba93"] ;
34 -> 50 ;
51 [label=<squared_error = 0.0<br/>samples = 3<br/>value = 0.0>, fillcolor="#ffffff"] ;
50 -> 51 ;
52 [label=<squared_error = 0.0<br/>samples = 3<br/>value = 1.0>, fillcolor="#e58139"] ;
50 -> 52 ;
53 [label=<squared_error = 0.0<br/>samples = 1<br/>value = 0.0>, fillcolor="#ffffff"] ;
33 -> 53 ;
54 [label=<squared_error = 0.0<br/>samples = 2<br/>value = 0.0>, fillcolor="#ffffff"] ;
2 -> 54 ;
55 [label=<BMI &le; 30.05<br/>squared_error = 0.241<br/>samples = 90<br/>value = 0.596>, fillcolor="#f0b489"] ;
1 -> 55 ;
56 [label=<Pregnancies &le; 10.5<br/>squared_error = 0.107<br/>samples = 35<br/>value = 0.878>, fillcolor="#e89051"] ;
55 -> 56 ;
57 [label=<Pregnancies &le; 2.5<br/>squared_error = 0.079<br/>samples = 32<br/>value = 0.913>, fillcolor="#e78c4a"] ;
56 -> 57 ;
58 [label=<Age &le; 49.0<br/>squared_error = 0.234<br/>samples = 6<br/>value = 0.625>, fillcolor="#efb083"] ;
57 -> 58 ;
59 [label=<Glucose &le; 117.5<br/>squared_error = 0.139<br/>samples = 4<br/>value = 0.833>, fillcolor="#e9965a"] ;
58 -> 59 ;
60 [label=<squared_error = 0.0<br/>samples = 3<br/>value = 1.0>, fillcolor="#e58139"] ;
59 -> 60 ;
61 [label=<squared_error = 0.0<br/>samples = 1<br/>value = 0.0>, fillcolor="#ffffff"] ;
59 -> 61 ;
62 [label=<squared_error = 0.0<br/>samples = 2<br/>value = 0.0>, fillcolor="#ffffff"] ;
58 -> 62 ;
63 [label=<Glucose &le; 133.5<br/>squared_error = 0.026<br/>samples = 26<br/>value = 0.974>, fillcolor="#e6843e"] ;
57 -> 63 ;
64 [label=<squared_error = 0.0<br/>samples = 24<br/>value = 1.0>, fillcolor="#e58139"] ;
63 -> 64 ;
65 [label=<Pregnancies &le; 5.5<br/>squared_error = 0.222<br/>samples = 2<br/>value = 0.667>, fillcolor="#eeab7b"] ;
63 -> 65 ;
66 [label=<squared_error = 0.0<br/>samples = 1<br/>value = 0.0>, fillcolor="#ffffff"] ;
65 -> 66 ;
67 [label=<squared_error = 0.0<br/>samples = 1<br/>value = 1.0>, fillcolor="#e58139"] ;
65 -> 67 ;
68 [label=<BMI &le; 25.95<br/>squared_error = 0.222<br/>samples = 3<br/>value = 0.333>, fillcolor="#f6d5bd"] ;
56 -> 68 ;
69 [label=<squared_error = 0.0<br/>samples = 1<br/>value = 1.0>, fillcolor="#e58139"] ;
68 -> 69 ;
70 [label=<squared_error = 0.0<br/>samples = 2<br/>value = 0.0>, fillcolor="#ffffff"] ;
68 -> 70 ;
71 [label=<BMI &le; 33.0<br/>squared_error = 0.246<br/>samples = 55<br/>value = 0.437>, fillcolor="#f4c8a9"] ;
55 -> 71 ;
72 [label=<Glucose &le; 90.0<br/>squared_error = 0.119<br/>samples = 16<br/>value = 0.138>, fillcolor="#fbeee4"] ;
71 -> 72 ;
73 [label=<squared_error = 0.0<br/>samples = 3<br/>value = 1.0>, fillcolor="#e58139"] ;
72 -> 73 ;
74 [label=<squared_error = 0.0<br/>samples = 13<br/>value = 0.0>, fillcolor="#ffffff"] ;
72 -> 74 ;
75 [label=<BloodPressure &le; 67.0<br/>squared_error = 0.243<br/>samples = 39<br/>value = 0.586>, fillcolor="#f0b58b"] ;
71 -> 75 ;
76 [label=<BloodPressure &le; 59.0<br/>squared_error = 0.109<br/>samples = 5<br/>value = 0.125>, fillcolor="#fcefe6"] ;
75 -> 76 ;
77 [label=<squared_error = 0.0<br/>samples = 1<br/>value = 1.0>, fillcolor="#e58139"] ;
76 -> 77 ;
78 [label=<squared_error = 0.0<br/>samples = 4<br/>value = 0.0>, fillcolor="#ffffff"] ;
76 -> 78 ;
79 [label=<Insulin &le; 123.5<br/>squared_error = 0.224<br/>samples = 34<br/>value = 0.66>, fillcolor="#eeac7c"] ;
75 -> 79 ;
80 [label=<DiabetesPedigreeFunction &le; 0.776<br/>squared_error = 0.178<br/>samples = 26<br/>value = 0.769>, fillcolor="#eb9e67"] ;
79 -> 80 ;
81 [label=<Pregnancies &le; 2.5<br/>squared_error = 0.093<br/>samples = 20<br/>value = 0.897>, fillcolor="#e88e4d"] ;
80 -> 81 ;
82 [label=<squared_error = 0.0<br/>samples = 1<br/>value = 0.0>, fillcolor="#ffffff"] ;
81 -> 82 ;
83 [label=<Pregnancies &le; 12.5<br/>squared_error = 0.036<br/>samples = 19<br/>value = 0.963>, fillcolor="#e68640"] ;
81 -> 83 ;
84 [label=<squared_error = 0.0<br/>samples = 17<br/>value = 1.0>, fillcolor="#e58139"] ;
83 -> 84 ;
85 [label=<BMI &le; 40.0<br/>squared_error = 0.25<br/>samples = 2<br/>value = 0.5>, fillcolor="#f2c09c"] ;
83 -> 85 ;
86 [label=<squared_error = 0.0<br/>samples = 1<br/>value = 1.0>, fillcolor="#e58139"] ;
85 -> 86 ;
87 [label=<squared_error = 0.0<br/>samples = 1<br/>value = 0.0>, fillcolor="#ffffff"] ;
85 -> 87 ;
88 [label=<BloodPressure &le; 87.0<br/>squared_error = 0.24<br/>samples = 6<br/>value = 0.4>, fillcolor="#f5cdb0"] ;
80 -> 88 ;
89 [label=<squared_error = 0.0<br/>samples = 3<br/>value = 0.0>, fillcolor="#ffffff"] ;
88 -> 89 ;
90 [label=<Glucose &le; 118.5<br/>squared_error = 0.16<br/>samples = 3<br/>value = 0.8>, fillcolor="#ea9a61"] ;
88 -> 90 ;
91 [label=<squared_error = 0.0<br/>samples = 2<br/>value = 1.0>, fillcolor="#e58139"] ;
90 -> 91 ;
92 [label=<squared_error = 0.0<br/>samples = 1<br/>value = 0.0>, fillcolor="#ffffff"] ;
90 -> 92 ;
93 [label=<BMI &le; 33.9<br/>squared_error = 0.198<br/>samples = 8<br/>value = 0.273>, fillcolor="#f8ddc9"] ;
79 -> 93 ;
94 [label=<squared_error = 0.0<br/>samples = 1<br/>value = 1.0>, fillcolor="#e58139"] ;
93 -> 94 ;
95 [label=<squared_error = 0.0<br/>samples = 7<br/>value = 0.0>, fillcolor="#ffffff"] ;
93 -> 95 ;
96 [label=<DiabetesPedigreeFunction &le; 0.331<br/>squared_error = 0.201<br/>samples = 61<br/>value = 0.279>, fillcolor="#f8dcc8"] ;
0 -> 96 [labeldistance=2.5, labelangle=-45, headlabel="False"] ;
97 [label=<DiabetesPedigreeFunction &le; 0.164<br/>squared_error = 0.249<br/>samples = 24<br/>value = 0.535>, fillcolor="#f1bc95"] ;
96 -> 97 ;
98 [label=<squared_error = 0.0<br/>samples = 5<br/>value = 0.0>, fillcolor="#ffffff"] ;
97 -> 98 ;
99 [label=<Glucose &le; 146.5<br/>squared_error = 0.219<br/>samples = 19<br/>value = 0.676>, fillcolor="#edaa79"] ;
97 -> 99 ;
100 [label=<squared_error = 0.0<br/>samples = 4<br/>value = 1.0>, fillcolor="#e58139"] ;
99 -> 100 ;
101 [label=<Age &le; 56.5<br/>squared_error = 0.246<br/>samples = 15<br/>value = 0.56>, fillcolor="#f0b890"] ;
99 -> 101 ;
102 [label=<BloodPressure &le; 71.0<br/>squared_error = 0.244<br/>samples = 12<br/>value = 0.421>, fillcolor="#f4caac"] ;
101 -> 102 ;
103 [label=<Insulin &le; 131.0<br/>squared_error = 0.16<br/>samples = 7<br/>value = 0.8>, fillcolor="#ea9a61"] ;
102 -> 103 ;
104 [label=<squared_error = 0.0<br/>samples = 5<br/>value = 1.0>, fillcolor="#e58139"] ;
103 -> 104 ;
105 [label=<squared_error = 0.0<br/>samples = 2<br/>value = 0.0>, fillcolor="#ffffff"] ;
103 -> 105 ;
106 [label=<squared_error = 0.0<br/>samples = 5<br/>value = 0.0>, fillcolor="#ffffff"] ;
102 -> 106 ;
107 [label=<squared_error = 0.0<br/>samples = 3<br/>value = 1.0>, fillcolor="#e58139"] ;
101 -> 107 ;
108 [label=<DiabetesPedigreeFunction &le; 1.097<br/>squared_error = 0.089<br/>samples = 37<br/>value = 0.098>, fillcolor="#fcf3ec"] ;
96 -> 108 ;
109 [label=<DiabetesPedigreeFunction &le; 0.606<br/>squared_error = 0.063<br/>samples = 36<br/>value = 0.068>, fillcolor="#fdf6f2"] ;
108 -> 109 ;
110 [label=<DiabetesPedigreeFunction &le; 0.339<br/>squared_error = 0.021<br/>samples = 25<br/>value = 0.022>, fillcolor="#fefcfb"] ;
109 -> 110 ;
111 [label=<DiabetesPedigreeFunction &le; 0.337<br/>squared_error = 0.139<br/>samples = 3<br/>value = 0.167>, fillcolor="#fbeade"] ;
110 -> 111 ;
112 [label=<squared_error = 0.0<br/>samples = 2<br/>value = 0.0>, fillcolor="#ffffff"] ;
111 -> 112 ;
113 [label=<squared_error = 0.0<br/>samples = 1<br/>value = 1.0>, fillcolor="#e58139"] ;
111 -> 113 ;
114 [label=<squared_error = 0.0<br/>samples = 22<br/>value = 0.0>, fillcolor="#ffffff"] ;
110 -> 114 ;
115 [label=<Glucose &le; 144.5<br/>squared_error = 0.178<br/>samples = 11<br/>value = 0.231>, fillcolor="#f9e2d1"] ;
109 -> 115 ;
116 [label=<squared_error = 0.0<br/>samples = 1<br/>value = 1.0>, fillcolor="#e58139"] ;
115 -> 116 ;
117 [label=<BloodPressure &le; 67.0<br/>squared_error = 0.083<br/>samples = 10<br/>value = 0.091>, fillcolor="#fdf4ed"] ;
115 -> 117 ;
118 [label=<squared_error = 0.0<br/>samples = 1<br/>value = 1.0>, fillcolor="#e58139"] ;
117 -> 118 ;
119 [label=<squared_error = 0.0<br/>samples = 9<br/>value = 0.0>, fillcolor="#ffffff"] ;
117 -> 119 ;
120 [label=<squared_error = 0.0<br/>samples = 1<br/>value = 1.0>, fillcolor="#e58139"] ;
108 -> 120 ;
}